{
  "layerSizes": [
    94,
    64,
    48,
    32,
    10
  ],
  "weights": [
    [
      -0.04054205188482127,
      -0.33827606989435693,
      -0.0379303015756927,
      0.29764277515312165,
      -0.10145091705956072,
      0.08765452313523399,
      0.2234184897083854,
      -0.1228653278712811,
      -0.07660091254983191,
      0.018774145572538755,
      0.05561735407523849,
      0.04634765641375001,
      0.08142142132570258,
      0.17809131709871862,
      -0.1340126726531909,
      -0.08110982262212106,
      0.24469965228133017,
      0.3278277352478118,
      -0.07471860565589862,
      -0.0323715244250935,
      -0.18326932948501307,
      -0.3666405211066214,
      -0.06482985853782036,
      0.2573246321092576,
      0.1911751888760026,
      0.029363795156178922,
      -0.31130092894742556,
      0.13144231204095005,
      0.08400846988893616,
      0.17220390505668906,
      -0.09093703863727239,
      -0.14717413195241466,
      0.005400625514809597,
      0.09810251778936181,
      0.13850321849104796,
      0.11846101439867332,
      0.19526803402393123,
      0.09432909815210944,
      0.39484982762153215,
      0.1664586756613204,
      -0.24920120844841148,
      0.2619359022276034,
      0.15700017006165495,
      -0.12761951867880025,
      0.016509083834872793,
      -0.014997901665253287,
      0.09356543002636973,
      -0.14241676022924443,
      0.17558109370780223,
      0.11563730950595127,
      -0.2620265703189988,
      -0.07726174841775452,
      0.13985006909598832,
      -0.19286493596740706,
      -0.012176954758134129,
      -0.19145029467548585,
      0.24648772049765705,
      -0.061919330396104345,
      0.25389206358598093,
      0.21544211732257224,
      0.25764375349525714,
      -0.0821769243430748,
      -0.08660802340136248,
      -0.15741448217507972,
      -0.0555402140728511,
      0.12956016665643866,
      0.09996299149079368,
      -0.07025893730715363,
      -0.06744879249217885,
      -0.005703892960829959,
      0.004825830774871552,
      0.0831157248476758,
      -0.00945167685268817,
      -0.03392016918505204,
      -0.256643537188164,
      0.08501825884649111,
      0.05292717227333271,
      0.25693295020211077,
      -0.037130027458510906,
      -0.015621830691238547,
      0.6029670149128301,
      0.364855811589607,
      0.3480248794688448,
      0.027327155841801523,
      -0.2330376050138327,
      0.08766078144531655,
      0.004136624897038019,
      0.025225824796855,
      -0.06326080478765386,
      -0.26233828127610864,
      0.22259507107965418,
      0.09625268708744789,
      0.16519587177849096,
      -0.21570052857847416,
      -0.24068296653305504,
      0.08245322184941474,
      -0.1321082599303367,
      -0.20535975725943467,
      0.2997186388464364,
      0.3650612916699635,
      0.17949255246393472,
      0.3903889058727571,
      -0.09550265600539867,
      -0.010368035426678843,
      0.040889100726799396,
      0.16147348116075233,
      0.030734046265676038,
      0.12360874745853218,
      -0.2874427850788451,
      0.05792349882459107,
      0.05921898643624901,
      -0.11913295625728479,
      0.3764532675506774,
      0.005273299521201737,
      0.30002185403307413,
      0.10074248422844534,
      0.13282208640870488,
      -0.026655619516468623,
      0.28210296121407497,
      -0.0029687790858792962,
      -0.35961222798732995,
      0.12912739836087353,
      0.2612255040379467,
      -0.15449670236166602,
      0.3745356278100888,
      -0.005704835984079018,
      -0.0861478541586376,
      0.12861523166899916,
      -0.36016757007048916,
      -0.09312045658284915,
      0.05445193842078175,
      -0.03405594193873994,
      0.039954971181418816,
      0.2792662061840474,
      -0.024344338337724668,
      -0.04821285670984654,
      -0.05623403529141493,
      -0.06884533028092948,
      -0.007148162420380565,
      0.11565073976481015,
      0.21499149984288357,
      -0.05453814432834728,
      0.13116921959650574,
      0.06539737911629326,
      -0.03284096469099054,
      -0.3914229997301944,
      -0.08992190528097632,
      0.07885402120879,
      0.027748054006605828,
      -0.17227028820217888,
      0.04394036059863485,
      -0.11697632551962675,
      -0.020079546713424434,
      -0.5191306434220806,
      0.08064532975160196,
      -0.07311035402666971,
      0.036270485565995714,
      0.14423708400470636,
      -0.01649921960934267,
      -0.11866089383247097,
      -0.015796644637672014,
      -0.07809407863610468,
      0.09995060482336857,
      -0.11791680860994491,
      -0.5147057624974911,
      -0.18847643873231879,
      0.15515679260426313,
      -0.007437675350581464,
      -0.006744193508708996,
      -0.28157132999383894,
      0.026209137356355026,
      -0.08919529396871309,
      -0.10022921907092912,
      0.2163816976218073,
      0.056761237099992284,
      0.28956001710916585,
      0.18128963403356396,
      -0.04705827220197245,
      0.29051301752463876,
      -0.08507099827324405,
      0.029722007589068747,
      0.15666519814912316,
      0.20900034736634437,
      0.06601483271982779,
      -0.23754997255170046,
      0.018616086110329486,
      0.1504070271187243,
      -0.3520142574625157,
      -0.02598036080325769,
      -0.01507955298808153,
      0.06930290235169766,
      -0.09867621205075539,
      -0.16442379443281324,
      -0.07936583981463693,
      0.03533212281243307,
      -0.08953216808889294,
      0.11322481360822026,
      0.10214445182487172,
      -0.06923952076317173,
      -0.2035417106904016,
      0.05663062350495823,
      -0.40418592979255674,
      0.22260252218563464,
      -0.19413292280088876,
      -0.052374151266156715,
      -0.10968556683632244,
      0.14986891403988806,
      -0.37908970490267074,
      0.08798777875383534,
      -0.35011033738510744,
      -0.11515582384182267,
      -0.3070418512992179,
      0.47831676015352764,
      -0.07884087998308315,
      -0.015635372134842312,
      -0.33070248566334753,
      -0.27134466174962746,
      -0.4869872168467203,
      -0.028703249297026175,
      0.023556026173935717,
      -0.0856423560489626,
      0.25043453171986735,
      0.1818416820692666,
      -0.13068254555325348,
      -0.24240750816900375,
      -0.05519505550531541,
      -0.14829403270588784,
      -0.3115426325848537,
      -0.093764203847565,
      0.03752102819184444,
      -0.04811761962367776,
      -0.018689693488926178,
      0.09143599449318371,
      0.07318925599410009,
      0.20058835871473568,
      -0.38895860628420503,
      -0.0095852472743856,
      -0.4829729536775589,
      -0.010438503747682154,
      -0.23625818133367027,
      -0.3223844741471847,
      0.07632670600399033,
      0.07050335230243954,
      -0.1612246591330499,
      -0.1870938391611529,
      -0.03566906430175806,
      -0.1613772489332694,
      -0.12388469228283194,
      0.016808264888422582,
      0.392968636256523,
      -0.16610067674348203,
      0.027238793866745735,
      0.25387819773187864,
      0.19401136816715617,
      -0.04768415867932096,
      0.06250312363579855,
      -0.1694148833262149,
      0.008371030513736638,
      -0.0964374073822889,
      0.3409743748729297,
      -0.0715677596439501,
      0.02571222070139563,
      -0.12905548930614258,
      0.40281961527528953,
      -0.027536369861606385,
      -0.2904672303822846,
      0.11163756572101274,
      0.05719636505699933,
      0.40798901267134974,
      -0.1038310410523016,
      -0.04987468209028306,
      0.021728683632173437,
      0.026813394554149286,
      0.00616396400577672,
      0.1329533503584796,
      0.026810190258250724,
      -0.1353426235361471,
      -0.09667968701080677,
      -0.018894903638165136,
      0.3173593836721468,
      -0.22395629297150987,
      0.039297517007064436,
      0.3100344103591238,
      -0.5843467195609546,
      0.145934727769718,
      -0.2298450523511268,
      -0.22016466204094548,
      -0.36006697182103387,
      -0.03668106869081279,
      0.27567165603478233,
      0.005448022192122384,
      -0.26480039868409494,
      -0.1351462454000224,
      -0.31397490670287875,
      -0.1065575480053204,
      0.1843877845975697,
      0.22176589259570528,
      0.18208664520986706,
      0.14835636164406918,
      -0.06143215173843705,
      -0.139673285941653,
      0.03997286442306528,
      -0.08109179336415456,
      0.06815622841855333,
      -0.044356110731661444,
      0.019158288798101622,
      0.05662921510078624,
      -0.12991255211225616,
      -0.1862928533838343,
      -0.0229484575346674,
      -0.28181295489683383,
      -0.021254854191212348,
      -0.17282171751409808,
      0.11081387205794951,
      0.058157150064046426,
      -0.2251346989066492,
      -0.0810118378234296,
      0.18668919241667795,
      0.10023844038700222,
      -0.004974682431083111,
      -0.15810095295405852,
      -0.22782274150164908,
      0.2317288840404278,
      0.009374202645416857,
      0.10747611385575193,
      0.03729299740935036,
      0.13589668295102925,
      -0.3615240843038535,
      -0.008719439093622078,
      -0.045330524665418384,
      0.026009935873380546,
      -0.2968627282947999,
      0.05674600353756672,
      -0.15516228746860425,
      -0.027456958609437507,
      0.2397490045874231,
      -0.26894341793693655,
      0.04113294491014707,
      0.23516551027145807,
      -0.10200472845364171,
      0.04905250697178812,
      -0.32477416956244054,
      -0.1586215628994882,
      0.008193640136658409,
      -0.4610776065248608,
      0.005039398797069411,
      0.1817784569808183,
      -0.3538325801851632,
      -0.33715024030657426,
      -0.3071743934795816,
      -0.03013749961103563,
      -0.5190568158758564,
      -0.0064804342051265305,
      0.20611537401566238,
      0.1990464459245415,
      0.11434998297897006,
      0.11123290894567339,
      -0.17488850094596778,
      -0.04017624314473925,
      -0.03177901279122271,
      -0.013254199040759404,
      -0.029775957465118144,
      0.23327391268928577,
      -0.15762574391736311,
      -0.26158611561339673,
      -0.045521092533498855,
      0.29250672387930166,
      0.3671358726405545,
      0.02173289445287395,
      0.03972944520669501,
      -0.08993984764424592,
      0.15427948886996176,
      -0.08432026494309022,
      -0.06484611557893036,
      -0.14145555896307183,
      -0.1436577032906741,
      -0.2280283425583791,
      -0.1260989711230195,
      0.20142073958346682,
      0.05110046534283644,
      0.1515721261950962,
      0.12460514955248538,
      0.02533652321885243,
      -0.06372549958461889,
      0.004283146169308389,
      0.10364063892060085,
      0.21379275819216917,
      -0.25962484646201023,
      -0.5594123557015156,
      -0.46793929888171815,
      -0.12902742115347118,
      0.23935960164867331,
      0.023846189989815886,
      -0.042658225616367534,
      0.00966940033872881,
      0.20277159585479093,
      -0.3028123442725019,
      0.10131111097747343,
      -0.13273011178912195,
      -0.1364222805653476,
      0.13048885935198684,
      0.11944192622100631,
      -0.2692422697858808,
      0.053071932430146324,
      -0.3984535537506355,
      -0.17138607674591025,
      -0.025426292414748378,
      -0.03225492322993267,
      0.392042325456336,
      0.08143582016536702,
      0.07363359718720922,
      0.2655904861786406,
      0.145260570920119,
      0.183766647408982,
      0.009790680015631381,
      -0.007735367386123584,
      -0.16867796520802583,
      0.17480808326047875,
      -0.2705246169754243,
      0.44801960600187124,
      -0.2692912189906412,
      0.2635645097984507,
      0.12325979905674508,
      -0.024818748115784064,
      0.3518999030314014,
      -0.2576308855700241,
      0.11649968714413117,
      -0.3257368003948704,
      -0.09893754843409917,
      0.0051723142964478774,
      0.2974492316756122,
      0.08671454593869449,
      -0.006949145757478514,
      -0.21043255666001498,
      -0.19962972860889855,
      0.2644701913864,
      0.04624337281013969,
      -0.02509584398712087,
      -0.1346471591867361,
      0.12843416250253764,
      -0.12853956095516916,
      -0.33931462904124526,
      0.08042353968622817,
      0.28339111813538653,
      0.02219064588907084,
      -0.029472516173472605,
      -0.16649731342463692,
      -0.1148564052219174,
      0.22417543577577242,
      0.09943969577502199,
      0.03737815242690958,
      -0.027675491120573728,
      -0.3575110487293176,
      -0.055994821591307434,
      -0.030169644712080473,
      -0.17670159630103288,
      0.023744071945159352,
      0.05046043655445351,
      -0.16718407585514478,
      -0.04172553419210345,
      0.10451316791385651,
      -0.09268400279217132,
      0.09531254937118938,
      0.06095369429631213,
      -0.18276983488067128,
      0.2064215301409038,
      -0.23025750997164027,
      0.12121904645245686,
      -0.16008731283000288,
      0.19916939617641016,
      0.1549570949290362,
      0.29638346057398846,
      -0.09210943426184347,
      0.10226299128767061,
      -0.14905146135449338,
      0.03734433415087686,
      0.28139101426514895,
      -0.23016137016463706,
      0.22301224763286387,
      -0.12075245640715147,
      0.0032431521906309477,
      -0.0705260944378897,
      0.05457271997272989,
      0.08435145267212586,
      -0.2504801970336073,
      -0.11398183018145813,
      0.057400148666403035,
      -0.09229432213850072,
      -0.19221913849089547,
      0.0567300085429074,
      -0.12159527197467297,
      -0.16466828667382333,
      -0.015347097739651781,
      0.19711576565065733,
      -0.04723908086529774,
      0.43979454732731016,
      -0.16083045611267782,
      -0.36421346937590643,
      0.07941164987880844,
      -0.3493139895713456,
      0.08934527026900685,
      0.1446058249075103,
      0.1382483918947292,
      0.19967711414040984,
      0.01653538395787094,
      0.010081029681546616,
      -0.008838834302434893,
      -0.12793218421369257,
      0.2102532873138644,
      0.030170096935030977,
      -0.09730952619305998,
      -0.14027679370967985,
      -0.20022234254712393,
      0.117714535231773,
      0.15332016048401556,
      0.20122875772203883,
      0.3873492974715059,
      0.12617993322186494,
      -0.07594937595131201,
      0.040809095774470956,
      0.05538008666762658,
      -0.24309064806511183,
      -0.24681365694856028,
      -0.19068635149677643,
      -0.16844696150762445,
      0.20587838370786674,
      -0.15336980764874403,
      0.06972548418805671,
      -0.019405748727186145,
      0.006313249938113982,
      -0.061051566353700196,
      -0.2234468984682243,
      0.1871411928458104,
      0.2715624378431346,
      0.022843644246784908,
      -0.16673397176051422,
      0.06285943360227952,
      -0.17894399778518297,
      -0.39555476720370725,
      0.3501317214688588,
      -0.16420259471437296,
      0.10004619352175442,
      0.0006068354158532095,
      -0.6384382653965124,
      0.10763079384536173,
      0.13389527951519928,
      0.09974370689627253,
      -0.06139477613308567,
      -0.054516106720975926,
      -0.20533578295847063,
      0.16422371510729222,
      0.23341171983862852,
      -0.36801948159050246,
      0.05823250463859225,
      0.13650970046306532,
      -0.09537522762806322,
      -0.08335819885247571,
      -0.2095082747883061,
      0.2533485223776312,
      0.04014829405115254,
      0.1149601860338541,
      -0.3542431101844595,
      -0.12906388457288903,
      0.17108738352805197,
      0.06791021349731352,
      -0.18076091482622944,
      0.11194979619305458,
      0.062272052713692315,
      0.05980494940414263,
      -0.0951711444117182,
      0.27189830562251166,
      -0.208222658664328,
      -0.2147134780650997,
      -0.07914447058973442,
      -0.14857894998861285,
      0.08625777472574149,
      0.1425820693768436,
      0.0428584487663453,
      -0.18650770866426322,
      0.030959759485953302,
      0.08609482209158859,
      0.10864519525275226,
      -0.15609479973685736,
      -0.15043835042913495,
      -0.024213547682345807,
      -0.17045706728218438,
      -0.054187805861259875,
      0.0564950231957374,
      0.23867804416756022,
      -0.42346801295247627,
      0.06094616460004941,
      0.3547719024145134,
      -0.11227920163268,
      0.4246144271244943,
      -0.1468718934192183,
      -0.017746178590983527,
      0.1882382256302361,
      -0.19655290602906583,
      -0.16378130696823323,
      -0.16048186427137864,
      0.21491408300679668,
      -0.5249287125853871,
      0.22487728531155032,
      0.01963660786806068,
      0.07454501912783425,
      -0.10083807042084189,
      0.14284885806987024,
      -0.030516041618983678,
      0.2001348762944389,
      0.11761372083615956,
      0.23383490502063906,
      0.03740888967982238,
      0.2836998696758636,
      -0.32022736055289147,
      -0.19733639178802836,
      -0.2012107659489293,
      0.025681133537301414,
      0.09260691092178118,
      -0.08159337732368946,
      0.11163708097554852,
      0.05595880129826923,
      0.20090537993734203,
      0.07825507374058054,
      0.04416968342540402,
      0.11202644122513573,
      0.13201832239925715,
      -0.015457177874092815,
      0.09139848724338867,
      0.12926374857918302,
      0.02850727301071141,
      -0.049143537008751424,
      0.07894376451919657,
      0.11262633637563962,
      0.05533524702904935,
      0.041396438336541,
      0.026019580506338333,
      0.03929716730233551,
      -0.2994911208070533,
      -0.07339393938761228,
      -0.11388978436682248,
      0.16889806413806216,
      0.102710386246542,
      0.28205182253088923,
      0.03145517732115548,
      0.3934773075929932,
      -0.13244523624832272,
      -0.0037384992273373635,
      -0.07518775515282722,
      -0.06851472059699458,
      0.1267211950782006,
      -0.0690455949610559,
      0.1389389693385707,
      0.2084275665222725,
      -0.052862660990600704,
      0.07772067781465666,
      0.19773571309023616,
      0.20742499442003542,
      0.05449381438318024,
      -0.03527737845087667,
      0.02082742944116229,
      0.11815876708173476,
      0.14948916761354564,
      -0.058293420110210416,
      0.08269458761925014,
      0.03489552282468783,
      0.024902758759037677,
      -0.07365107321128991,
      0.1533364815193713,
      -0.06232990838537579,
      -0.08778345846139621,
      0.06331732052210111,
      -0.0795423750435996,
      0.21757416434725116,
      -0.012844058282240986,
      0.22905465610957698,
      -0.08484304622294314,
      0.3155609883660686,
      -0.23002645191163812,
      0.21829715526985033,
      0.09996916619316668,
      0.008958626698261918,
      -0.24237574833900646,
      -0.08905141927721523,
      0.29945478796574304,
      -0.5063199864244795,
      -0.16575014162427032,
      0.09019380285132411,
      0.07993511175138282,
      -0.0008744163782643116,
      0.22255479252514954,
      0.04674241965479768,
      0.030682345572529482,
      -0.21220118530583154,
      0.22169742619181987,
      -0.02966866943559767,
      0.08536304509254398,
      -0.031258269124703184,
      0.11839389680374028,
      0.08007621516006391,
      -0.206867938749789,
      -0.22693374949128975,
      0.22414828693033767,
      0.07160247881103765,
      0.09025573961087553,
      0.36367678880515675,
      0.06150235767043623,
      0.0011640439427996058,
      -0.21070700905165493,
      0.000668676600653971,
      -0.17024729979066655,
      0.011179395713676866,
      0.2501919140568153,
      0.2324232049032155,
      -0.25030652459554525,
      0.013845556743322874,
      -0.3479361607137943,
      -0.0966021733810142,
      0.1941497248838951,
      -0.19727133107743716,
      -0.012207339616300703,
      -0.09248581269006403,
      -0.19924953503807694,
      0.296565344840256,
      -0.36306112250323197,
      -0.09050394867687249,
      0.17118933632510108,
      -0.17609383959001262,
      0.0424544859808539,
      -0.19632589371462195,
      -0.12196721940531845,
      0.2451868139741662,
      -0.02391731880302747,
      -0.023145770263896207,
      -0.1607328336003606,
      -0.03572276260815292,
      0.03504214291785257,
      -0.02047142980979542,
      0.06863797735669867,
      -0.18541993421007275,
      -0.126230012507011,
      -0.24882731182286183,
      -0.04443177712009376,
      -0.06268992700357286,
      -0.06743257991730547,
      -0.2575591550553559,
      0.18453511043235196,
      -0.062413391480160355,
      -0.20345510438173559,
      -0.3062360509200538,
      0.0737917630200115,
      -0.12491878035989383,
      -0.12217946556441059,
      -0.012011799844563657,
      0.35080550541206756,
      0.07064500882102417,
      -0.13960186357740845,
      0.018624441407320377,
      -0.06478752602168043,
      0.3381257987917551,
      0.2868630951400127,
      -0.246560019287732,
      -0.11551855787832799,
      -0.21628514495416473,
      -0.13125522161965666,
      -0.05994238355555193,
      -0.00532618559021681,
      0.0616709737963754,
      -0.007516155230205606,
      0.18377386020481448,
      0.1355289226426708,
      0.03581000468469651,
      -0.03598730276985762,
      0.10224353259514674,
      0.08684777936216392,
      0.41484856311929885,
      -0.060401255971432345,
      -0.26752399222363177,
      0.3486325184372607,
      0.08057030180136594,
      -0.07876001211132813,
      0.13883884703385238,
      -0.1673981588726224,
      -0.08144697921066558,
      0.167655771892324,
      -0.004441555109225642,
      0.03658905142003803,
      0.12604876345683452,
      0.34795551240390155,
      -0.13704260967342155,
      -0.16480957998168339,
      -0.08769486514150186,
      0.08360911341093208,
      -0.07860307372092491,
      -0.1700071237205118,
      0.07092433671661004,
      -0.30740584782632074,
      -0.09814051098070668,
      -0.009739126589187588,
      -0.162230985072193,
      0.05440754474359939,
      0.07582164832833369,
      0.001709431492356625,
      -0.13862705340403222,
      -0.19006733082717472,
      0.18486590430064997,
      -0.26331228211081437,
      -0.08139203728073532,
      -0.03746897927423001,
      0.2138456965546099,
      0.021994689477427637,
      -0.012193551666681401,
      -0.21924914998446526,
      -0.10063314761336589,
      -0.08272289737867197,
      0.16600984797268487,
      -0.28173488520239487,
      -0.38370671891998187,
      0.2757959085751371,
      -0.025190090854785914,
      0.10727957291881876,
      -0.4274247582953515,
      -0.0811493975210095,
      0.004432429770202209,
      0.4492013762736119,
      -0.10325529604485828,
      0.010155686940588118,
      -0.16661970965832096,
      -0.05828882549280913,
      -0.016144328760090365,
      -0.16187872652426194,
      -0.10872709617765641,
      0.18431734709363204,
      0.05714366655703717,
      -0.3603013128780189,
      -0.1903173195463973,
      -0.006732398810997626,
      -0.042020105644367894,
      0.03125890548270514,
      -0.30421866698577155,
      0.0866622363135287,
      0.008408510905631675,
      -0.044700048599106416,
      -0.05941140574637034,
      -0.05833896412174199,
      -0.13479870214005718,
      0.04441796461738722,
      0.3440280362325121,
      0.04612759318399781,
      -0.1617596614825715,
      -0.2245057023248327,
      -0.028332891054653225,
      -0.09051967034653352,
      -0.1883321806694715,
      -0.07767150233718839,
      -0.21387315985950692,
      -0.2760491569661543,
      -0.23273193168450004,
      0.10591435215476226,
      0.5046936310328611,
      -0.3290116853926794,
      -0.007161878175503331,
      -0.001371276887673037,
      -0.22174948346557974,
      0.2673446468353545,
      -0.4619220796477392,
      0.42275619763262573,
      -0.07622908995639455,
      0.04679104723393206,
      -0.21392919078088551,
      -0.03571367321121922,
      0.13347833894987943,
      0.3428589486439135,
      0.005196947046257977,
      0.046265868604320824,
      0.08579344026330041,
      -0.15866817482561965,
      0.017884795502510223,
      0.205789734437349,
      0.18280500117961618,
      0.07151145093873257,
      0.1094763716529998,
      -0.10785768330970719,
      -0.008870999588351034,
      0.12281121791592392,
      0.03065152431781262,
      0.3059849184460594,
      -0.21245617367988961,
      -0.005351882677543565,
      -0.3685282145550133,
      0.20010354615464732,
      0.03930883935788951,
      -0.06346292976466862,
      0.09115602993425698,
      -0.252729154907571,
      -0.18033925740512405,
      0.0766863959704225,
      0.024732129255120576,
      0.11274003991086265,
      0.1986945820452805,
      -0.35468598829870973,
      -0.022409971530331474,
      -0.23547162225212137,
      -0.034732164050138264,
      0.05736285886385812,
      -0.07365960927578459,
      -0.006432355658254696,
      -0.034945700827895304,
      -0.07373730278099896,
      -0.10389376347429147,
      0.1082949498894178,
      0.2783597355878372,
      0.005432483825489592,
      0.21750501021430224,
      -0.04332534431715367,
      0.1382776064659631,
      -0.11418207671154162,
      0.2431199168985196,
      -0.06396380783018613,
      0.0462159049568293,
      0.23869886740059176,
      0.23055470617752521,
      -0.0062466399688619195,
      0.2686088405621634,
      -0.1668927295020013,
      0.24614534107281028,
      -0.4680246114697943,
      -0.10031760508813325,
      -0.020175126365827634,
      0.06264748764325499,
      0.10890816067908003,
      0.1430691264472319,
      -0.09300136409623075,
      -0.2491125851469187,
      -0.1518391810524291,
      -0.2232435704423523,
      -0.1318659070904269,
      -0.07785999359060952,
      -0.204365474980579,
      -0.015840180688563382,
      0.05051289839363926,
      0.1318809657692894,
      -0.06972169257952326,
      0.028311079945947185,
      -0.1840602976178451,
      0.025413760500847205,
      -0.11266689925203116,
      -0.26009034919558177,
      0.01216756302972416,
      -0.03534397785679068,
      0.4431703969057452,
      -0.13861992596541697,
      -0.16219755449671572,
      0.1114448523604365,
      0.004573706843822871,
      0.05570898980106487,
      0.005046965090237082,
      -0.18330347560318788,
      0.10442036083739967,
      -0.12314708284323225,
      0.4761180846403399,
      -0.343521804457146,
      -0.15813760744653085,
      -0.24741050010520851,
      0.054601082235265344,
      0.21935559103773222,
      -0.026055282696410276,
      -0.05748045023952382,
      0.03563101450995053,
      -0.22949062086493685,
      -0.4562061307731519,
      0.01233319894069762,
      -0.020144533518177327,
      -0.1733036887924748,
      0.30907711325994414,
      0.07379686345169462,
      -0.09858425802156315,
      -0.13732988968066479,
      0.26082660277599234,
      0.02496591443026111,
      0.24268774676869334,
      0.10496164521155389,
      -0.42941654336551066,
      0.010602036529433034,
      0.23983196665270418,
      0.2239087385342434,
      -0.11351249604315503,
      -0.11076112550983587,
      0.22435562954961713,
      0.08793589529740545,
      -0.02972201865058964,
      -0.14540576975703487,
      -0.2035412838714714,
      -0.25061236130808273,
      0.03574629831257644,
      -0.1929182247339549,
      -0.0782131065638344,
      -0.2077952972932408,
      -0.05991883602484396,
      -0.027616857666847752,
      -0.037139240315172906,
      0.1189202680068653,
      -0.016163879040722362,
      -0.3700462527757989,
      0.020751716053525465,
      -0.18497089880925646,
      0.016626891172783,
      -0.05917497229060785,
      -0.1691572146717081,
      0.060679641016905206,
      -0.03793771094231205,
      0.559320249942655,
      0.22173611048450764,
      0.1959526055441138,
      0.39884981065923375,
      0.18324137684742614,
      -0.14241481693169591,
      -0.11067137764663741,
      0.12061737839676279,
      -0.02698439535778112,
      -0.013391952831766793,
      0.24102453986875488,
      -0.28635631463536804,
      0.29432984923514155,
      0.070356306263265,
      0.10747289215943123,
      -0.03403666419201814,
      0.061521216451718555,
      0.019756010134444765,
      -0.04655219005144899,
      0.08823890124222733,
      -0.24074436898161322,
      0.08883106807229021,
      -0.0327755661508531,
      0.09331542448042152,
      0.07281670950164335,
      0.20743427470883807,
      0.1085518370028685,
      0.3162335111911132,
      -0.4039119659352054,
      0.12945088148183315,
      -0.08762821747762903,
      -0.041254627943817956,
      -0.13912001518198036,
      0.060329182003034255,
      0.0820973168951959,
      0.36820892021992807,
      0.170594277070756,
      -0.3090085426884227,
      -0.07969357108496222,
      0.2176600392306418,
      -0.06982344154469868,
      -0.30809205491143166,
      0.03312315816115176,
      -0.07680556362910664,
      0.021719804432793484,
      -0.21696222347466554,
      -0.04307542390046542,
      0.086644571546237,
      0.09752086268685273,
      -0.23361992406763152,
      0.09815207662081499,
      -0.08050200051856699,
      -0.08212487206897602,
      -0.015179247509912511,
      -0.29174042201954964,
      -0.21912442900177453,
      -0.09387785243439281,
      -0.2868522241304802,
      0.04863672665283661,
      0.4107818120322795,
      -0.18580330059238076,
      -0.13840840605313395,
      0.2790645310348258,
      0.14999171758979832,
      0.04977713646269675,
      0.19640807851796602,
      -0.1429102649632082,
      -0.058929398903756876,
      0.06575480892293181,
      0.0010099036554300916,
      0.015937362946527922,
      -0.3177050000397076,
      -0.1922060993803544,
      -0.16951076046792282,
      -0.07214602500503475,
      0.17580413984790844,
      0.07918440671018874,
      0.13752471977280434,
      0.020226958938955042,
      0.2051768586857191,
      0.02223135214660914,
      -0.347772535406782,
      0.2530682235339139,
      0.12928871853696813,
      0.2674105462618164,
      0.03361497274232384,
      -0.11170520301874207,
      -0.196322856908429,
      0.1957814934327488,
      -0.21199530823216664,
      -0.0026146250431700767,
      0.03908339811104,
      -0.21572827494660635,
      -0.3111596473119594,
      0.6644746427026835,
      0.17486017228181674,
      0.1370916061545055,
      -0.22630837946791352,
      -0.0048421375781825746,
      0.062120126911377666,
      -0.13278711146379948,
      -0.07786848117823147,
      -0.1705809102840386,
      0.006401119572517461,
      -0.1252913089250403,
      -0.10088535005212584,
      -0.10563507044362991,
      -0.2261820952083579,
      -0.19590947560741337,
      -0.013879145700405063,
      0.24740379744611063,
      -0.026662557926360957,
      -0.08840628797989208,
      -0.16397920309391867,
      -0.18482885963516527,
      -0.26766209690886,
      -0.08225017902702984,
      -0.0006492732101873872,
      0.052471071912619224,
      -0.01956090207463089,
      -0.054830760056005526,
      -0.34529630023079305,
      0.2308308185573245,
      -0.07971149389154435,
      -0.020261502318377422,
      0.06626359224290657,
      0.012802621317202348,
      0.0933844550110081,
      -0.08878660577611353,
      -0.05604596288184829,
      -0.07677006086684889,
      0.100024960235816,
      0.14987816977322285,
      -0.2652398733657278,
      0.023529143542371393,
      0.19588038170023842,
      -0.11339391489584574,
      -0.1658160298185873,
      -0.37751066823498053,
      0.3007415844199151,
      -0.09385570088524275,
      -0.024666523338569044,
      -0.2979607581899032,
      -0.029309614845906287,
      -0.1301795901237175,
      -0.22250073403075243,
      0.04153709178371096,
      0.13795046434185018,
      -0.08374244236078779,
      -0.044198700544740135,
      0.10893635791986131,
      -0.052955305094662196,
      0.08649088391332879,
      -0.12922893426554033,
      -0.2079099484210454,
      -0.1461740139711971,
      -0.001097086846850101,
      0.1747407827639297,
      0.14119290934530948,
      0.03918782935765532,
      0.057938427959525,
      -0.29777750737969944,
      0.09017696528458272,
      -0.030881627974957887,
      0.09732492089475445,
      0.18671900314813195,
      -0.45501264729185825,
      -0.021785718296994723,
      0.0900455553474549,
      0.17000715409277645,
      0.051294564913632074,
      -0.41911496996696596,
      -0.10773371792006062,
      -0.17227623732223088,
      -0.1319443490188961,
      0.24290180294201283,
      0.08211858626372746,
      0.10417699213407106,
      -0.05552959189320977,
      0.1366352552384583,
      0.02911098096468133,
      -0.24495259642405182,
      -0.2645741784898674,
      -0.07736777140927721,
      -0.0893539836648839,
      -0.1816916191928743,
      -0.10665112781655618,
      -0.13189187167833377,
      0.060841993177952386,
      0.08560271989435932,
      -0.0432072119361033,
      -0.01183336967053171,
      -0.1829899467122583,
      -0.16942809731048247,
      0.07194502937170577,
      0.43461648276526266,
      -0.013920865871941024,
      0.026330606362950044,
      0.005793121350967809,
      0.061318633550341034,
      -0.2183721683854252,
      -0.20113374136973813,
      0.210976503756864,
      -0.06819211970883975,
      -0.17764779767302014,
      -0.25427237941544745,
      -0.16388778607231708,
      0.056757842512680415,
      -0.13143811104700698,
      0.022784564350586803,
      0.4311510489577859,
      -0.19521038774276678,
      0.1651948038319008,
      0.2140597164506431,
      -0.2648535604046705,
      0.1130391152620062,
      0.006871637423652988,
      0.016170202753902935,
      0.10843393975579237,
      -0.07621703326988123,
      0.16869317543453305,
      -0.20406046168495987,
      0.04566939002246377,
      0.1967843144083911,
      0.09597081004267037,
      -0.17581911770685343,
      0.04749220909531453,
      -0.1304474700099976,
      0.019623104012809263,
      0.3353476633909036,
      -0.10516501510155143,
      0.038564288993946344,
      0.23545571968539164,
      0.11536440218714389,
      -0.20373288768911896,
      -0.18391366063977435,
      0.029043332778256076,
      0.2716084153678219,
      0.20391780389360536,
      0.17249119213719066,
      -0.1330959581934146,
      -0.06955195413970675,
      0.12686536863065911,
      0.08902333447065304,
      -0.14512304051766228,
      0.31918879276802004,
      0.21369246438737544,
      0.0678568103047679,
      0.03184580506781917,
      0.2724925584942714,
      -0.31667052896540654,
      -0.15868858435971261,
      -0.08069353542300906,
      0.2156918452510439,
      0.08432722005907894,
      -0.2337368919731053,
      0.10335336469324327,
      0.07818260990457068,
      0.0008730954959782978,
      -0.08654400952091756,
      -0.09591060343706226,
      0.0001425515223475171,
      -0.37073853319961136,
      -0.007199293338236178,
      -0.03494583196973982,
      -0.4632038211900674,
      0.025727445050765636,
      0.4358816141228382,
      0.020219085181435503,
      0.09757041953492321,
      0.06789781101866657,
      0.025983078558269285,
      0.006295027263528595,
      0.20962703785638637,
      0.08144836834873259,
      -0.2698448609634674,
      -0.18508611114146356,
      0.14343137450078397,
      0.12009889353662281,
      -0.13312235595074406,
      0.03998708019156964,
      -0.19743671204964114,
      0.3365556728003307,
      -0.2599713469596232,
      -0.2165273228955149,
      -0.15546505979551983,
      -0.22232523591739398,
      0.21858733105743006,
      0.3310641319506731,
      0.11730543424749469,
      0.0009676056047929343,
      0.027503649343934074,
      -0.04293516511257542,
      -0.00954545112090397,
      -0.16740990374883213,
      -0.1031542786792948,
      0.3142800374111516,
      -0.02431268125651364,
      -0.2543701134691015,
      0.09221066870447864,
      -0.13333017890632792,
      0.2677981352568609,
      0.1304454159567333,
      -0.13846730716781375,
      0.2585778047952565,
      0.06475434477697445,
      -0.033425663442426284,
      0.05199374470295942,
      0.3555791598546126,
      0.15814824912404257,
      -0.11575605850285112,
      0.05630511483468323,
      0.09400646824765843,
      0.0011033050476404564,
      -0.11611088650941695,
      0.023300321056746513,
      0.08098554678737016,
      0.18396613880229773,
      -0.23011613990766372,
      0.01071101323103954,
      -0.33508507525080733,
      0.19862623483416902,
      -0.018163204243761354,
      -0.43698559556146616,
      -0.13990379473897932,
      -0.13989201799191675,
      -0.12316198475491816,
      -0.05020733233694956,
      -0.14347898657889432,
      0.15511606204443182,
      0.4108492829014575,
      -0.10119774910996548,
      -0.11910973596734187,
      0.1904478037868498,
      -0.14299706392405742,
      0.317593263280863,
      0.008925850466489652,
      -0.2621927792974822,
      0.2332764140895462,
      -0.0440292979626631,
      0.016665366887640337,
      0.03773270168522451,
      0.2177472975061372,
      0.03176660568932095,
      -0.035773991886576845,
      0.04708216498855075,
      -0.16540961762208917,
      0.3040992916850593,
      -0.026074034321425785,
      0.10809198094427107,
      0.025073913164258332,
      0.1515983301355754,
      -0.3114157636144107,
      -0.2529541046812714,
      0.19855611256806155,
      -0.3060500914044157,
      -0.1114831542458189,
      -0.033788026131199425,
      -0.0631106489621632,
      0.33041725042843884,
      -0.12252746079287606,
      -0.27070983670496607,
      0.1018702034091894,
      0.28242474301743486,
      -0.3734047222725998,
      -0.021640438764748013,
      -0.12594139122966452,
      -0.001130972207067732,
      -0.006336266670268119,
      0.05655944009262133,
      0.15458047811635076,
      -0.14541385152237613,
      -0.07220744358185019,
      -0.25838272451301414,
      0.08546518628794395,
      0.23243039400934204,
      -0.16840131847065148,
      0.218106500631264,
      -0.2965377405128361,
      -0.05312598605124293,
      0.14123882281254896,
      -0.09595084092288694,
      0.13585213490175774,
      0.045062161223360014,
      0.04833375625634642,
      -0.1214497874130143,
      0.023255897676491305,
      -0.18284287503434657,
      -0.3866438204053007,
      0.07623599460779615,
      -0.1282047350204198,
      0.33350944858146847,
      -0.49986907134476766,
      0.14006756297121195,
      0.04583152874574793,
      0.13016176535043228,
      -0.17284099351440585,
      -0.024497215327675223,
      -0.02547516153708993,
      0.055401776871245006,
      0.06388849918351709,
      -0.1493932203839649,
      -0.12586640361132523,
      -0.311736878145504,
      -0.17077406968474507,
      0.15595841336239377,
      -0.027582039196664354,
      0.27397341041548995,
      -0.1042160866823867,
      -0.0467914308272796,
      -0.09506358326355643,
      -0.08267668520603622,
      0.2348564975033034,
      -0.21556857942549504,
      -0.11728584396603467,
      0.07791036548825876,
      0.1453810317965139,
      -0.11650097191766087,
      -0.05033772342341762,
      0.2321313711771934,
      -0.0510657728705086,
      -0.1346935830477484,
      0.11807926150433774,
      -0.17028620968581046,
      0.0012098094939438642,
      -0.18763635462319184,
      0.031896594757257576,
      -0.07640287579117683,
      -0.24972261784527278,
      0.0791819396953475,
      0.286628011734471,
      -0.046630881491223325,
      0.1079892940011567,
      -0.11574602010758617,
      0.016312018855155527,
      -0.22960062285493194,
      -0.13729640124550618,
      0.2385580551974688,
      0.014358554789189015,
      0.1217031711938869,
      -0.16800431459073,
      -0.0187833050414358,
      -0.23213456803401963,
      0.21787541714063885,
      0.26167465619846814,
      0.43558569478572673,
      -0.0516815081651181,
      0.0664156219099053,
      -0.05524854474948993,
      0.18687548873261572,
      0.1575609285510264,
      -0.11175044895801754,
      -0.002467459687141446,
      0.009623898012732834,
      0.09313317674575222,
      -0.01792062947183369,
      -0.18690424878364437,
      0.12123102438217931,
      -0.553945796537978,
      -0.013946195556955298,
      0.14480451332447103,
      -0.1270134264871513,
      0.24378636778104273,
      0.060948119350410807,
      0.015161719414339303,
      0.24301658893944647,
      -0.20683617272073382,
      -0.26915019004264307,
      -0.2450123880335838,
      -0.005080983750888689,
      0.1390519249274459,
      -0.09769808117352219,
      0.09140978965389504,
      -0.33765878570369,
      0.3539132260081543,
      -0.415179395222593,
      0.3809498323470311,
      0.010315542837407182,
      0.02977281415447769,
      -0.3774985820034032,
      -0.07295804963769456,
      -0.006913765348351571,
      -0.20257313509073593,
      0.19080917347482643,
      -0.008450618119687297,
      0.09817702248542047,
      0.07952125681061883,
      -0.34422244385573453,
      0.0030369845639400816,
      0.17929921796403586,
      0.03477410693539299,
      -0.09573234592405655,
      0.14763313710503922,
      -0.2883587472208326,
      -0.03280522526860863,
      0.29288282531417614,
      -0.3151189819882758,
      -0.18200888452444475,
      -0.10708634682999062,
      0.046281759673675385,
      0.036727806799770515,
      -0.0653346091847154,
      -0.38519016685444696,
      -0.11265432753519161,
      -0.021883304661757474,
      0.12684563635525586,
      0.028323197646736742,
      0.1366654633661022,
      0.1004218496572838,
      0.04945400561198918,
      0.12440112471752354,
      0.062076007453555876,
      0.16626918815640224,
      0.11273994155354741,
      -0.044049664275324044,
      -0.1290189524842941,
      -0.01985234860375694,
      0.1355742461366043,
      -0.12030594596158345,
      -0.1463974565782175,
      -0.0061516106661546055,
      -0.130350778847104,
      -0.041379238242105515,
      -0.022251346642181827,
      -0.1869867043216075,
      -0.052816316896696386,
      -0.3505540562439984,
      0.15580398887573085,
      0.34480908189240167,
      -0.15064818913803715,
      0.35218805919105467,
      0.09480489944784003,
      -0.12812083601244362,
      -0.17317690069881614,
      -0.1991978680518328,
      -0.20040705081457225,
      0.03160184357538612,
      -0.07708840193249814,
      -0.12453566511965086,
      -0.18531102865212692,
      0.21039600104927333,
      0.07390264812281709,
      -0.04665178843285377,
      0.2144409626769916,
      -0.2800502757153566,
      -0.2218059956078709,
      -0.001507781961367305,
      -0.2576721364535001,
      0.06855795428646277,
      0.559929644771825,
      -0.06343500421793427,
      -0.16752149851045178,
      -0.42797971797443823,
      -0.2522368747016363,
      -0.5637247084473518,
      0.040249926420443005,
      -0.09589620822593646,
      -0.3033795643167022,
      0.10649108265494624,
      -0.15948332891037018,
      0.06563792064467384,
      -0.11207791125615127,
      0.34991962585667163,
      0.2760862450820267,
      -0.0574461258451304,
      -0.4543422534876849,
      0.15801232611280244,
      -0.19754663194436783,
      -0.09890839255509215,
      0.15314109767567358,
      0.17105320745624417,
      -0.12765509410687753,
      0.22617287065832542,
      -0.15685648853922549,
      -0.13037408487895236,
      0.20810204491431533,
      -0.20759252662292066,
      0.1777064940759912,
      -0.1470146120996123,
      0.028636646662266806,
      0.15943059556536243,
      0.036821430314668654,
      -0.17826491761085433,
      -0.030634147153205976,
      0.12796593450236662,
      0.19876536971577285,
      -0.14958405065679678,
      0.22877546441199748,
      0.08393162829440401,
      -0.07624315821599258,
      0.046458111135696534,
      -0.0076657259912449455,
      0.24874805868855385,
      0.24504864823173556,
      -0.1668849323461124,
      0.1002777378099874,
      -0.15677456968138997,
      0.2073938669957901,
      -0.027328560416718203,
      0.065984031227902,
      0.04056226777248319,
      0.09127742354284252,
      -0.26425980821375994,
      -0.13328832110834163,
      -0.1404356420035431,
      0.1040744060076074,
      -0.08684826606777733,
      0.22962519821490782,
      -0.11204211451077087,
      -0.18442456802191967,
      -0.21696067355251675,
      0.21874544950100033,
      -0.009988961587331938,
      0.0337855207505035,
      -0.010868123919738085,
      0.17503751257656552,
      -0.1332732866514066,
      0.04870288026519436,
      0.16794750957533808,
      -0.07539206935285875,
      -0.053963744444182976,
      0.1067974203445107,
      -0.2272311724192894,
      0.35456412168178053,
      0.1391595793461759,
      -0.03035329539132403,
      0.10532274600805044,
      0.06814679864477252,
      0.2520895287585072,
      0.014617138258285964,
      -0.09546566838146012,
      0.12338151859431912,
      0.0453590586565262,
      0.19222798157073406,
      -0.2864331875758611,
      -0.005984942285171407,
      -0.16514230961022372,
      -0.2881666454335029,
      -0.3303425277344366,
      0.3533406994660887,
      0.18796599249818524,
      0.026216813320973878,
      -0.16229815498368202,
      0.13388832653156607,
      0.1704070697094831,
      -0.18054845010984072,
      0.03619357710666146,
      0.1763395588294106,
      0.011011577689739344,
      0.08411917219591848,
      -0.10829825170178906,
      0.08560502293143882,
      -0.020032716248937182,
      0.13387171466070685,
      0.13267070938051384,
      -0.013123570588026764,
      -0.20626707960406013,
      -0.29595496918430086,
      -0.10572207016084209,
      -0.005039691397860341,
      0.2266581928403275,
      0.057488796192363315,
      0.267696501307919,
      0.07905603871453874,
      -0.2387310688409426,
      -0.09049039958756491,
      -0.1761960882301541,
      -0.5140492840716069,
      -0.33270242922574883,
      -0.17209652924715008,
      0.13993338768372243,
      0.0166188329878863,
      -0.44390747644185236,
      0.06777179065791157,
      -0.23025883033609318,
      -0.2726785182704447,
      -0.08306557178719318,
      -0.10821003918914726,
      -0.1651288859400156,
      -0.08677871954809861,
      -0.006538928188140625,
      -0.008301817982077552,
      0.11091946243221841,
      -0.08730577507975384,
      0.07512848245159642,
      -0.22584442350542383,
      -0.1179759610654996,
      0.3113387402742205,
      -0.00797809862167954,
      -0.1051503889168773,
      -0.011227904203872874,
      0.3348255425564089,
      -0.017965806749441135,
      0.05699558352186916,
      -0.3136640547726254,
      0.21396811740123067,
      -0.07757758091783712,
      0.0026289315551782794,
      0.2357454629390381,
      -0.06041042438865661,
      -0.03555909844553804,
      0.2316562413368179,
      -0.10774716550938537,
      0.06312952452246894,
      0.09191254369941806,
      0.09471609531994374,
      0.1341751609425041,
      0.10026200720829434,
      -0.0667892241701171,
      0.030406541004597762,
      0.09978589133765112,
      0.29909667188534006,
      0.11400710500536704,
      -0.12626372963294596,
      0.09304620354109411,
      -0.1250409294890384,
      0.10634392536344955,
      0.5039741764899284,
      0.18361601054874788,
      0.13803036556865428,
      -0.04107353269303915,
      -0.11631474297154158,
      -0.014767905783673603,
      0.03441354261998745,
      0.26850080845625657,
      -0.15664230872780072,
      0.11757254502708164,
      -0.09815549867423709,
      0.12233513528864981,
      0.06290531603025726,
      -0.25690292057267006,
      -0.06450788289688886,
      -0.04334307210969712,
      0.06349765545467562,
      0.12771851788680896,
      0.23992920391246578,
      -0.0881717989198377,
      0.012198771471024394,
      0.11271595125491594,
      0.09334030614644945,
      -0.28350070858768345,
      0.0881451117255938,
      -0.14775544082391032,
      0.12515949349189057,
      -0.04137859780721421,
      0.022465601116725797,
      0.18522931695704786,
      0.0035779299632527906,
      -0.03040033401056151,
      0.039852453114604086,
      -0.45855784944016587,
      -0.15556891704300407,
      -0.07358910605432512,
      -0.1832951142832877,
      0.4648451816703698,
      -0.2452305334949904,
      0.09831218699559877,
      0.10544476049906935,
      -0.1370889264060981,
      -0.006443670693248086,
      0.058829515819989894,
      0.013865305332242506,
      -0.3315365448414057,
      0.13858464587987293,
      0.0030146421763134444,
      -0.26481237997541995,
      0.16051383400574387,
      -0.2933970867148188,
      -0.04081492692645945,
      -0.013592040820960726,
      -0.10227740661149312,
      -0.06096071946570408,
      0.0466741953078057,
      -0.09465695880615604,
      -0.054163104563052185,
      0.07100089596126374,
      0.14059247951372567,
      -0.056852994732238746,
      0.12344847706857652,
      0.09195963210380789,
      0.0037244896972003505,
      0.09443593375934782,
      0.14433300759663187,
      0.09996145660395546,
      -0.000145654837795689,
      0.06619810748479442,
      0.3135774124035636,
      0.02818814580121931,
      0.16819815955704076,
      -0.13741771164152455,
      0.41161045899844767,
      -0.21788050889342936,
      -0.1223026771145303,
      -0.11760652099772263,
      0.21723090896589511,
      -0.03675584429728989,
      -0.07723243535510205,
      -0.10756226619812921,
      -0.004567016117183714,
      0.1307883499712022,
      0.1367639571962209,
      0.23769523260972797,
      0.6155588649333312,
      -0.2726098912531474,
      0.28808429216716025,
      0.1984303666518682,
      0.33628824032295473,
      -0.27311451105121626,
      -0.09003365132768185,
      -0.1586889105816652,
      -0.20759227106433384,
      0.35327341764706227,
      -0.037295662907280536,
      -0.17741030592916457,
      0.1825398599857911,
      0.04808885129298441,
      -0.002455768827880858,
      0.40497459893228915,
      -0.03324051578275945,
      0.10371694330044016,
      -0.09544937229027053,
      -0.299286415573623,
      -0.021539032910388084,
      0.022774191910490904,
      0.0026519996306606577,
      0.20642359705091773,
      0.09230742619507852,
      -0.26416484600577694,
      0.10285222695204693,
      0.029843146443641194,
      0.12798991373120994,
      0.22363092913505234,
      0.12797080992813195,
      0.024494116575983577,
      0.31640057257461945,
      -0.046282436773942615,
      0.04378816894542732,
      -0.2517356147967351,
      0.043986382819769854,
      0.34229507042610363,
      -0.13355516641221876,
      -0.20610566802838876,
      0.0953240637415739,
      0.04740929689285542,
      -0.149373626681093,
      -0.008030588268550146,
      -0.1345079820403049,
      -0.10599555818720001,
      -0.0017083527314263325,
      -0.03875521723812447,
      0.09651981033533757,
      -0.07829566889012538,
      0.5396524856559726,
      -0.12939243990155597,
      -0.24069866331294737,
      0.02475353026634973,
      -0.32226740513789115,
      -0.025881714870947183,
      -0.22830688285923123,
      -0.01378244193535105,
      -0.3448450811631945,
      -0.13465472501972206,
      0.35160527039976786,
      0.35544036630750797,
      0.14367649967637264,
      0.1604492695517687,
      -0.014579623703443345,
      0.16154183301277725,
      -0.11597330950639283,
      -0.2658290380238766,
      -0.2027181473252072,
      0.011290239008307612,
      -0.05346587136382645,
      0.07943718953238338,
      -0.1456076194296052,
      -0.12250095859744284,
      0.28722061874651755,
      -0.159878168747663,
      -0.0014322258701265078,
      0.060703881767659784,
      -0.09871151729081068,
      0.18004209847825592,
      0.4116550862133542,
      0.3012307042832738,
      0.13272496263375466,
      0.004810815656995246,
      0.30288695449016584,
      0.014789281565693202,
      0.1679827306887152,
      0.11871324827807175,
      -0.14427446541544903,
      -0.05078747252331261,
      0.08377967063472358,
      -0.14982852567874747,
      0.3254010128502038,
      -0.2615001239836792,
      0.1862407973742728,
      0.03271400734827411,
      -0.2592528742530089,
      -0.1806638021409341,
      -0.5155558868425234,
      0.3667153931505165,
      0.012351856202926503,
      0.3947610944237952,
      0.14417935138465743,
      0.1585151877546766,
      0.02473225533330546,
      -0.26745128691994424,
      -0.1667443003518567,
      -0.12099003953363478,
      0.2563520966795618,
      -0.3010259683125692,
      0.03569379813302339,
      0.21986493788351805,
      -0.0031451353616986782,
      0.17794396057459255,
      0.04346424681192223,
      0.08332217740605599,
      -0.08057330063342115,
      0.030103645566206802,
      0.36284711582457574,
      -0.1726963578498719,
      0.16524577435551535,
      -0.016881083833344128,
      -0.22764874032662163,
      0.1161357764979858,
      -0.07110919329268116,
      0.4892203198955002,
      -0.23594955870640527,
      -0.12242261137293045,
      0.16079482836475012,
      -0.3021862471252099,
      -0.14868664722485217,
      0.010228950594397254,
      -0.17101527049464582,
      -0.09181893550879065,
      -0.2633791407353329,
      -0.10400258524429348,
      -0.042416659616321614,
      -0.2111026165532098,
      -0.10449231247041549,
      0.21771976505478946,
      -0.5435270679865657,
      -0.2401173895678419,
      0.1900955672817201,
      0.22057643082750944,
      0.013298923913707128,
      -0.09869721942670806,
      -0.029694149868722226,
      0.10690208322309905,
      0.06766353643675777,
      0.027560640247826368,
      0.0304033012090386,
      0.062456060228680034,
      -0.2403518635828813,
      -0.09945775748956501,
      0.1372594238347239,
      -0.2207029202932401,
      -0.24593695937401566,
      -0.05798754721542216,
      0.30640016278629145,
      -0.07606614720557234,
      -0.19037452896139168,
      0.004236272539222917,
      0.18156992528338223,
      0.2908671936309991,
      -0.31588000781212106,
      0.14785289120387665,
      0.15140641708674477,
      -0.24842033679697545,
      0.2714815010824558,
      -0.07658852865153855,
      -0.11934355199149962,
      0.024571751318036135,
      0.1649547819140733,
      -0.11686724433966106,
      0.1793278313496207,
      0.1991127192502593,
      -0.1317753027391078,
      -0.2244910399204773,
      0.23068675725647841,
      -0.16526726413770404,
      -0.10010212740166378,
      0.25492183672723095,
      0.14474574141494384,
      0.3325991913014904,
      0.007798100943470271,
      0.2148887997023325,
      -0.1045734399844967,
      0.024904615218974996,
      -0.05168094133863513,
      -0.12436446464892056,
      0.11533468475776477,
      -0.14880053273667748,
      -0.3843803720331048,
      -0.2552631146360136,
      0.12797501434168493,
      -0.1473215546277653,
      -0.23218785873378392,
      0.06417775080331105,
      -0.09751724902766115,
      -0.02353162647414992,
      -0.09876631992845124,
      -0.28484807689692726,
      0.10640236071778258,
      -0.19616196825687843,
      0.2329758088086879,
      -0.006206749674150896,
      -0.11167575590491081,
      -0.23148064438413674,
      0.010869348439586927,
      0.10505306588944562,
      -0.2093152247154489,
      0.0825861070032222,
      -0.012840664279481287,
      0.0459407177582569,
      -0.18317281907045097,
      -0.24168462266207053,
      -0.11386128869777137,
      -0.15454397945917614,
      0.1597453097506471,
      -0.053738578415199675,
      -0.01406825375366029,
      -0.06913629662078426,
      -0.009334791670345526,
      -0.03803969179706425,
      -0.014014590848946393,
      -0.2986431587662909,
      -0.04988529627465833,
      0.450032876863611,
      0.021782642179288565,
      0.021454644164698763,
      0.28354983824284874,
      -0.09722631696340428,
      0.13354294585977958,
      -0.04434197832042541,
      -0.14983174651527637,
      -0.1450871626797068,
      -0.019856579682792277,
      -0.0022419828905722167,
      -0.18004543168160866,
      -0.0619377174920336,
      -0.055264866374232974,
      0.18965113536584163,
      0.0461201655712966,
      -0.38483291237449063,
      -0.008885368293282278,
      -0.03723422461192246,
      0.06745575193219727,
      -0.24977198310043924,
      -0.013839319974675648,
      0.11770555649451257,
      0.04528358322209676,
      -0.026774514727757336,
      0.05997319112880798,
      -0.10621344438891617,
      -0.13878244981220048,
      0.01366174582350029,
      0.2595500098732231,
      0.05648786927386688,
      -0.16477303062643772,
      0.06717494209767629,
      0.17981451467546034,
      -0.0496866531079536,
      -0.010529585669999314,
      0.0765883377604838,
      -0.15558969794935604,
      -0.3929988504588519,
      0.021839924875116587,
      -0.17983269273593325,
      -0.25277424553835537,
      -0.11332956020597987,
      0.18960881429181692,
      -0.29596367764090115,
      -0.26178766104674484,
      0.2200424159939967,
      0.052444923639813165,
      0.30699670944930796,
      0.3248986150136834,
      0.09941655299577302,
      0.09928552244581326,
      -0.0606476712678852,
      0.015456390481234233,
      -0.06780267863149958,
      -0.07520579501287382,
      0.07217887363254517,
      -0.15262580083375138,
      -0.21893134191361702,
      0.06696682290818014,
      0.33726335858630974,
      -0.02764174805322049,
      0.16200258434410894,
      -0.15350706127805713,
      -0.43871950937321125,
      -0.12679592334184928,
      0.16308814203369623,
      0.10437371407688212,
      -0.07337682372139107,
      0.11545058523785134,
      0.12261185275123243,
      0.23822052635908664,
      -0.030127845174064673,
      0.22614007641541378,
      0.014923326075625527,
      0.1565202733218954,
      -0.024630715158638565,
      -0.12345042861891888,
      0.29279085759950557,
      0.052281758539658454,
      -0.3652730042988028,
      -0.04245724485345938,
      0.16984881652667602,
      0.013168290843928204,
      -0.3006187606470208,
      -0.07797287970892576,
      -0.03623823219795369,
      0.12541618000784538,
      0.0019157402040545432,
      -0.10787213709620236,
      -0.0799635777013206,
      0.10280761800156822,
      0.037161650786487616,
      0.017585856261824392,
      -0.27551121025913083,
      0.30935963357061735,
      0.04010079124630528,
      0.11087513289298881,
      0.19033188702916892,
      -0.18086466618758,
      -0.19026062539686098,
      0.01660432499562478,
      0.044166456323352435,
      -0.2185087617109687,
      0.13182726988100157,
      -0.10661162715874044,
      0.08885375621697952,
      0.12466194094719371,
      -0.11638701238778573,
      0.1262811890789426,
      -0.022158867976204,
      0.12414243194558144,
      -0.07661792980358877,
      -0.2727648411081504,
      0.07652895441750589,
      -0.008407801254466149,
      -0.13385185050647544,
      0.025795863877946523,
      -0.18486170674208857,
      0.1135780033541332,
      -0.2851511487866617,
      -0.4825685926558332,
      0.27390223538438463,
      0.007101686746336693,
      -0.16475939736698503,
      0.10992893087176613,
      -0.03736823083695964,
      0.2186330727495644,
      0.09805216080428988,
      0.11297468467349311,
      0.0007527047512815022,
      -0.1603912840807913,
      -0.14832114098048454,
      -0.007988429466454797,
      -0.015053860842403094,
      0.030600505751429,
      0.08194912771655333,
      0.11228072037093281,
      -0.3217247017228584,
      -0.06059118453433626,
      -0.16143162493987095,
      0.10631661774834336,
      -0.06185141673784457,
      0.3803849290614718,
      -0.21041024047126033,
      0.18176618513612589,
      0.2626103019834923,
      0.11967193394440843,
      -0.2067219614122508,
      -0.46509337644595683,
      -0.14545015671656156,
      -0.2213938541946265,
      -0.25004872732487493,
      0.1898243493256602,
      -0.19759361852253912,
      0.058718145797894805,
      -0.03837174107225637,
      0.033826922214052535,
      0.016628414584957254,
      0.023431583414836994,
      -0.0071489410398822145,
      0.3203476626895964,
      0.16482963004401263,
      0.06683938724537442,
      0.04196158892558616,
      0.035431684460936766,
      -0.08227485477353383,
      -0.09706313701311646,
      0.11182334429459581,
      -0.27498557044072197,
      -0.05111162674665642,
      0.010700276163360799,
      0.024267192143004032,
      -0.1955543330116327,
      -0.06015013574850308,
      0.03131455668120355,
      0.12204844093963464,
      -0.38873002140348434,
      -0.0706015373889666,
      -0.280919199948662,
      -0.14334053155767812,
      0.3252517763994656,
      0.11668381430934852,
      0.03445707741702411,
      -0.08957072466150462,
      -0.25241934581905967,
      -0.07226405664634013,
      -0.042735207056950664,
      0.4272940732014395,
      -0.1224086223243239,
      -0.012202624923595059,
      0.07123541322711195,
      -0.13210615034460824,
      -0.18956094157292663,
      0.13143223369587764,
      0.18676073314371872,
      0.208256786591377,
      -0.12735855071055166,
      -0.1747175454483724,
      0.07057243425275064,
      0.11290255088030736,
      0.1650883213809352,
      0.05621814753033473,
      -0.28920339285224006,
      -0.07193973984388023,
      0.14569053672942991,
      0.004749459443663935,
      -0.11474554127636784,
      0.1199786814739865,
      0.05188452251139394,
      -0.06261195253661574,
      0.46894599415740207,
      0.22399764166493663,
      0.008462594178360084,
      -0.3626116892047305,
      -0.12564032591048496,
      0.1914258624428009,
      -0.06358116173955639,
      -0.25954515792873833,
      -0.08109857361919955,
      0.09032853654874025,
      0.08994349415285012,
      -0.00474168227027591,
      -0.07870615037800496,
      0.08407646324629205,
      0.06153929068297785,
      -0.010014578951698189,
      -0.019969757241098902,
      0.008759014250817057,
      0.1243508621946344,
      0.1011045550739113,
      0.010427430776676629,
      -0.009349832460445073,
      -0.07973309304961083,
      -0.12843824221592162,
      -0.08627416444503412,
      -0.0942025041042745,
      0.20856687822858427,
      -0.10370076940197316,
      -0.33389016265690646,
      -0.05711652920401634,
      0.10851169088131185,
      -0.3853692921044502,
      0.038147285338218956,
      0.0515564161002216,
      0.15570967664074675,
      0.05350489223166223,
      0.005823231582498825,
      0.08489267762513342,
      -0.10352558449254333,
      -0.09421941074355139,
      0.1436573673254743,
      0.21496820048668527,
      -0.18816975929354243,
      -0.04725926344176792,
      0.0888230390952478,
      0.3504047002527883,
      0.1296737545638918,
      -0.10906752732806436,
      -0.40677675314241973,
      -0.15994471992668116,
      0.17566517252670905,
      -0.03488055147299291,
      -0.06991642208832698,
      0.21155455275884757,
      -0.30124131466729476,
      -0.33998230847536914,
      -0.04740428720530829,
      0.06159097376365763,
      -0.028156689900364393,
      0.026372155945147482,
      0.27844994545617485,
      -0.1317450393294034,
      -0.027079808964642182,
      0.03871250521888043,
      0.3123366037184727,
      0.13918564452174292,
      0.07148926974232422,
      -0.2778912015739453,
      0.32382930602575366,
      -0.1737296644491231,
      0.2159477507832318,
      0.2493570218977358,
      -0.07910840775931012,
      0.1808844376800451,
      -0.056055483995559874,
      0.12545655611247783,
      0.006821975244862763,
      0.029149066388300962,
      -0.2896056076155623,
      0.09009902707743063,
      0.1904066933290172,
      0.3910485947615154,
      0.10895612037414068,
      -0.30950568098232106,
      -0.36027800125365655,
      0.027326134165080878,
      0.007405054795393712,
      -0.037481054051161804,
      0.13826008183263,
      0.21008439296125342,
      0.2311197814798745,
      0.042456892545438905,
      0.2191524533538597,
      0.06872871584086326,
      0.2053940561636256,
      0.07752687598465066,
      -0.056481689105490285,
      -0.2364437524987001,
      0.4125429595751761,
      0.12548965526313985,
      0.19323851877124942,
      -0.25838469754416604,
      0.05016220040049107,
      0.07563121027997677,
      -0.11120678178298554,
      -0.3764439433837448,
      0.05812741611463677,
      -0.050513303358907594,
      0.2548307814610715,
      0.19108386694743848,
      0.0269808804445804,
      -0.4864177621000654,
      0.19246374703100635,
      -0.08364582079993743,
      -0.022852837527944894,
      -0.3016674840220606,
      0.1631023711041205,
      -0.2897277840671603,
      0.3417854048623984,
      0.036583912263672226,
      -0.09736146713292401,
      0.20344958014429224,
      -0.18481785182342708,
      0.09270412179363081,
      -0.04229425151807331,
      0.09009318481295096,
      -0.02306448221852475,
      0.1191555108157119,
      -0.20470620094972627,
      0.0654090639888802,
      -0.17124054816415618,
      0.14024606589413255,
      0.005407807726016758,
      0.2780827334522453,
      0.3408223146771171,
      0.43345085688083484,
      -0.028414194723477018,
      -0.24563156131769015,
      -0.1278707185316417,
      0.32693582907272284,
      0.1311312666114559,
      -0.10751017027374546,
      0.08020770986581481,
      0.17950910078472912,
      0.3156555027611779,
      -0.1136022042544661,
      -0.28890722051940554,
      0.06478820060725292,
      -0.05440986879943902,
      -0.021563011528232055,
      0.3852940332895367,
      -0.23901524493677037,
      0.19811800294760068,
      0.11898879381696434,
      -0.0059808591152351286,
      0.24292582607841076,
      0.06987804026240971,
      0.10438050155690926,
      0.1392844365308253,
      0.46588077071374745,
      0.009719207709259367,
      0.1196414133447455,
      0.2358077366163554,
      0.10673847655034557,
      -0.002352238233330424,
      0.3194921351803137,
      0.0650719476976562,
      0.2901683765921005,
      0.21349962487500626,
      0.07315037229010646,
      -0.4070570731004044,
      -0.15614869401508757,
      -0.14075621645898279,
      -0.04058645177633841,
      0.27793184250710196,
      -0.012217359317084946,
      0.07741215322015796,
      -0.0741740924992258,
      0.016555291344274102,
      -0.2394940670004383,
      -0.022115170944657772,
      -0.3813988837619768,
      0.24056241343929838,
      0.11556924088126229,
      -0.029948495035575645,
      0.3963292921415726,
      -0.009133044394133372,
      0.1480169876275892,
      -0.161225268268624,
      0.06778323698339342,
      -0.24874274526131512,
      0.5240052102890018,
      -0.3760682250264835,
      0.17282570521024923,
      0.05758821628216354,
      0.14555101855612923,
      -0.05892995922885572,
      0.08742147849091585,
      -0.1279998119449881,
      -0.3148013400758134,
      -0.03379873353587043,
      0.45490988985170044,
      -0.306483351014095,
      0.07692665552994038,
      0.23594365160901204,
      -0.22337851304603062,
      0.06439469734333107,
      -0.06734534594783939,
      0.11773201644205666,
      0.1899403416777233,
      0.03792638284149449,
      -0.23909525815665283,
      0.04332551893107508,
      0.14332920122617493,
      0.1262094104954771,
      0.08113120805285524,
      0.040264825234896856,
      0.19304446849424933,
      -0.017836115908178518,
      -0.19874748282236604,
      -0.30324022379953186,
      0.2141643692258065,
      -0.5255929452213337,
      -0.19213273635932324,
      0.3083014320588341,
      -0.17862122512564393,
      0.02423796433457463,
      0.21478924783721595,
      -0.22690849525028486,
      -0.1858257989930603,
      0.31585412460492923,
      -0.13509148381027905,
      0.38625999565368413,
      -0.009464172226912726,
      -0.07573500677789707,
      0.2420871191300814,
      0.26310204419468675,
      0.25812063242139044,
      0.0273157172856536,
      -0.0698744916880083,
      -0.009924527008379083,
      0.08996036895667911,
      0.21855701493365157,
      0.25911956797662206,
      0.24848576729282826,
      0.03166444310130168,
      0.02267662921245456,
      0.356192598770932,
      0.1582182064734607,
      -0.009282708215947844,
      -0.15639833976436396,
      0.41112114675862194,
      0.033868458319286684,
      0.16920425263676458,
      -0.10242796567009799,
      0.02749876524660269,
      -0.21351822085695196,
      -0.11496110270925469,
      -0.17039878749584061,
      -0.06399843775434846,
      0.051437834511114305,
      0.30215793684534936,
      0.1744548759534303,
      -0.1821073762976778,
      0.14047162069680152,
      -0.14064666078752672,
      0.10324131221070866,
      -0.0939516342515744,
      0.007051847407076229,
      0.1016293425475938,
      0.07950541880909784,
      -0.21875920896026538,
      -0.037202968633714695,
      -0.1357002940051048,
      -0.18280028087977682,
      0.1667183797805348,
      0.0670166917970877,
      0.06417207513772924,
      0.013624182615351723,
      -0.2109902087759807,
      0.04855919418811455,
      0.2741599097883342,
      -0.08214202941947807,
      0.17053982329836156,
      -0.30825972583752465,
      0.0722555444229542,
      -0.0059849236132133755,
      0.21504720568965763,
      -0.06281674048491419,
      -0.011738566223251177,
      -0.2977504075244076,
      0.14420633698429053,
      -0.33917254144519793,
      -0.36441879302172486,
      -0.19952986203794548,
      -0.27723298177236255,
      0.022097291724761412,
      -0.03493613590891502,
      -0.3613903859759341,
      -0.03558272522795064,
      -0.2180110735366825,
      -0.12788580451974146,
      0.1630874475820574,
      0.2633586912653018,
      -0.12861928880600265,
      -0.03604689258913596,
      0.33532120505845986,
      -0.18659275534985748,
      -0.1836720912096717,
      0.0985877463670868,
      -0.003655426384469404,
      -0.03823180907973295,
      0.03204495103332681,
      -0.026607918565092505,
      0.17024513032984298,
      -0.08715258166678312,
      0.08440572580678486,
      -0.28874158768860325,
      0.14381523918388217,
      -0.1352407763710021,
      -0.02299179261748989,
      -0.0069545075319125405,
      -0.1518976896464257,
      -0.25526019588630033,
      -0.07230705831474277,
      0.04252626252254346,
      -0.05154338807833142,
      -0.05819035796776234,
      0.10186166920554143,
      -0.17003032065005869,
      0.017588181484674063,
      0.13071370191210113,
      0.2738513617822667,
      -0.164801586014649,
      0.09202221406130057,
      -0.38248180984273317,
      0.0352279975773156,
      0.04141632329145254,
      0.13498809524569505,
      -0.08451051852681107,
      -0.1260052020497302,
      0.0828447266877558,
      -0.08025498944989543,
      -0.16347917023956887,
      -0.16983474097821508,
      0.37732989533975514,
      0.29129352663745034,
      -0.034284654585430854,
      -0.19949027856415463,
      0.019745451852055923,
      0.31242953674329865,
      0.518112957241498,
      -0.050803946084733966,
      0.2540025172242636,
      -0.02087630937494908,
      -0.04144839403099458,
      -0.04671965653783407,
      0.03606183781765204,
      -0.01564249841019771,
      0.22252925955611944,
      -0.3300172329415689,
      0.15501747662986515,
      0.1772552721839083,
      0.033872079174161844,
      0.18075869476455958,
      -0.06917400124529184,
      -0.08511898217958672,
      0.012763772775322518,
      -0.1376636357836741,
      0.23401380071878075,
      0.1727477235680551,
      -0.09031762995563991,
      -0.30930844955075976,
      -0.15261677874302365,
      -0.31044017358572334,
      -0.43620944425831026,
      -0.2772149940963808,
      0.0649235300974678,
      -0.018085411603402796,
      -0.0933189299323626,
      -0.03252260571228948,
      0.0999651237113173,
      0.14071752420994563,
      -0.0742720215371143,
      -0.20099046949169572,
      0.11180239229585778,
      -0.06196014633909388,
      0.13756858178137435,
      -0.35036039010827363,
      -0.28419696439450126,
      0.20681857413993965,
      -0.2801627121370305,
      0.3413555785123525,
      0.0993360878626593,
      -0.011660662051099072,
      -0.1315884398209966,
      0.05034787904261611,
      -0.07440619340954592,
      -0.017797979183203652,
      0.07296229298987,
      -0.1326271655567544,
      0.1433858028768429,
      0.05751432565402173,
      -0.2898703375701483,
      0.04405675689879991,
      0.21191941069999987,
      0.047040018467145575,
      0.10723594849263107,
      -0.06320391270624828,
      0.2795476272573011,
      -0.05567245041434636,
      -0.08296244504600382,
      -0.09445085762186432,
      -0.07849438544195145,
      0.06866737855049175,
      0.046163753307699826,
      0.11873979608947804,
      -0.15541335264668163,
      0.0688164460398847,
      -0.1067515780075273,
      0.0013972372993924804,
      0.08146344474668149,
      -0.02347944539289515,
      -0.05631060565051825,
      0.15402951491408967,
      -0.2968877801495865,
      -0.0519839990618078,
      0.16236081953717818,
      -0.12764209291554957,
      0.004566997034948325,
      0.37201723395733105,
      -0.017849609865480467,
      -0.24803436638172843,
      -0.004494020321964536,
      -0.017971854462892164,
      0.07863118172280906,
      -0.04896261399813325,
      0.1691812859035795,
      0.13024292388216813,
      -0.02000867536990103,
      -0.11314879807832638,
      -0.414642737031994,
      -0.15513935185422117,
      -0.25713656132419305,
      -0.12159676205714037,
      0.256164587886195,
      0.00037677806745239906,
      -0.23035113684456116,
      -0.004869601904640947,
      -0.43141041749928083,
      0.1846135698890752,
      0.023982441926358213,
      -0.13697733622524058,
      0.024516577806983325,
      -0.3099861611898056,
      0.19633511646548635,
      -0.17715127425368504,
      0.10972508408208134,
      -0.31798321537470464,
      0.32343893852705474,
      -0.07641533903781905,
      -0.22597821073567198,
      0.30317108538795473,
      0.006826297667494416,
      0.06426049998166164,
      0.0154538908389086,
      0.08126915905494725,
      0.08613287727399888,
      0.24461677765708717,
      0.28728382374222017,
      -0.04237879249473145,
      0.09372435936568445,
      0.19268977918774288,
      0.057601772329288425,
      -0.2812855498731317,
      -0.15579594577339032,
      0.1675854886857891,
      0.08048055807177659,
      -0.012719038406618949,
      0.03595233424634337,
      0.13459945659229525,
      0.007601394666533728,
      -0.07137884460074603,
      -0.4040435497855745,
      -0.0771243990031491,
      0.2553444099888751,
      0.48777156684945544,
      -0.12932353797002885,
      0.14047722456398526,
      0.05678620350339913,
      -0.11178602310753377,
      0.13376654193434206,
      0.20714773890800908,
      0.10436711841049673,
      0.044351143672398924,
      -0.0226500344881701,
      -0.8608752818073556,
      0.19409811549342731,
      -0.14314738324807239,
      -0.25702925797852716,
      0.2882162255428246,
      0.03380349028068269,
      -0.2051778385577998,
      -0.06442543627154088,
      0.20105044903338984,
      -0.11126147556839339,
      0.2870519395587321,
      0.37643243698609125,
      0.1327674569976388,
      0.047113008671692616,
      0.0549348314885159,
      -0.00012436309707375415,
      -0.08134998002722463,
      0.016006686338151145,
      0.0806067895460599,
      0.10246494688948576,
      0.4030761273896091,
      -0.32116666783694103,
      -0.041334143689829905,
      0.024288524115409077,
      0.011031743339884648,
      -0.11383340087659345,
      0.016353469967364316,
      0.10666192053095623,
      0.15218912323061878,
      -0.08452535807895448,
      0.06170846769435345,
      -0.04884925569993123,
      -0.14646631606332305,
      0.1422438062289852,
      0.13444048756265387,
      -0.15904736586030294,
      0.2010313392012857,
      0.11732588899625176,
      -0.03803580834156082,
      -0.13255201358728885,
      -0.3960021312585411,
      0.018819670016090848,
      0.12123631808567222,
      0.6805504894047081,
      -0.39311420307166456,
      0.3883254174621519,
      -0.21765302841286144,
      0.11426228510360281,
      0.3415664069307378,
      0.3211077695626381,
      -0.00447900787566379,
      -0.5654564067629395,
      0.016668284105492787,
      -0.030408985224739792,
      -0.22118957027696007,
      0.027384392722014178,
      -0.18385436873232577,
      -0.07287945277025368,
      0.1363387033982546,
      0.20347536798312188,
      0.09666388619517487,
      -0.074972996949249,
      0.16454675581121248,
      -0.10590773583115026,
      -0.040551200322630154,
      0.049408121965776194,
      0.03723312036067723,
      -0.13801159250080544,
      0.18641033005545646,
      0.25972600581034655,
      -0.1867988764012765,
      -0.0482519262213361,
      -0.22787964463634822,
      0.05558144935417295,
      0.06913760819169185,
      0.015608858963509858,
      0.15664016341936335,
      -0.03129208983533957,
      -0.12244946949537786,
      -0.23816515777308248,
      0.24102413840218118,
      0.0013157868171098652,
      0.2853438758560909,
      -0.13905863665388032,
      -0.03601097095097022,
      -0.13953177061576022,
      -0.07591499729027337,
      -0.17379451437429405,
      -0.1438671567042864,
      0.1288921641947444,
      0.15003321844002487,
      -0.10412286240398386,
      0.002680840271211449,
      0.003259659442139462,
      0.16560506746882758,
      -0.04439010608338678,
      0.003879843494917018,
      -0.09832751381919726,
      0.03667419229287515,
      0.41590156824582286,
      0.07650327264465703,
      0.33819249242142635,
      -0.08777437178247281,
      -0.014465081369325408,
      0.09199343192341748,
      -0.30254184543215085,
      0.14406983801343665,
      0.0373636503508735,
      -0.0812943858616098,
      -0.06117155279265752,
      -0.08850700631195972,
      -0.1648876468314703,
      0.06374150735729361,
      0.08381039536362138,
      -0.2475849512073388,
      -0.056740955245634314,
      -0.06419767882990965,
      0.2025832407926073,
      0.1000893913465321,
      0.12540421135810537,
      0.04324747683420765,
      -0.42924414027119634,
      -0.09802560687874584,
      -0.07395072608267891,
      0.2078803617302623,
      0.12583747375169713,
      -0.17393503330713977,
      -0.40035246853452133,
      0.011204649519653453,
      0.24257625285215834,
      -0.5364388119825885,
      -0.06025806763012878,
      0.33831904441800403,
      -0.10139013415899543,
      -0.026744152182036372,
      0.18736227104933695,
      0.3103823438993222,
      0.1609444126071907,
      -0.19682572066104,
      0.036418150506123126,
      0.10104938362185836,
      0.1424862092541067,
      0.0016061708021954113,
      0.3101656076897244,
      0.5117679805666929,
      -0.10051568031320754,
      0.042316613239823914,
      -0.1688575413082979,
      -0.17535900739014393,
      0.35972628984729194,
      -0.1054466013936717,
      -0.11340567336923786,
      0.19927537738974524,
      -0.17050978052951338,
      -0.1204132874911952,
      -0.012543565003149265,
      0.06033284934287267,
      -0.2786339843327969,
      -0.24782609969119068,
      -0.043966686422526303,
      -0.021589388619810926,
      0.14678951826168768,
      0.16206648382661382,
      0.441130425678856,
      0.05963497786586844,
      -0.0067972043570182356,
      -0.12239816533187813,
      0.18832237106430383,
      -0.03694086288782296,
      -0.21312062507396656,
      -0.20639291466643778,
      -0.11258363395085785,
      0.002221273519781769,
      0.1635586268899359,
      -0.2665819789831759,
      -0.11388985123087143,
      0.03649535525301467,
      0.11031076507896823,
      -0.21023111332281344,
      0.01760300643699575,
      0.25759365259952793,
      -0.15958528411975442,
      0.03510836871483333,
      -0.004739689168036633,
      -0.09633966372701945,
      -0.08847607539870782,
      0.20632916007158353,
      -0.015178556354050465,
      0.01009980316031607,
      -0.04463380178787843,
      0.1278322099698764,
      0.2510657483236557,
      -0.5880817917884246,
      0.2868525056531804,
      0.16963603639597225,
      -0.08338377741402495,
      -0.022959761226897267,
      -0.16362601236090088,
      0.21194421463152532,
      -0.24682816899723306,
      0.05395561852532317,
      0.051975603673300105,
      0.04019387841597162,
      -0.1262001712064751,
      0.018528625382857343,
      0.02516772464856836,
      -0.134987104134446,
      0.20047632043955455,
      0.0036454414347028992,
      0.032931242353818474,
      -0.32096003997636946,
      -0.22138051344596052,
      0.18838264436175245,
      0.03519245169820359,
      -0.0559544492274502,
      0.024096341014588296,
      0.09105702691707548,
      -0.017007677057904395,
      0.348797366539993,
      -0.10688763444484092,
      -0.023865247439768644,
      0.11959134029525344,
      0.1784155766296056,
      0.16234055434487007,
      -0.1648238264113783,
      0.17529362013730043,
      0.2737284962174973,
      0.15884095889887886,
      -0.0892505567103717,
      -0.05690645820903302,
      -0.02697897999817464,
      0.11772756061119598,
      -0.03173599986096384,
      0.03888015044426055,
      -0.0529212147662355,
      0.09838287302436458,
      0.27779654003516807,
      0.24228916533345912,
      -0.003343501695950532,
      -0.020569771755883322,
      0.04186716883883705,
      0.1009740873516996,
      -0.06755631897389479,
      -0.06497430177696888,
      -0.09355802282705279,
      0.07723503210175113,
      0.2144037155053688,
      0.004950246173001965,
      -0.09275353253443307,
      -0.0769324455102245,
      0.09702346205305988,
      0.2676448798016873,
      0.031438167825613164,
      0.34327077329461814,
      -0.05589530350117905,
      -0.018347375290977595,
      -0.10539403217608814,
      0.024375939970881277,
      -0.013039096662196548,
      -0.11912897366110346,
      -0.1232720739321094,
      0.04914965638277266,
      0.10900233647795766,
      0.138426719140268,
      0.2717681786709529,
      0.06404438548860886,
      -0.01481784650988606,
      0.3277079191592971,
      -0.29970925680227856,
      -0.023362647652956633,
      -0.02366061472471511,
      -0.015403777288486617,
      0.09184704112595457,
      0.22706918163581644,
      0.0065316528107998845,
      0.10840292610210778,
      0.043936998982439454,
      0.25450202419686885,
      0.11065060813861385,
      0.2445559609091817,
      -0.08958933228872559,
      0.00009262483920408765,
      0.22844553238720078,
      -0.06282732985249792,
      -0.12973454190448816,
      0.11679216034458989,
      -0.31082398460808136,
      0.14096957142186048,
      0.1383261931562298,
      0.06258465343619421,
      -0.014898354044642587,
      0.005331405801936001,
      0.008644149102936795,
      -0.1185152856084797,
      0.015062832777427732,
      -0.19451687358407393,
      -0.04997466652340016,
      0.36448840410007227,
      -0.2217642661908678,
      0.36794580152988055,
      -0.20925547566874356,
      -0.26061263757700825,
      0.12417335855924001,
      0.016932087940936754,
      0.15151075163810665,
      0.2757772830670854,
      -0.10384611460746318,
      -0.2279212200170169,
      0.3000031873016539,
      -0.34620684428025533,
      -0.08498784048407651,
      -0.23326272594802508,
      -0.15048639840554429,
      -0.3264676882515377,
      0.08844243626474835,
      0.1855923011338661,
      -0.39687641886244934,
      -0.31624168700271094,
      0.3522254090425322,
      0.05291939469568428,
      0.09198318542427383,
      0.0010112388690247665,
      0.2417949083330554,
      0.03077239168473553,
      -0.07568667630309939,
      -0.06571662603594935,
      -0.19549916008697799,
      -0.09286842211386559,
      -0.0024947833159687655,
      -0.1843748827671478,
      0.181794003567515,
      0.04423627131221328,
      -0.2756413740965798,
      -0.014241620498794086,
      -0.20327966442757556,
      -0.13154439991588668,
      -0.057188699273077445,
      -0.2724083104762458,
      -0.06824631989172808,
      -0.1995754627919457,
      0.10912845459307983,
      -0.31140888561726865,
      -0.08224377190332569,
      -0.24875487911433158,
      -0.15410916965734403,
      -0.14968004371545215,
      0.06607022022364259,
      -0.04731785309817832,
      -0.05578521708719062,
      -0.052915970303383505,
      -0.2502779221482277,
      0.3297264855618807,
      -0.07553632773328578,
      0.12940869175832193,
      -0.13601289129328864,
      0.3091895913817784,
      -0.3206432554293268,
      -0.2073270016093765,
      -0.23110256904218202,
      0.073401114061877,
      0.2846329353402243,
      -0.17094349341054305,
      -0.0156077939211254,
      -0.15369051216104151,
      0.0742962926524722,
      -0.06182344908814055,
      -0.12275604558002993,
      0.17941687252156469,
      -0.12277597411459307,
      0.10679069225690646,
      -0.021189036554892397,
      0.009444904653273273,
      0.14874771308121765,
      0.039638011238194534,
      -0.1443803080406833,
      0.21343947458002666,
      0.036376792987516005,
      0.012578344071599287,
      -0.22875409029666596,
      0.06237405467404623,
      0.11290111212924889,
      0.025859381266534448,
      -0.12507361784490895,
      0.17873946609665567,
      -0.16716875606749276,
      -0.026791194903458354,
      -0.1418335952252162,
      0.10314806478432181,
      0.11852787047416373,
      -0.054082299114924175,
      0.11280609311245887,
      -0.12457256933203312,
      0.03262698118476683,
      -0.10400885802664983,
      0.05247002849548736,
      0.15601664918770247,
      -0.3790375993585409,
      0.03726904865327027,
      0.22450197264932495,
      -0.10344030127296293,
      -0.28630281575234295,
      0.16044628580946296,
      -0.34572693944792504,
      -0.03177301670898151,
      0.09781730661545446,
      -0.12406037422576438,
      -0.7348641612843624,
      0.01841387611755879,
      0.046440694404979554,
      -0.05846932717560381,
      0.09598442688055457,
      -0.13812231973723918,
      -0.535941409643387,
      0.3426765514719127,
      -0.0824701636875631,
      -0.04606243118349829,
      -0.14468792285517057,
      0.08676136266261811,
      0.20286650121228583,
      -0.013704953698150224,
      0.1712333356753161,
      0.15911937476343502,
      -0.20441394950500658,
      -0.04257365616297629,
      -0.08314426292770964,
      -0.029776310109021528,
      0.04937245336854827,
      0.03702881491358872,
      -0.03209157234838727,
      0.067684174711371,
      0.08510725230834702,
      -0.12821326318885812,
      0.1291277785827791,
      0.05343543671386315,
      0.1567207768623504,
      -0.2140863378718376,
      -0.2109559958123191,
      0.20484303556994124,
      0.26802952964945087,
      0.20263951704299418,
      0.04830881554362716,
      0.23259696271123237,
      -0.017915499132493157,
      -0.0063482516562180236,
      -0.03858800068705987,
      0.2507709235824782,
      0.04861243404366125,
      0.09558315000367631,
      0.036737908695426154,
      0.07938843480483958,
      -0.38602708392732027,
      -0.017817609725236473,
      0.1488862544863228,
      0.12547187493604833,
      -0.1633011054409828,
      -0.03843568150818238,
      -0.30024260967814825,
      0.0036173186652458944,
      -0.33742315137765294,
      0.040603458971114836,
      0.10410128109606628,
      0.15360167540015646,
      -0.2254060610079277,
      -0.28214483903049137,
      0.09571676891316067,
      0.11360075413706039,
      -0.11333547554533754,
      -0.027719377990921452,
      -0.19136706224003341,
      0.09173976860172968,
      0.2795160022844791,
      -0.0038518192030150278,
      -0.006434201444643239,
      0.26588518317695475,
      0.03723097470348291,
      -0.24031509972059867,
      0.3034885893336404,
      0.15319137562549875,
      0.07225424066050802,
      0.1244311090783535,
      0.022958442847828414,
      0.04133004696041692,
      0.01660140792741393,
      0.1825474718949915,
      0.055670933289944546,
      -0.12623150740091926,
      -0.11532448327574309,
      0.2762750068938508,
      -0.047176307562269315,
      0.06814963368126387,
      -0.034397868162454374,
      0.2729978298563712,
      0.005426553334986817,
      0.26709517389399023,
      -0.034232679196208295,
      0.21399979599852598,
      0.08477386786941647,
      -0.22700714850646114,
      -0.21961906691487718,
      -0.04700616419380507,
      0.044740380877495864,
      0.14691483019102003,
      0.32249693893534465,
      0.2886842206109627,
      0.06979932489245913,
      -0.37467678162609735,
      0.24478434538826505,
      0.08878101188356372,
      -0.0833645461903541,
      -0.14922123567375095,
      -0.16384550175702722,
      0.1340418494574937,
      0.11510527555045207,
      0.05655065707490709,
      -0.1670159266638636,
      0.03393144249751655,
      -0.2666866384360878,
      -0.06283885431099646,
      0.1682402766538319,
      0.22984163213391295,
      -0.38987378462565264,
      -0.029172591910346532,
      -0.2163903212523667,
      -0.012786885178252133,
      0.11343520240245626,
      -0.08066243393041056,
      -0.16251588829988212,
      0.018970884493075907,
      -0.2000409695732423,
      -0.11962784732410717,
      -0.22611475428545774,
      0.2033332357955188,
      0.18862341777913785,
      0.2019786789941481,
      0.06411491085581994,
      0.062074164725544966,
      -0.16685736473334384,
      -0.1120677828919322,
      -0.39790575202435496,
      0.05300246116932025,
      -0.15972309336862683,
      -0.15573279705497795,
      -0.02805058890911187,
      -0.02721173260908095,
      0.06892669536655163,
      0.05925571231166652,
      0.03499770349905664,
      0.14664296861569157,
      0.013916066349880022,
      -0.14114699748023166,
      -0.04483527142999881,
      0.12083052079514064,
      0.027827857424547967,
      0.23010627313652404,
      0.07237856142173328,
      -0.00035089106260677034,
      0.05393478935579368,
      0.06493035963032752,
      0.0009688048685228684,
      0.153601039029359,
      0.16380169569002978,
      0.22516484277618543,
      -0.07190281796271246,
      0.009714286308317902,
      0.24140411683152607,
      0.11168365414351877,
      -0.06285777756461675,
      -0.05162614921694635,
      0.38653631928373733,
      0.0062233813956365375,
      0.14006976706950347,
      0.1426644713392027,
      0.0062688139465157805,
      -0.306041886756903,
      -0.09397072328216777,
      -0.237895254142027,
      0.3330969436297414,
      0.16021330552000812,
      0.09211178993479456,
      -0.2670758075217565,
      -0.11525122286340582,
      0.053044720019035874,
      0.10767241347518962,
      0.008836793738827403,
      -0.34410396632314777,
      -0.03684118972057182,
      0.0921688004226768,
      -0.08614995796236931,
      0.022956550416477373,
      -0.13255360547060138,
      -0.3442985273972082,
      -0.18210304426280494,
      -0.1521644167740509,
      0.01844306069064919,
      0.1578161552597439,
      -0.11656732163569658,
      -0.3541358740381113,
      -0.2989166824492169,
      0.15676441293872767,
      -0.13230892191455304,
      0.003158879937783856,
      0.027952738942271627,
      0.2262740394306641,
      0.2407089234148171,
      -0.015367674011509277,
      -0.22694127887460736,
      0.06815529592083389,
      -0.05358027579943797,
      -0.10262500847721345,
      -0.03013505060291272,
      -0.06643727694387046,
      0.19397582129012994,
      -0.34814559594121386,
      0.3310758781670424,
      0.08472068985136341,
      -0.25981713612364654,
      -0.39034641860643376,
      0.04372328222812302,
      -0.2938135468762799,
      -0.31677807374469014,
      -0.04366309759282774,
      -0.00614262848433568,
      0.03321261410604756,
      -0.0059965928287601285,
      0.05590458697824318,
      0.2407246907042285,
      0.07680708461032269,
      -0.03254159975466705,
      -0.1531849149292353,
      0.11165054414500664,
      0.045654351676819985,
      -0.16236894316860517,
      0.29815599658336067,
      0.28755828080766627,
      -0.00003694881536965566,
      0.26612437312282694,
      0.15949773920118854,
      0.03375320791635617,
      -0.15128295697911592,
      -0.009580428026767673,
      0.19351675619536268,
      0.18482465398783662,
      -0.07081657111596786,
      0.07367659531962914,
      0.0391596605817353,
      -0.09573652590152992,
      0.024902632413553605,
      0.41697698651240434,
      0.274164398105633,
      -0.013764874611851663,
      0.27682551209337486,
      -0.2645270569088138,
      0.21139965317311304,
      0.21894272785319843,
      0.28596593241763374,
      -0.051027660606090396,
      0.10882049515531036,
      -0.02982121415550555,
      0.12131096969706447,
      -0.20257970861295788,
      -0.2836334567981904,
      0.10083961588693971,
      -0.49343304829719214,
      0.2251839539566672,
      0.04447744743704132,
      -0.24005864765239432,
      -0.06484299652719813,
      -0.03204268549902618,
      -0.01228094977632304,
      -0.09870690305376481,
      0.0863312198665158,
      0.07221010670166315,
      -0.06903413050498713,
      0.010344844008000287,
      0.16499262511344803,
      0.026802308998343814,
      0.1273653341081171,
      0.3206982981143267,
      0.023474192295297555,
      0.0005688729718602523,
      0.17811834517069144,
      -0.14746836525349702,
      -0.13476497271593924,
      0.025383617330928795,
      0.43172359497132407,
      -0.11732217273247406,
      -0.043906801055684314,
      0.07606600926620441,
      -0.34601333085882935,
      0.20240260408102992,
      -0.11552292949739602,
      0.19423781649908303,
      -0.2021249726221248,
      0.2008693874403594,
      -0.1208103905306883,
      -0.005872729860996101,
      -0.15239251639124715,
      -0.0005189405571303096,
      0.20606413903770715,
      -0.05605045323389565,
      0.04852903153759454,
      -0.20607564867869912,
      0.37957050745921483,
      0.1687524120185856,
      -0.23914159855855333,
      -0.22146566688678682,
      0.11855077128571173,
      -0.09612420289078352,
      0.26214290105781884,
      -0.1464200655134884,
      -0.21217230590377645,
      -0.14448383942869322,
      0.10304076922377056,
      -0.05664934987058704,
      -0.1477666715556425,
      0.04299169653053408,
      -0.24192472731983367,
      -0.0879779728459776,
      0.4168118251346721,
      0.15243316440407365,
      0.11672926883297594,
      -0.021934645181695953,
      -0.07995922708468842,
      -0.5326553758318185,
      -0.3504442944331441,
      -0.27053965258476764,
      -0.1523353297275563,
      -0.13642694852489853,
      -0.11513883244117695,
      -0.16018894159558916,
      -0.08320690304386132,
      -0.10824948541680929,
      -0.23462834962701207,
      -0.17346352019809752,
      0.18521907153057898,
      0.07296163485917204,
      -0.28594524732253945,
      0.264018025658951,
      0.20191184078682634,
      0.041617055150104804,
      0.1319882062898622,
      -0.042430900860191315,
      -0.04928238963919076,
      -0.19755886133912337,
      -0.017414757138492866,
      0.14725338889593037,
      0.05351252427587756,
      0.1354639360389356,
      0.11851274115175164,
      0.05503138359009052,
      -0.17843342964486036,
      0.21856103737126514,
      0.06780909415467881,
      0.14375021486978104,
      -0.144339497958338,
      0.11506367124672857,
      -0.29103742211178735,
      -0.38484946155101685,
      0.02950962331406481,
      0.11171981679753704,
      0.03865577807081116,
      0.4179982130590189,
      0.36865319990595113,
      0.08498761214720216,
      -0.15085259780466015,
      0.2886761802602385,
      -0.16525979540990068,
      -0.04094196161977307,
      -0.08848605725093113,
      -0.237100370585443,
      -0.08744413236946054,
      0.1252360633448521,
      0.10673779384694664,
      0.24664372656299494,
      0.11278325617955877,
      0.04596457331120524,
      -0.30152498061527444,
      -0.13411278261687623,
      -0.01789230167569233,
      -0.026808789347853634,
      0.08327255931134868,
      -0.09748923510400923,
      -0.3953214869105669,
      -0.24921706834978916,
      -0.06102473497661452,
      0.11309043942774946,
      -0.04837026222484696,
      -0.014777535930774632,
      0.20301999741573307,
      0.332822903565941,
      -0.08788036582512818,
      0.09745423254415478,
      -0.10603842571830444,
      -0.06562551592133455,
      -0.15465553009627692,
      -0.10682278290154845,
      0.22411414744153377,
      -0.020453900729721086,
      0.3134698903076514,
      -0.10541124489909312,
      -0.14750855858733924,
      -0.05020819012518561,
      0.28502694930314487,
      0.03561164857196436,
      -0.005711550150699754,
      0.11053716316481671,
      0.07611296189384376,
      -0.0710154351968719,
      -0.3222490802287834,
      0.14372600227307145,
      0.007123602715383117,
      -0.21088316182684158,
      0.1650207696783973,
      -0.008952345146209585,
      -0.2133423183070537,
      0.051404449101796014,
      -0.0040540684547915595,
      -0.15017413040331962,
      -0.30140475437898195,
      0.2707286475088745,
      0.16438648338630724,
      0.13992357915233428,
      0.1085759026206469,
      -0.43619580425564264,
      -0.2509147745717072,
      0.016200702454435417,
      0.14517364584012699,
      0.0072796515602972164,
      0.15235654094798246,
      -0.18557223205828072,
      0.14107200073689122,
      -0.21808516164712788,
      0.2813103471060034,
      0.12981470943784004,
      0.009123605033136598,
      0.02646208073499122,
      0.028840926053173635,
      -0.006300987074301198,
      -0.15367910103304017,
      -0.012889662194698531,
      -0.07116970867985464,
      -0.12423906710392625,
      -0.13458693212911255,
      -0.32664368448397235,
      0.40217427189512767,
      -0.006247379290547278,
      -0.10184306066706716,
      0.20402826727122297,
      -0.09292979568130925,
      -0.06583189198562266,
      0.11506440536055976,
      0.07621780213163115,
      -0.031595375624504096,
      -0.2699080720584381,
      -0.1046066410398847,
      0.15763755777054483,
      0.10435305071263147,
      -0.01410783287240127,
      -0.2859211153448968,
      -0.07418509733579397,
      0.08330445626919647,
      -0.47593477824775776,
      -0.21079968905862928,
      -0.21042061634518516,
      -0.18822858721706204,
      0.06583664129158648,
      -0.02130472961048377,
      0.017555800365850763,
      -0.15995935413664375,
      -0.2449451154910597,
      0.21745488308719615,
      -0.10504431931120894,
      -0.16774378904484996,
      0.13722503611315504,
      -0.018056548285247637,
      0.04754574344584025,
      -0.0204444135792691,
      -0.06717991446014088,
      0.04860478854981756,
      0.24660431907971242,
      0.13985474499210004,
      -0.029332705715520116,
      0.07427321513093839,
      -0.07267160280732748,
      -0.2439816295698439,
      0.044144882068016436,
      0.12026939992379962,
      0.026888826893673348,
      -0.002835173800095833,
      -0.33955430304611733,
      -0.11486536853655352,
      -0.21258624824611633,
      0.14607237121990235,
      0.10532147582636434,
      0.13691221006931542,
      0.18785836250238303,
      0.2609503564501713,
      0.1483645098040476,
