{
  "layerSizes": [
    94,
    64,
    48,
    32,
    10
  ],
  "weights": [
    [
      0.08796896640985573,
      -0.30098376221829415,
      0.03941282945006684,
      0.10301906528712329,
      0.38484024045517246,
      -0.14387158792300245,
      -0.18406923308652007,
      -0.22438886492762408,
      -0.023956263759275946,
      0.15799646653129917,
      -0.1620092158003646,
      -0.01000299102557091,
      -0.18279147789276134,
      -0.10092130288083379,
      -0.026498380696965716,
      0.18296260296598882,
      0.2634886424816376,
      -0.1627697455275647,
      -0.0579713613438296,
      0.20163702947117318,
      -0.06287255548980641,
      -0.006020183158791069,
      -0.14186978749692816,
      0.005680147889132653,
      0.009103798917829531,
      0.49467416045436474,
      -0.20675680220953097,
      0.0003408814425805741,
      0.07973575739064599,
      0.2801576962836004,
      -0.10474550129203303,
      -0.23483260237815584,
      0.13061302097152822,
      0.19884366852791302,
      0.1513628861485286,
      -0.02734193738145624,
      -0.019114179024826518,
      -0.046382661063316004,
      0.2712113516703134,
      0.18842277011813702,
      0.060601557082971894,
      -0.03868808425849861,
      -0.40697231274953305,
      0.06368686962332173,
      0.1659040613800493,
      -0.025590672475421974,
      0.032024961298132495,
      0.20997427047971196,
      0.06683456519323587,
      -0.2458044043999891,
      -0.2077831057533686,
      0.02653788091989443,
      -0.052596918554682945,
      0.21131616490214794,
      -0.3504821325448208,
      -0.07696489278253818,
      0.10864113171573943,
      -0.07520326633174405,
      0.0495108683730024,
      0.15226096175310705,
      -0.007953149310948177,
      0.23028227089055303,
      -0.0525755056324948,
      0.28363749946372324,
      -0.03170305140028375,
      -0.3198534832832541,
      -0.35248236168323455,
      0.24069903154844147,
      0.3945696179767599,
      -0.33540420747637134,
      -0.09842277679235378,
      -0.21621815456306814,
      0.1620857644884996,
      -0.14011016461168158,
      0.2273570212834048,
      -0.1734512014252283,
      -0.48927548401119636,
      -0.17847877788443056,
      -0.010868439506055566,
      -0.1710204799573342,
      0.0893155974069842,
      -0.040825504595068514,
      0.12893954655058598,
      0.22667465229992814,
      0.1479195622295543,
      -0.05338874964602059,
      0.3048890045853755,
      0.2607837353121755,
      0.03209059396933131,
      -0.12232563681173325,
      0.1373504987106531,
      0.26256788969525924,
      -0.08861195734992312,
      0.13482500333711822,
      -0.04787589740401889,
      0.15183841815250337,
      -0.10526568475005878,
      -0.06616284927001828,
      -0.13025615134236113,
      -0.09518913429463863,
      -0.014778226929450883,
      0.06498854884234528,
      0.12568276916348214,
      -0.15854182388442123,
      0.007632198477590473,
      0.1895909324562593,
      0.01939048850504413,
      -0.43060268955336045,
      -0.1499523768585247,
      -0.16583181895231464,
      0.3043093173357777,
      0.06902220789006082,
      0.16060087724183073,
      -0.058386605225900876,
      -0.39123774747300477,
      0.04132529820720239,
      0.24314692595952853,
      0.07865886340266089,
      -0.26197414024518184,
      0.06549343497999394,
      0.2311773877207394,
      -0.34968898297861406,
      -0.1764968201453434,
      0.23556544441305483,
      0.19633711212242697,
      0.06481856626576972,
      0.2056815880261937,
      -0.12259899672434649,
      -0.011850633108224568,
      -0.031983359337077945,
      -0.1527068740922367,
      -0.1314350496697809,
      -0.0044498170875509994,
      -0.022013540260223296,
      0.1883148381229982,
      -0.015295481683256104,
      -0.0559520335429668,
      -0.44154103728121125,
      0.053393690301195694,
      -0.29749735372373515,
      0.05687636579604785,
      -0.2749538127209181,
      0.24140194787673253,
      -0.011536531406190292,
      -0.626768023636278,
      -0.0037743420006196154,
      0.11543597455943981,
      0.0026446314188107826,
      0.9452304177150225,
      -0.09418069069189657,
      -0.03662468225838342,
      0.025504848946026105,
      0.1630721739584385,
      0.288445239584595,
      0.011446564742990537,
      0.272733890020524,
      -0.05506571190401074,
      0.3749908923259323,
      0.15665807349855687,
      -0.060728446298729435,
      -0.03937797962471554,
      -0.010276243641916816,
      -0.0004992898615676575,
      0.18734873115347733,
      -0.25339488221413914,
      0.142852974668515,
      -0.1739531718205276,
      0.07225860522828782,
      0.1070154357512695,
      -0.2077351896983626,
      -0.09347852779359209,
      -0.19577873474023386,
      0.025582691050256887,
      0.1479811103382685,
      0.06253129025288064,
      0.3053348947886933,
      0.13660435700491474,
      -0.5533786469712164,
      0.12235366597621744,
      0.0027477813346391614,
      0.26338444320220455,
      -0.04836193612308106,
      0.3369218752895051,
      -0.47045530388377366,
      -0.2376296899015759,
      0.00020123451382365876,
      -0.5037774922230327,
      0.1810042505754595,
      0.26635116268863224,
      -0.24450941476154894,
      0.18090600909736554,
      0.07567592192951414,
      -0.29734637626100424,
      0.21705448659641813,
      -0.08642431923715914,
      0.45181790645677866,
      0.1535132300267762,
      -0.4999011274386889,
      0.19614605038073057,
      -0.24940038119241598,
      0.7695679232582924,
      -0.41491528577488884,
      -0.04398191907082802,
      -0.20672262317412482,
      -0.05679839306771026,
      0.12661812634325786,
      0.09111844629778293,
      -0.3908335436369437,
      -0.2229928734941447,
      0.3941955228997733,
      0.04818559402254793,
      0.09374003200311595,
      0.08651717399165301,
      0.11268420072320451,
      0.06371240019226034,
      0.3830789430128338,
      0.03002758434384234,
      -0.2729148937398283,
      -0.2522893872593467,
      -0.12263266526420447,
      -0.4213444415786137,
      0.019221043546394645,
      0.18888411200644506,
      -0.07392628874987062,
      0.043330269214881464,
      -0.15582849146159916,
      0.10198981983663899,
      -0.22962836727944763,
      0.09265945450189789,
      0.13851049523407108,
      -0.04210068490135354,
      0.10929181755052726,
      -0.014247202790168667,
      0.18314230952981708,
      -0.22318242176254055,
      0.02229616964290768,
      -0.020305714588775253,
      -0.00636364862772143,
      -0.2038051831378201,
      0.05180169950237152,
      0.043098921025041925,
      0.17467500151779775,
      0.021817374129557338,
      -0.098224223612849,
      0.0851879550096524,
      -0.020923245946004518,
      -0.25278626582062097,
      -0.2969466133092005,
      -0.11195968394573598,
      -0.047315627552662956,
      0.19140763939672625,
      0.4588367400533896,
      -0.337340253569698,
      0.08760370812274537,
      0.02738213240706964,
      0.2707135449781859,
      0.13221475953113715,
      -0.20547973495459892,
      0.047608071946940965,
      0.2503713203555995,
      0.18096041288633347,
      0.2616962879635295,
      -0.08294860514178531,
      -0.19899651121568135,
      0.40927598488943473,
      0.14317558000464245,
      -0.0657763704530313,
      0.30718411014540503,
      0.05829991216265509,
      -0.05704925136454788,
      0.11945802919191154,
      -0.23145705649128567,
      0.25574578920454916,
      -0.08122114303115457,
      0.10641929930231325,
      0.4948122757225425,
      0.22461907534112682,
      0.3780195503437381,
      0.01893240957544995,
      -0.24790132582658814,
      0.03380353788160312,
      -0.02908186703264832,
      -0.1954722603905149,
      -0.1437070302864239,
      -0.05465767019109396,
      0.029616981111706984,
      0.09601977000562656,
      0.1419529772079084,
      -0.011342883416511837,
      -0.36592152904521275,
      0.03329424148614979,
      -0.20242077029944786,
      0.17384998605515367,
      0.17312670277472403,
      0.2604603801150678,
      0.05406880567755462,
      -0.6002289374937342,
      -0.04207783758490021,
      -0.14122823034411255,
      0.07010031676946894,
      0.4995217241409555,
      -0.6396150695771752,
      -0.1856288696693065,
      0.12173979991697895,
      0.11293910290156554,
      -0.37522352432504297,
      -0.18111582088831868,
      0.2559832453961037,
      0.13828628843076712,
      0.09890593482294129,
      0.16754673334282624,
      -0.1556305776498492,
      -0.2539655325297448,
      -0.2320340517577422,
      0.1813881340814741,
      0.006485384839548386,
      0.018639883455643918,
      -0.05038377402703859,
      -0.05238422781545948,
      -0.11407393147426231,
      -0.023926474596088515,
      -0.0685267426217337,
      0.2999687019354623,
      0.2271749164607937,
      -0.04304121890349108,
      0.048097022340711074,
      -0.02864367967573131,
      -0.13438306693317195,
      -0.29142487464262223,
      0.13284787152874195,
      -0.26604631724388483,
      -0.10365290105961542,
      -0.2868004219301855,
      0.20712512579552972,
      -0.010304542291066476,
      -0.054764940648537014,
      0.38327168274418266,
      0.5264258667857242,
      -0.23794208202163283,
      -0.16079897740913135,
      0.16956617710927252,
      -0.23734780695547114,
      0.1096771934920253,
      -0.0849244009593037,
      -0.2489683052078116,
      -0.08697750073743851,
      -0.28803129438238156,
      -0.16672090999708444,
      0.18164199668359612,
      -0.4035973675809431,
      0.11179824263879297,
      -0.3088131106679898,
      0.19378463958436795,
      0.11833118535494476,
      0.03951016437514391,
      -0.06229284537570813,
      -0.3147568398537473,
      0.25502144427952184,
      -0.09001182008014785,
      -0.0783539768040725,
      0.21735126276757064,
      0.07393147149966646,
      -0.08438916889333148,
      0.21571475826324685,
      0.44542293272975375,
      -0.107237375572658,
      0.050856445121256796,
      -0.1820353700817091,
      -0.4123881812360534,
      -0.18240866548908524,
      0.045078544653806465,
      0.04211285374531437,
      -0.033206444813431296,
      -0.10499895831651992,
      0.08942053208455317,
      0.2842099338242035,
      -0.1048255042812659,
      -0.4525484836037297,
      0.01156889901825979,
      -0.204155225395691,
      0.5406287671711552,
      0.24914913179110643,
      -0.06815850758430342,
      0.5074087893957359,
      -0.21153046074308174,
      0.06145826661743914,
      -0.1776603536778897,
      -0.16485734199069121,
      0.13441197564774185,
      -0.11662244782344192,
      0.0007170808835365999,
      -0.0004988098159225407,
      -0.22197240160392523,
      0.024155956072025496,
      -0.09221043950061245,
      -0.5378289201625895,
      -0.19203341324696777,
      -0.21027189030939758,
      -0.04294464902257592,
      0.08830378317238062,
      -0.11649334709745737,
      -0.11007648549233805,
      -0.19952793965365512,
      -0.10649723991668514,
      0.2452932738725404,
      0.7951867629462811,
      0.04225655245818104,
      0.3089038155841108,
      0.17593406918274662,
      -0.12603634968328992,
      -0.06069873241355426,
      0.022777502159196092,
      -0.3440481479501096,
      -0.2966711150040985,
      0.04159993165263361,
      0.1681636408579925,
      0.01256950387675844,
      -0.22634446631469465,
      -0.23746253648908908,
      -0.039403483016527956,
      0.11195206824959847,
      -0.41254532195333715,
      0.3517148588984116,
      0.34392822988263305,
      -0.12112600528777329,
      0.1350621263772815,
      0.13032707645135783,
      -0.8228819650391728,
      -0.16017743598069378,
      -0.2967831362916022,
      0.3561719365796244,
      -0.007464741584411849,
      -0.032409429781035046,
      -0.010150126511081436,
      0.03371849469304734,
      0.06794412506429462,
      0.011552525133559102,
      -0.3706588374184804,
      0.09983243073281474,
      0.3656419131610973,
      -0.059309261725345216,
      -0.1632072629930534,
      0.050702449585892914,
      -0.04988233782136531,
      0.02193808536978928,
      -0.611092765092768,
      0.0761545918670855,
      -0.0107898997765941,
      -0.08405290189283134,
      -0.14420560110178304,
      -0.03083062390117311,
      0.09731364760274125,
      -0.08923005746952935,
      0.058655715278318796,
      -0.03473162598330536,
      -0.301842821605397,
      0.12585445729523664,
      -0.0816530562026164,
      -0.22954759961733961,
      -0.08313685241134403,
      0.10690119709121608,
      0.047969493913130296,
      -0.1521272722547432,
      -0.1715666764056673,
      0.5317002242260952,
      0.11885144234597736,
      0.1556544658814866,
      -0.05237661369877574,
      -0.05767424855000522,
      -0.09422054820379858,
      0.029283367216054002,
      0.06951426452988092,
      0.23874896291844871,
      0.16040856232724843,
      0.1830270752395371,
      0.07767913496998334,
      0.06590076431346142,
      0.27392650421960496,
      0.10235155149705205,
      0.013697320059904192,
      -0.21847476149027534,
      0.19465797824372805,
      0.0651149490339123,
      -0.6308356390773666,
      0.11090996602536636,
      -0.2577584192520266,
      -0.37340394721178927,
      -0.25473840347251125,
      -0.0590347785408488,
      -0.010011411566720212,
      0.04679774362122466,
      0.07534831485870992,
      -0.10598313553244196,
      -0.27763975471407526,
      0.002270800819414927,
      0.11244885682023507,
      -0.17744404567831182,
      -0.048961201828914114,
      -0.14774242220151143,
      0.22955409840999874,
      -0.32712793615359015,
      -0.19358013279725564,
      -0.15414433460069846,
      0.215095322122064,
      -0.017658063803564605,
      -0.3268687473380676,
      0.09967423169853148,
      0.36561658187569956,
      -0.013999920226898622,
      0.23125310772608243,
      0.12661120016633337,
      0.19940327121927148,
      0.031330269750640516,
      -0.029978319186699513,
      -0.05363108502164109,
      0.10444449592100424,
      0.13562010231998334,
      -0.0993489913689031,
      0.1559354926497185,
      -0.22192621222072334,
      0.5469152160518388,
      0.16519377470340543,
      0.0796057396916493,
      -0.1952352989891979,
      -0.22125888084264145,
      0.13242139450389956,
      -0.09984046022410194,
      -0.5418755044777838,
      0.04971757393957574,
      0.12024957355421523,
      -0.22794305200990952,
      -0.29474947189361056,
      0.10547248480594577,
      -0.23971236727730064,
      0.06465583205119463,
      0.08956095597558267,
      0.06682309338339847,
      0.07087664062396289,
      -0.04976943423344295,
      -0.14759829397775415,
      -0.1205732389449492,
      0.28054751773285763,
      -0.199363567170823,
      -0.07032349358404211,
      0.12964871860453384,
      0.11215716200754039,
      0.10621233665607854,
      -0.07725377188356655,
      0.12881788545821973,
      0.09470043977552922,
      0.15961400414090154,
      0.13671660811942551,
      -0.09912499982913124,
      0.1712377799907857,
      0.2950479419160319,
      0.12760612595972542,
      0.11722165680226783,
      0.12013414807223416,
      -0.48502116077654256,
      0.18685257207665207,
      0.04971685752776564,
      0.425420161533427,
      0.5262073428291176,
      -0.1581576587286267,
      0.40711713083823553,
      0.3662309703561617,
      -0.23434012082440742,
      -0.09786730515160644,
      -0.051877297962625496,
      -0.01993624866644393,
      0.007223833403791907,
      0.002244115287045094,
      -0.1573018038884345,
      -0.5339924474980473,
      0.080148263322366,
      -0.15168973408313383,
      0.3937307144308217,
      -0.18701031027021545,
      0.07969132773002917,
      0.06727465998709317,
      -0.11556303436673712,
      -0.15535092064079725,
      -0.060029077719859644,
      -0.1753030702172449,
      0.18163994204022718,
      -0.2511741174695906,
      -0.2486437404318565,
      -0.12729872252438806,
      -0.047137574079784486,
      0.09525245994312571,
      -0.19967725389393504,
      -0.05008901937349325,
      -0.035480892541827055,
      0.41440162184860097,
      0.13133426998839395,
      -0.0917218145580858,
      0.0641378248617392,
      0.12453731382360084,
      -0.016870127693871376,
      -0.25225515910558877,
      0.10821092782560876,
      0.25103759836854017,
      0.08671795257063077,
      -0.06699377129223916,
      0.0870402951397711,
      0.24033071669470354,
      0.38940904445441227,
      0.32660865272114153,
      0.24175192343965327,
      -0.05858177306831157,
      0.052280489025507026,
      0.08501947086281661,
      0.13906508098465656,
      -0.05070450807018782,
      -0.022184424631727873,
      -0.19048032953259553,
      0.16816065967532373,
      0.1912051627865112,
      0.04456888968479167,
      -0.10257421373466871,
      -0.05580574704926386,
      0.10673671757370488,
      -0.21438689149617185,
      0.26347108805419606,
      0.1483514283575677,
      0.21310955317486757,
      0.26835194395953355,
      0.05838686929994963,
      -0.12245574870228375,
      -0.014856638722616963,
      -0.23988146078741127,
      -0.03947569387598446,
      0.052799424171233234,
      0.5597330428566887,
      -0.4420566815680845,
      -0.3840362810781204,
      0.05806777195683488,
      0.2040860987532686,
      0.1728699670799108,
      -0.05866649667452105,
      0.11754446040104938,
      0.05083563364560319,
      0.5029182441188194,
      0.08825761838586647,
      0.2608235899870905,
      -0.2596929170393941,
      -0.20397715937203517,
      -0.16090610147748913,
      0.31477399290067626,
      0.20726353658173413,
      -0.16834392532568657,
      0.22167094279469135,
      -0.06638679570724429,
      -0.39735435105972666,
      -0.23523801472038375,
      0.13688766386580403,
      0.0932702910555468,
      -0.24442500643519804,
      0.05300140311972615,
      0.3512055724086299,
      -0.09740600360337826,
      -0.2879216616218528,
      0.046590013368402544,
      0.004659240655474142,
      0.3630250334414229,
      -0.16778045858047477,
      0.15641321514830478,
      0.04171157324551096,
      -0.2116403980809739,
      0.021740486771998607,
      -0.11948689898700174,
      -0.15301214895571708,
      0.03333801758460953,
      -0.146306424369473,
      0.11808930155181288,
      -0.09186830620046965,
      0.2641790263073662,
      -0.11657948168150374,
      0.23678483935291905,
      0.03635594709296763,
      0.28333939440148337,
      0.22599727081252435,
      -0.22109966239180243,
      -0.10274024188235217,
      -0.4287186936826025,
      0.25169963393232614,
      -0.123067066747991,
      -0.247311702703216,
      0.005299503311694792,
      -0.35016416297657077,
      -0.24228476482012756,
      0.04893041471800068,
      0.24435726045835263,
      0.18010113359525126,
      -0.03250919284813239,
      -0.2943122176670719,
      -0.16151599683892243,
      -0.0014141173952910285,
      -0.3286551155659665,
      0.005120666261190281,
      -0.1129872318953754,
      0.3863231232859709,
      -0.2146698191308382,
      0.0016095064874515341,
      0.14614100103858085,
      0.1777694570367262,
      -0.016613586588046056,
      0.3576770156311998,
      0.25069393185753086,
      -0.029745731408864703,
      0.27784659009536317,
      -0.26016421269653234,
      -0.04941268422728287,
      0.10014073137497735,
      0.035070502927719405,
      0.25704052475744116,
      -0.32778554000560695,
      -0.0028780697049836657,
      0.03157658237727111,
      0.032808776177598094,
      0.2705543092520134,
      -0.2847257557576724,
      0.1056871405986168,
      0.18022701543325725,
      -0.04973516115274926,
      -0.053059446199172404,
      -0.027306428555624054,
      0.15694245535574342,
      -0.21948748617797187,
      -0.16410994887079366,
      -0.13515677358241382,
      0.07107315801717266,
      0.1547841957026574,
      0.7344673322676342,
      -0.4341801275305128,
      -0.04976504085420441,
      0.30096150054854937,
      -0.06747298580100236,
      0.007041704528116327,
      -0.02805918114445218,
      0.11787595316321631,
      0.0003863900088400818,
      0.21945880407465274,
      0.22017437962917616,
      0.046237812996483635,
      -0.43014621839001715,
      -0.0215663378945549,
      -0.17609733351833454,
      0.491702563003023,
      0.02681948345866121,
      -0.0028491419607976354,
      0.06505889175258454,
      0.1595004975370859,
      0.17119030277777275,
      0.12154283629448745,
      0.12522348657354518,
      0.48035794408454846,
      0.17924332871579507,
      0.35159460899436207,
      0.09880847934497167,
      -0.27660745565155276,
      -0.20913563626500692,
      -0.27308759545181954,
      0.20754933483482524,
      -0.03849755804227514,
      0.05203731707022183,
      -0.04660537912516985,
      -0.04999790997994526,
      0.21438404658213306,
      0.2894551064555461,
      -0.05314956364141912,
      0.13166285105213568,
      -0.24994979133897666,
      -0.13177265401710603,
      -0.1255853846003143,
      0.07374187763919549,
      0.24393901337766266,
      0.047499020720658036,
      -0.16123037201794485,
      -0.025784184261273393,
      0.43355756378857946,
      0.18459741807478855,
      -0.05466562906695384,
      -0.05705146438170894,
      -0.004120941010502255,
      -0.15888181546453276,
      0.11690485790842858,
      -0.31562306603944795,
      0.15871567397812864,
      0.11185503564616656,
      -0.22141742845464168,
      0.041673801076133735,
      -0.22861662390952767,
      0.014792060652503693,
      -0.13975934799130618,
      0.16903649505588225,
      -0.012393802078649943,
      0.25388333456959417,
      -0.04069353447868965,
      0.3275011806638368,
      -0.3108021352648838,
      -0.2743675936913732,
      0.2539199787509771,
      0.11975925981747396,
      0.2075775740298163,
      -0.017663440441437438,
      0.34351902755812114,
      -0.08379480410307952,
      -0.004922188533016375,
      -0.0037986925882395606,
      -0.20851449716745474,
      0.08811945381175332,
      -0.07763746358052089,
      -0.0870485225393834,
      0.21497297564976486,
      -0.16122134620775871,
      -0.24452613092009906,
      -0.04307148889329679,
      -0.3274752908580454,
      -0.04129889729909676,
      0.04552092254483994,
      -0.017403806339767423,
      0.1254821104741878,
      0.06400427140428888,
      0.26574585835336517,
      0.2799122096454183,
      -0.07611006762319572,
      -0.1654336716134522,
      0.031265379306910576,
      0.41030478510188484,
      -0.5790301850297328,
      -0.09297400352750619,
      0.2639409462870296,
      0.23592535116181285,
      0.016469106090467422,
      0.21623513328166777,
      -0.19896565212636497,
      0.13983285221028824,
      0.1482180870717402,
      0.19413682598544238,
      -0.03381838766704061,
      -0.1173886584686674,
      -0.010059724160730074,
      -0.7089316580396976,
      -0.054087786274639074,
      0.07921060759918709,
      -0.05101901801500117,
      -0.1728248522050606,
      0.1086703259109631,
      0.04177945882245977,
      0.1626868702843281,
      0.18740831031966232,
      0.010558175829484366,
      0.09836658189848775,
      -0.22242960472136775,
      -0.03641469411455013,
      0.05717420950369582,
      -0.04826706952373,
      0.04402124032771659,
      0.0527684941503901,
      -0.0791943550364553,
      -0.2595152581151303,
      -0.006241812230299089,
      -0.5526983470673578,
      0.19122094397280046,
      0.1438136656580846,
      0.1756711670696907,
      0.12398512970176928,
      -0.0020439095158233563,
      0.06712671050106815,
      -0.11013884094403265,
      -0.14689659317771206,
      -0.05427032850757067,
      0.04393668140264186,
      0.051611726444046685,
      -0.22048799549870907,
      0.07167765270174596,
      0.19858461139878286,
      -0.2039508964995918,
      0.08631317792591403,
      0.061221808639952066,
      0.2665890403323555,
      -0.12637078728692763,
      0.165527449436404,
      -0.19198032940268323,
      0.11146191483514438,
      0.05395398969775521,
      0.004970368753104226,
      0.26930847394899377,
      -0.059035125105030055,
      -0.2858702606656167,
      0.2054541198123904,
      0.10898544355645455,
      -0.19261508389671997,
      0.03715386746500625,
      0.24476835544830428,
      -0.14957687619995655,
      -0.020390418773262753,
      0.03849763268645023,
      -0.08728467898041314,
      0.19527221158976754,
      -0.24041637059648885,
      0.060904443504054565,
      -0.4551864716894125,
      -0.49489766445707883,
      -0.2818534182158642,
      -0.12959157082424944,
      -0.4433848343490807,
      -0.039984713532614,
      0.27820576103831907,
      -0.1751496340393681,
      -0.20601250146978162,
      0.2612084926638513,
      -0.2923272047655337,
      -0.009192271703162863,
      -0.3154313746251697,
      0.3330485748591528,
      0.41960422175184947,
      -0.24836125615376808,
      0.18594854164480773,
      0.1681809317176432,
      -0.017571831489020376,
      -0.1682272201438516,
      0.37325764383475823,
      0.1350016287534519,
      0.0029609813052180467,
      -0.32384647284313345,
      -0.1311505849342359,
      0.2366388314914618,
      -0.2423748888692619,
      -0.17043446168797294,
      0.12396270649100796,
      -0.28328970963514377,
      0.27720226321195796,
      -0.08294625853743748,
      -0.33503794699841327,
      0.05617638220803288,
      -0.2658510293250348,
      -0.30916891552905224,
      -0.04827963213165687,
      0.0370807159008302,
      0.20974160742771703,
      -0.0035189926190221012,
      0.4192883371356834,
      -0.19742361969284455,
      -0.2786054545535231,
      -0.056946428568867447,
      -0.07326463247404083,
      -0.04376136046100479,
      0.14758667961298844,
      0.08941360784548152,
      0.25649803066392785,
      -0.1715275509174406,
      -0.2184761360066214,
      0.3954865567605321,
      0.25732845841452895,
      0.3617324360249009,
      -0.16109270587081168,
      -0.36982654258462855,
      -0.23063143739332154,
      0.2698946404984481,
      0.12910160149698457,
      -0.16493414648608853,
      0.257572532060171,
      -0.13475356366587868,
      -0.07181430709720611,
      -0.07620368138753228,
      0.0943305287662846,
      -0.0848688908021308,
      -0.07340964837964618,
      0.2812423342269528,
      -0.02388024473846509,
      -0.15677552074723142,
      0.2718596783074767,
      0.28370229844965905,
      0.24167881500619692,
      0.3384190931125106,
      -0.06755919839477893,
      -0.0023483646622229765,
      -0.5553830789290443,
      0.02318648340782642,
      0.2278350929127974,
      0.3076950523956865,
      0.05886351085930017,
      0.09255899759368504,
      -0.03855393176474809,
      -0.2088898365715025,
      0.01747952894638831,
      -0.1612807126481362,
      0.2498166457502456,
      0.14324690034954593,
      0.2122406414440229,
      0.007429700166700734,
      0.034260706383077655,
      -0.11012535932426577,
      0.17316674766684756,
      -0.20876241945930152,
      0.07707907251572288,
      0.05687755130821211,
      -0.05297720799388782,
      0.15450661904364021,
      0.005259821292849735,
      -0.11032603832618267,
      0.26828818121290054,
      0.24322268643794842,
      -0.6806436276180257,
      0.028249066299266906,
      -0.15524282887677893,
      -0.029776058812526145,
      -0.028836875993039413,
      -0.4298599300273673,
      -0.08417691851878756,
      0.02182056899646523,
      0.06444462820703648,
      -0.14372957456054108,
      -0.0988528376947658,
      -0.03309737383669073,
      -0.24623200954951796,
      0.08502080940088788,
      0.07811678304936147,
      0.04549851131691374,
      -0.3920328761373441,
      0.001648023114110636,
      -0.019144534057516288,
      -0.223396544816045,
      -0.09336593862591153,
      -0.23645609947605462,
      0.08057080283136464,
      0.3018712236574844,
      -0.20234544925816686,
      0.20357316818879062,
      0.23088312087211268,
      0.24192509181329008,
      -0.2747598971105647,
      0.17261074584557096,
      -0.38560881670631886,
      0.06029673330595786,
      -0.261795663219411,
      -0.23231452204011346,
      0.14444590124798035,
      0.2184835875730494,
      0.06876251995782119,
      0.6732107014337337,
      0.1304357342093561,
      -0.2030110440669171,
      -0.044903898312190514,
      0.090881637307717,
      -0.1237826746647574,
      0.054784412463511456,
      -0.084387908967361,
      -0.1658699996260936,
      0.29172151923119805,
      -0.19094914968509055,
      -0.06633737964564532,
      -0.05500183935584725,
      -0.18745961032247946,
      0.3298906548257373,
      0.16238417544908232,
      0.2550877161101809,
      -0.05843027486304461,
      -0.09599216433395029,
      0.18845001165740735,
      0.21307942412706812,
      0.01836391804685244,
      0.21563389855904536,
      -0.2830741790293474,
      0.22276422369546922,
      0.010760652364346868,
      0.11167865186716883,
      0.3564752989936166,
      -0.15408245796339504,
      -0.13440758354298565,
      -0.08064704845604263,
      -0.07570026272845455,
      -0.34262913543879714,
      -0.008862641755254877,
      0.17347575980243243,
      0.5643737266929533,
      0.0040082656473800216,
      -0.1743480965447775,
      0.2008931077952488,
      0.49640283204140734,
      0.1926349342130131,
      0.10742592568916999,
      0.13504170596654794,
      0.3142847343981723,
      -0.045147479187479495,
      -0.13286279733481854,
      -0.0061210830267310855,
      0.2074952566633096,
      0.10792339670929516,
      0.04809464810127287,
      -0.10510808504128932,
      -0.11659498775591196,
      -0.067701186467239,
      0.20406709795941874,
      -0.12831623502762018,
      0.06638354264132704,
      -0.22299101259002174,
      -0.19087529627440541,
      0.01831585099334307,
      0.3257236250677742,
      -0.049255457719162093,
      0.08143798424856297,
      -0.10954494612541327,
      0.21909530060866894,
      0.3901715385321836,
      -0.13957098257479988,
      -0.22808214379237535,
      0.13683186762460658,
      0.3179007357748856,
      -0.01814836492527485,
      0.06646987165823788,
      0.09292781634031283,
      -0.11952539289251135,
      0.039661182501968546,
      -0.13478955480835342,
      0.007454918192652739,
      -0.6095936769990645,
      0.4630264149190147,
      -0.40717581255965307,
      0.0784053010890405,
      0.06744830080989965,
      0.013468803679730981,
      0.009549595249174647,
      0.15620360170734204,
      -0.006949049666180103,
      0.04056454731233698,
      -0.09725714904903801,
      -0.05080143228531768,
      0.24801988341173378,
      -0.3269883409450164,
      0.2817597697096721,
      -0.16481077705834088,
      0.08910319003298152,
      0.008484712248478974,
      -0.37708876848627954,
      -0.04453994253838146,
      0.02639795542631823,
      -0.1320163589334037,
      0.46621491892464867,
      -0.19667621422652198,
      -0.0793748685093531,
      -0.1535666438294064,
      -0.3659944962189321,
      0.16447846212503625,
      -0.18263681747374605,
      0.05777785657322111,
      -0.30124283194735063,
      -0.05691369516380332,
      0.032728271187511086,
      0.5734579981702606,
      -0.23323624846220808,
      0.2306844902767796,
      -0.2887930414498684,
      -0.14500253713811545,
      -0.2500488681129466,
      0.006128417095509958,
      0.18692496911684994,
      0.048199816515324796,
      0.157312064085109,
      -0.20683466786051086,
      0.3577561145781841,
      0.3376987846376652,
      0.04709070265604495,
      0.03512621943555652,
      -0.23272418578975868,
      0.15540856469874387,
      0.42390457498678086,
      0.2632901996756333,
      0.25347522726919114,
      -0.553024257924042,
      0.015621473418586995,
      -0.052173122733855756,
      -0.20979929519863338,
      0.06803882833819759,
      0.11541213352948074,
      -0.15008509565300288,
      0.16757914112338973,
      0.20567369006968322,
      0.5271276996547827,
      -0.32876141327078046,
      -0.20747286331705772,
      -0.228585925047129,
      0.21781119058654758,
      -0.17539831833666764,
      0.10680771347624522,
      -0.299657655332941,
      0.005289034509889573,
      0.26426541914277824,
      0.11894631176433437,
      -0.07931899217663009,
      -0.10699969511340832,
      -0.19074696503821947,
      -0.14744753431955326,
      -0.09028078310757176,
      0.0021050825962670716,
      0.2545964614880087,
      -0.11118000521131578,
      -0.12959379551711037,
      -0.13255707577667875,
      -0.017795732996022606,
      0.03531916739615981,
      0.23058489968982637,
      -0.055501772579511305,
      0.17409025508108295,
      -0.20868413451848733,
      0.016669080027079966,
      0.3675321665423139,
      0.03279681761126829,
      -0.0027001520341052056,
      0.2210162885080667,
      0.1841895415459266,
      0.17751100394633867,
      0.06721693950445887,
      0.10059793958778887,
      0.006256901908790288,
      0.18597208009397503,
      -0.052754699009594036,
      -0.38501285301371213,
      0.10822162537126309,
      0.18763131707233616,
      0.22052901019596355,
      -0.1460983141817129,
      -0.24688973636957615,
      0.061826099689843886,
      -0.016415145196926786,
      0.08860640267837332,
      -0.015401101622448033,
      0.13772592969771905,
      0.2428080172167177,
      0.0860634239660174,
      -0.21502531113309778,
      0.21658999859497508,
      0.06256100300628675,
      0.278418373081711,
      -0.2263749939317302,
      0.025125002905571125,
      -0.10089277856730738,
      0.10074645812493133,
      -0.10084107771483417,
      -0.01920964301421524,
      -0.038139004112712996,
      0.4104290141691669,
      -0.29420353429865287,
      0.10964481610801817,
      -0.055229809496899804,
      -0.14108436332886193,
      0.0046203789046289235,
      0.5897125146751858,
      -0.4903024103628251,
      0.09307630814833692,
      0.0789797189342969,
      -0.02277167857485094,
      0.3178052424676636,
      0.0460086323132818,
      0.5058274353633008,
      -0.010885504784131285,
      -0.21561233358502074,
      -0.27768655886270227,
      -0.2538558979999087,
      -0.1048213119809061,
      0.1803925743749235,
      0.1144356415534204,
      -0.14613635913692136,
      0.27202929474918713,
      -0.1692998969124381,
      0.1949953193454541,
      0.0007384000325885709,
      -0.15578217609094244,
      0.008848581200644287,
      0.37003507456479495,
      -0.21012273289118077,
      0.056393733716784515,
      -0.10138263448308447,
      0.014092270281581332,
      0.3368978043299054,
      0.07320044356953113,
      -0.1688284493560558,
      0.29790208218935255,
      0.07829363118324001,
      -0.2895934957277382,
      -0.000381175303560341,
      0.21278814472408084,
      -0.014551682765591739,
      -0.17859028784216396,
      0.35939520621093324,
      -0.3071250214209612,
      -0.08087245088805826,
      0.19840680286439627,
      -0.068671906531443,
      0.152499248739991,
      -0.29756145788579125,
      -0.10207825281992566,
      -0.02678650384777617,
      0.4008568867603982,
      0.33641390664299475,
      -0.06769387025604014,
      -0.19953360330457864,
      0.01789409349026186,
      -0.14318630171298713,
      0.10087449338295483,
      0.3391299748718253,
      -0.02145031137201761,
      -0.026980392232959165,
      -0.030451908909095493,
      0.10895807707459071,
      0.17339533131519108,
      0.1235209352605805,
      0.23952623761808883,
      -0.16865289789774324,
      -0.13997185036941429,
      -0.1482274595243167,
      -0.08327961744119056,
      -0.1578911702420283,
      0.04414428342049262,
      0.03476879559854523,
      -0.23734068748277184,
      0.09281777488613097,
      0.1520736464987765,
      0.24201501887901355,
      -0.006751992094784595,
      0.30541257716396897,
      0.04598178700035818,
      0.03958543376966479,
      0.11189386361251068,
      -0.014320733037904404,
      0.15454937739153216,
      -0.07481080542846044,
      0.11512113484163827,
      -0.14862287049807882,
      -0.055068487517443906,
      0.024991874602053682,
      -0.11433835408961575,
      0.1312906717277207,
      -0.12079939042793429,
      0.193087715142699,
      0.26862164501354724,
      0.1399382385115332,
      -0.14476391000371697,
      0.23371829411049813,
      -0.5900651519350175,
      -0.17212383685558158,
      -0.1375944816514254,
      0.28879593567642664,
      -0.3449905522540077,
      0.18572299238242557,
      -0.049828750011019496,
      -0.1803382805991619,
      -0.11692722527972493,
      -0.08832926855920896,
      0.24908304246756524,
      0.04164286119681512,
      -0.33166977980865353,
      0.05282917871361208,
      -0.15505020227759012,
      -0.17753966778854016,
      0.04573869106996506,
      -0.05265305749714348,
      -0.425102248017338,
      0.126980353441993,
      -0.325474102228661,
      -0.016365897596944644,
      0.3071566348753396,
      0.06438718454840274,
      0.3479624797537303,
      0.30339698954224614,
      -0.2542946914217527,
      -0.12283986373053793,
      0.18647271555045844,
      0.14505030741985314,
      0.02532737238989333,
      -0.02395601209093623,
      0.2689355518588114,
      0.1077775808687221,
      0.04336680423062847,
      -0.16326795688996915,
      -0.05443060645838209,
      0.09844916870464379,
      -0.13065966163054873,
      0.12417059102435798,
      0.005917788189830481,
      0.35995140171260004,
      -0.16482597293140724,
      -0.061290097608328986,
      0.2526322907920815,
      -0.19559289742968083,
      0.004613210404509953,
      -0.11762327850213469,
      -0.21115545879040207,
      -0.15019582125225256,
      0.03903343963067017,
      0.056235656062888995,
      -0.14455880306005203,
      0.01611091132894525,
      -0.12915821978000946,
      0.18356614218873069,
      -0.11391207458349932,
      -0.02623873811862991,
      -0.06897315696621625,
      -0.025670078968530644,
      0.23154223054916773,
      -0.45266667209119865,
      0.09878537190540017,
      0.2633490459881143,
      0.05314311410728069,
      -0.08279696982037854,
      0.22609860191885336,
      0.1697095701824819,
      -0.2961425648219861,
      -0.08450606721262025,
      0.05875983001017761,
      -0.0923482000014889,
      0.26951548983327966,
      -0.1967747731615123,
      0.02446663056360947,
      -0.11708134102285091,
      -0.3398814986483409,
      0.0741935052044448,
      0.26685010771729467,
      0.0012906115769731191,
      -0.3717985112246086,
      0.017143516870221143,
      -0.24328019897185407,
      -0.3104600805184758,
      0.07330973174712993,
      0.12771365963196196,
      0.252802447614813,
      -0.027228619224881075,
      -0.12954637327701757,
      -0.16098387669343167,
      -0.12100192558962178,
      0.0844028516306583,
      -0.07012659822932883,
      0.24312259256957997,
      0.13953495303295338,
      -0.07452705728655325,
      -0.3752720642165283,
      0.0401608986211723,
      -0.04192091807687694,
      0.15450555735163543,
      0.14071266331205198,
      -0.12183559230562274,
      -0.0963845162563039,
      -0.37223937751651637,
      -0.14179233563222546,
      -0.15452624886282573,
      -0.38287238785531075,
      -0.0931677309290477,
      0.0416319509866848,
      0.004613854050548247,
      0.15428571531638913,
      0.35252237260854113,
      -0.16739930759227528,
      -0.054744945517169005,
      0.00576379134777158,
      -0.029893546748504418,
      -0.07922789611169383,
      0.179979323028235,
      -0.1335869427553536,
      0.10413703340297457,
      -0.09693747580194627,
      0.0384663714508844,
      -0.12522916253799218,
      -0.14935453710503638,
      -0.3860637721344955,
      0.007744223627252064,
      -0.03186028568641421,
      -0.1579245178879313,
      -0.4024307989965434,
      -0.23770647083202284,
      0.24193878021316528,
      -0.1935266412208388,
      0.20305433839307582,
      0.12708482430591322,
      -0.015122000525174893,
      -0.1620181494141661,
      -0.26276840614663355,
      0.03849223749469667,
      0.06300777365644879,
      0.3836568889500052,
      -0.1480238089616225,
      0.15292092865976542,
      -0.060375795021955656,
      0.10136246173163015,
      0.031794305126350675,
      -0.05721091301966365,
      0.48024208403511126,
      0.33209053581530523,
      -0.11381622935262978,
      0.40735486873461524,
      0.19798154901945464,
      0.08117057027615772,
      -0.009234197843815552,
      0.13607028441410016,
      0.36298906550631593,
      0.010017100801196038,
      0.06965402147496377,
      -0.1571054178575974,
      0.05338466001402016,
      0.16491300138068737,
      -0.013722224452730317,
      0.44508609674884736,
      0.05078403510552053,
      -0.31731085178390306,
      -0.09874960703203264,
      0.2680975026707566,
      -0.15027014249487392,
      -0.3331875982311374,
      -0.027699961116152985,
      -0.3556872159293858,
      0.30234242133043837,
      0.2504749445601048,
      0.3071092100548575,
      0.16192113372874908,
      0.160338263869375,
      0.19749037319495502,
      0.1938819635025743,
      0.10525140308409162,
      -0.3192193282503782,
      0.14275872478649024,
      -0.029678592567101605,
      0.24476590185694275,
      0.18177675080299519,
      0.1216121069138822,
      0.09041655009065727,
      -0.10240461451681396,
      0.17928009456735453,
      -0.21480050314487578,
      -0.07411336411310623,
      0.30176960742879855,
      -0.07130177977002272,
      -0.31690540489516,
      -0.26548351320148234,
      0.4116317374390353,
      -0.06250180443672729,
      -0.05304045222238024,
      -0.34735711415307374,
      -0.25353165062333366,
      0.48195761563681216,
      0.011256888300923917,
      -0.11536561106860665,
      -0.036681534431756445,
      0.49167264316736503,
      0.20048719216967537,
      0.20878729963099246,
      -0.01661492697187027,
      -0.06218238132166272,
      0.358947316052579,
      0.11206698446721737,
      0.10104330932947814,
      -0.13898609046872853,
      0.0506798722755786,
      -0.05209100625163071,
      0.2995774518155703,
      0.03241731993021285,
      -0.028366041861515076,
      0.11754763457330354,
      -0.0022018559351891787,
      0.31216415018495525,
      0.16989418502699707,
      0.27802264641717245,
      -0.14822235459482186,
      -0.28579418098314,
      -0.2973343017559359,
      0.345142372706676,
      -0.19917644710681795,
      0.19133160338836602,
      0.29991584201211524,
      -0.2774719768501378,
      0.07221708057797771,
      0.12262613021375691,
      -0.0703136987419375,
      0.1383440066362097,
      -0.10725080603744068,
      -0.18609007916691406,
      -0.4065608091523225,
      -0.06612412231086973,
      0.027266250965802902,
      -0.06887177684909715,
      -0.022056325175297497,
      0.02089694810472985,
      0.21953065112668305,
      0.16998755881511385,
      0.3351898312496665,
      -0.07855297345210119,
      0.30163118801412847,
      0.2330886889059086,
      -0.11991388162663794,
      0.033252681908409354,
      -0.014787442853293352,
      0.0006712347103454419,
      -0.05335637714774081,
      0.014890341529152022,
      -0.037847802105036354,
      -0.2937887923774023,
      -0.12013040380107222,
      0.2805388999165542,
      -0.1516981194274612,
      -0.1206295148871741,
      -0.06722274235745687,
      -0.04044977897755357,
      0.16029317802660947,
      -0.06315748608460851,
      0.011657030246712337,
      -0.12469735699628107,
      0.019947169521496097,
      0.21427919956643193,
      0.12035279410672359,
      -0.03136945930470478,
      -0.04938877872023073,
      -0.020338557825210657,
      -0.17205684117069386,
      -0.08233447353652074,
      -0.05046640680754773,
      -0.04622246538599398,
      0.12788244060357046,
      0.44786975394510975,
      0.10872187696801018,
      0.18597098554019192,
      0.07536726106714986,
      -0.3282661891682533,
      -0.16571660315629283,
      -0.2517081143346206,
      0.10855686726626915,
      0.15880395498128347,
      0.09584825252997903,
      -0.27382868796036663,
      -0.6834633693323059,
      0.4295814445903208,
      0.10578301872777057,
      0.2244364848612337,
      -0.03627698019785924,
      -0.39834374761478536,
      -0.030563930770338255,
      -0.2094651068713384,
      -0.031366180129149844,
      0.055652748716292076,
      -0.16041179236070277,
      -0.12164866924497558,
      -0.2867253594785745,
      0.23921879116393774,
      0.17192228815714233,
      0.09528657730829976,
      -0.0934636855136485,
      -0.10517426742382668,
      0.15364672801304272,
      0.04743327663726647,
      -0.030721546535673244,
      -0.6408542142235893,
      -0.03054836694437263,
      -0.015405125148557169,
      -0.021500726778731147,
      -0.2763026114098679,
      -0.11217559346132142,
      0.08111614150773719,
      -0.2936842653792173,
      0.013522214808416519,
      -0.0014111931740752384,
      0.025463773594492197,
      0.07926282352187883,
      -0.3320085287599095,
      0.010588170904914207,
      -0.13904490488057145,
      -0.2618729916716353,
      -0.2509590144759982,
      0.08744079853788711,
      -0.6528659021214869,
      -0.23650273197658966,
      -0.15533503530990583,
      0.17262888233465862,
      -0.1898391732420096,
      0.2327607025444567,
      0.1090250001927376,
      0.24156461280725733,
      -0.13538560149570297,
      -0.07694656842097419,
      0.2824366839380408,
      0.049295591062665595,
      -0.3599182238916649,
      0.1379828671233334,
      -0.21409589362163672,
      -0.13564818104363105,
      -0.1698172624347348,
      -0.14272525938848588,
      0.18483194967249406,
      -0.08816586698969321,
      -0.05320344154964683,
      0.07274061187518888,
      0.18858086997001727,
      0.19700339477496887,
      0.2409472198126225,
      -0.07537587065688187,
      0.08709729366423521,
      -0.1940160126041529,
      0.07927017275771134,
      -0.03565359433233056,
      0.022828777238541986,
      -0.1788380967908193,
      -0.19432724723113687,
      0.021721501753930835,
      -0.2295239315078556,
      -0.08695855335867927,
      0.018673613252837465,
      0.020536633449528524,
      0.27496312159414893,
      0.02084018433049392,
      0.43758600243290835,
      0.5255418370587501,
      0.059452156117880184,
      0.1509590748507017,
      -0.43660448671973734,
      0.16472939450969445,
      -0.05058448039078479,
      0.13778555652179464,
      0.5326215559724315,
      -0.11130596153296406,
      -0.5374732484821009,
      0.0967927911272854,
      0.119501001460354,
      -0.017009136537654207,
      0.09921029681105954,
      0.03404539969571569,
      -0.05188253572727698,
      -0.20580429447651086,
      -0.009967847859044865,
      -0.014975962152154881,
      -0.251773168894985,
      -0.12071134747766983,
      0.08415479918656148,
      -0.3056103139060775,
      -0.13723285992991485,
      -0.031040080906182474,
      -0.46275929105389224,
      -0.06970639988542793,
      0.12621170530737716,
      0.08643480204868656,
      -0.6293756711023892,
      -0.29809320281868534,
      0.151396703051184,
      -0.13071241317486637,
      -0.11131844703057711,
      -0.15816522626372936,
      -0.32629515710041995,
      -0.06713653897876022,
      -0.033196830299414004,
      0.30547240364793904,
      0.2181393221432667,
      -0.0885663816356292,
      -0.30131678943650053,
      0.44511413027726393,
      -0.024270872169908864,
      -0.2225249944180412,
      0.09060953649192816,
      0.011889537049907806,
      -0.2943914620251936,
      -0.008127410071225796,
      0.1250383657035846,
      -0.09584551939861502,
      0.02796137472752387,
      -0.08462087389314593,
      0.0023693541337984486,
      -0.0884194701298792,
      -0.04398269350182747,
      -0.21504234769611527,
      -0.032592144789623426,
      -0.028130423069816612,
      -0.05761549493268533,
      -0.09381040166533933,
      0.0899860637915958,
      0.1675634822086797,
      -0.1981747674140206,
      -0.3430613940779624,
      0.22347186712185724,
      0.25477885548900014,
      0.022873514665444544,
      -0.33828279784156673,
      0.06824423257075543,
      0.03393083610024785,
      -0.11124482130977514,
      0.04833415569438927,
      -0.12425129844285052,
      0.6216776071659176,
      0.21612213615182907,
      0.07416581092618438,
      -0.07353384516086352,
      -0.051393531447694,
      -0.027283172027757412,
      -0.008100100500099808,
      0.051001801084024995,
      -0.21052922542242555,
      0.06930557430120812,
      0.2670977527202538,
      0.24611727425087337,
      -0.05474626443449166,
      0.04747385036014182,
      -0.4185061678478003,
      0.08661216565358067,
      -0.2781979666897406,
      -0.11429144939053822,
      0.10645705898490199,
      0.010773879017107912,
      0.2535520724161994,
      0.019676410182703517,
      -0.07353847230908207,
      0.08771033055444374,
      -0.06974274521631843,
      -0.09366701713523978,
      -0.3201710080900929,
      -0.12702775910935127,
      0.5211388260034879,
      -0.057700654550946896,
      -0.46257868862221097,
      -0.2991632998371685,
      -0.0830039385984456,
      0.18664259809521347,
      -0.03525378359555577,
      -0.07475085521462858,
      -0.5285678108147074,
      0.10476922872742946,
      0.04732288237260565,
      0.015174777451780364,
      -0.034833859875389075,
      -0.39565939101065256,
      -0.22336499155307263,
      0.11617329636857943,
      0.0390845015637679,
      0.2619159465778677,
      0.35987464276165704,
      -0.26218944231676344,
      0.2767189048410382,
      0.04553701810954777,
      0.03850174730579542,
      -0.016377316113016044,
      0.03010897601526162,
      0.06141247350935429,
      -0.19225059188485305,
      0.006243937759737472,
      -0.2898533331441634,
      -0.04206157192694285,
      0.33471530987022446,
      -0.11174855189411775,
      -0.6095291875758704,
      0.0703598083580782,
      -0.07076768229393475,
      0.3773535244873059,
      0.11622029803875013,
      0.04397223258285482,
      0.013281573382639713,
      0.3188920240002542,
      -0.04372129107887417,
      -0.16569023867330956,
      0.05409508872032284,
      0.32803379190172827,
      -0.0856209641210354,
      -0.16809065659153594,
      0.38240234946632856,
      -0.1453926907372658,
      -0.3563957038039881,
      -0.05336554032533203,
      0.04369890294729399,
      -0.06739540164724368,
      -0.03007265754373445,
      -0.042328197860011726,
      -0.31040983885601137,
      -0.0029395001697807427,
      -0.034263250023866064,
      0.018506746695517287,
      -0.07193530068331952,
      -0.25213966445013863,
      -0.16862925845659188,
      -0.09494946585762434,
      -0.38860273422416136,
      0.000736727819109162,
      0.15844959853130544,
      -0.07638842189467503,
      -0.056185368289045814,
      -0.13718736709136048,
      -0.14391799234765296,
      0.05044728772964498,
      -0.4001054553052571,
      0.04096176326106965,
      0.24969552082650626,
      0.35411652415190764,
      -0.11124203217572258,
      0.030545319599275186,
      0.03543055800670285,
      0.028960120825850397,
      -0.16802714482462874,
      -0.3410950658305997,
      0.257241168740509,
      -0.12292657954340937,
      -0.00394819194129481,
      -0.0021979417547023667,
      0.07234446528301443,
      -0.038214062425534864,
      0.22323938627030648,
      -0.013834568692249888,
      -0.1380908343781978,
      0.17151117252428855,
      0.02041805503021807,
      0.18539605834408376,
      0.2029974713042431,
      -0.24104961683276077,
      -0.11855716415681151,
      -0.018356007369272755,
      0.03649007021285313,
      -0.008466248546471275,
      0.0025575857383919876,
      -0.3645290072908016,
      -0.1436168629604713,
      -0.205455887682871,
      0.04999091148247229,
      0.1456325337210268,
      -0.06995173405838315,
      0.27162908860378904,
      0.09905811968960306,
      0.10803962333095994,
      0.0597438813803801,
      0.6167841224024124,
      0.0974515601063944,
      -0.13211091832899263,
      0.19630914759318785,
      -0.21683070199046095,
      -0.20124202315955517,
      -0.36594603982488794,
      -0.23377158432607711,
      0.03249244876027873,
      -0.21722932710923284,
      -0.1840341006512283,
      -0.06463697956925116,
      -0.08217589761449619,
      -0.14719345277628712,
      0.08136377423805355,
      0.2214529226647639,
      0.266478265820968,
      -0.1552206052061134,
      0.06583667348414665,
      -0.15184630253484088,
      0.06011510987911508,
      -0.053361644477736676,
      -0.10756976321585893,
      0.20998811863340006,
      -0.2731611138701035,
      0.16744982186947058,
      -0.26792441622951596,
      -0.16390812870583638,
      -0.16803869351400905,
      0.3250418296010701,
      -0.10338029651790533,
      0.2686401313159151,
      -0.27869015935214597,
      -0.008934840210229722,
      0.12484264236455347,
      0.2217999439502893,
      -0.02566502230597882,
      0.5682364413422931,
      -0.0021070380297101843,
      0.1134472481065052,
      0.03158607372886463,
      -0.19374831377112653,
      -0.13797974270115168,
      -0.01768772478815646,
      -0.15998176159515268,
      0.3070653600131494,
      0.34721349409831626,
      -0.3068672741776452,
      0.09408361163489425,
      -0.02313765336401636,
      0.0052146983371306466,
      0.4347391278493192,
      0.4773150364231245,
      -0.08908183640780779,
      -0.1412174893437311,
      0.08923828959109167,
      0.06083002320404316,
      -0.6470464310283062,
      -0.2534745782970645,
      -0.3716930927560502,
      -0.1525703078263963,
      0.10862713261115246,
      0.2983076017463013,
      0.5336186634673145,
      0.05224651057848227,
      -0.025379232989394887,
      0.10567404027777111,
      0.1897700355186731,
      -0.017361557830801524,
      0.42600006493712883,
      0.10503876947140106,
      -0.20876081959678808,
      -0.1383647346426942,
      -0.4833926245892961,
      -0.10245217501926421,
      0.03389863617380547,
      0.44703363926594397,
      0.06768915910527964,
      0.2352058732757344,
      -0.34186440362088694,
      -0.114727820625144,
      -0.09166561117373254,
      -0.07284105238223232,
      0.017102645744676015,
      0.19187150171858702,
      -0.21743432616824232,
      0.05550154521584578,
      -0.1666334264934336,
      0.02956616838934091,
      0.18061711226663738,
      0.05390583343259482,
      -0.17507449792449709,
      0.18681693487901313,
      0.1451545946849906,
      -0.018764046219605493,
      -0.16740314455185368,
      -0.40152870794721474,
      0.47020660437384987,
      -0.15941648906546124,
      -0.27878732645145266,
      -0.17436508958474628,
      0.17422651720202065,
      0.03995179317825255,
      -0.22375143343647824,
      0.15871580177968594,
      -0.10906201993580576,
      0.4967180445208827,
      0.23686957845165157,
      -0.13284674098749974,
      0.15388479228320923,
      0.14105935542508447,
      0.1172505689693916,
      0.10776633410251578,
      -0.11791374519807049,
      0.012847998279548939,
      0.3947919811445061,
      -0.062282280317236226,
      -0.16280052295288955,
      0.4008693480962746,
      0.09733746771906517,
      0.06647451702882486,
      0.24906015813450536,
      -0.26009172834679406,
      0.18449449001716908,
      -0.1296089934975784,
      -0.33112934004542816,
      0.10996289711605085,
      0.08548715865630879,
      0.29877994747310177,
      0.02722917780692093,
      0.25054292202938827,
      -0.04083055153468043,
      -0.16580929010658135,
      0.23549288995735743,
      -0.3603280595043078,
      0.0485002963071865,
      0.05238918430396474,
      -0.2824425779250271,
      0.127965567141613,
      0.17352044293744762,
      -0.07707821469792718,
      -0.030738170844685206,
      0.082415850870054,
      -0.3146711351570656,
      -0.20031086314441457,
      0.03830196351874002,
      -0.19321595753604914,
      -0.2933305049776921,
      -0.22419656194707124,
      0.26224678786414357,
      -0.09952484367047279,
      0.2482674016216424,
      0.1965874782067774,
      -0.08462264650661591,
      -0.08472511736663249,
      -0.1531194769158402,
      0.4900244175958424,
      0.09061422248161713,
      -0.012815486674237722,
      -0.16635300478463794,
      0.2568115577954181,
      -0.2782806192651875,
      -0.2455173431240018,
      0.08834782701753863,
      0.24602823762180476,
      0.38688487477309974,
      -0.008465548509767003,
      -0.3108308844796563,
      -0.20531602854006753,
      0.2644687080674468,
      -0.14591657500452246,
      -0.2653381881647476,
      -0.02542744330413208,
      0.0016264022526817044,
      -0.008330323422476122,
      0.29335944134161007,
      0.00306021709591231,
      -0.118924503105,
      -0.17761566654602315,
      0.13006051614512149,
      -0.2841109458982648,
      -0.38754722772807104,
      -0.06238272884357596,
      0.23274889990408595,
      0.48189749969711526,
      0.31662890607304517,
      -0.09803064611893822,
      0.11484665800022804,
      0.04893732787543612,
      0.23406619897789635,
      0.02135522621344968,
      0.032483738498496895,
      -0.43416346102501974,
      -0.24290064042521226,
      0.06511980144469244,
      -0.06736655969245808,
      0.25805516030407805,
      0.11880864156299716,
      -0.16653625005714986,
      0.03064110496358038,
      -0.1337081501809012,
      0.36425351052361604,
      0.16001197107877746,
      0.269187793092194,
      0.11765603478956156,
      0.06349000505145871,
      -0.10593747483052066,
      -0.3488944058990262,
      -0.10416407371060572,
      -0.19547392141557657,
      -0.05142516710422382,
      0.11528235241466323,
      0.3080256582344855,
      -0.2127983148057798,
      0.0029524967760131138,
      -0.05953355157455445,
      0.3475002911810357,
      -0.14561206465115328,
      -0.02198073215436959,
      -0.20435593530698493,
      -0.0723764153709402,
      0.0010734155410090096,
      0.26782161963060697,
      -0.24602266573305476,
      0.5735995532016209,
      -0.2105341332408975,
      -0.19329828407455069,
      -0.0033349167748122355,
      0.5884154852754095,
      0.1875445214924376,
      0.08053999469886433,
      0.13036537973900958,
      -0.3568751826005671,
      -0.11298867659864179,
      -0.06770439053249541,
      -0.29348438547217187,
      -0.05290418212246492,
      -0.0014182850784875412,
      0.6535300138794283,
      0.2538374097765369,
      -0.1797429647611317,
      -0.2781109207331403,
      -0.03881997466373242,
      0.14119473055515047,
      0.18696438565998036,
      -0.021371839837408698,
      -0.6236534821279236,
      -0.004764621245274704,
      -0.2378128396985977,
      -0.11460493647425743,
      0.09617686621442845,
      0.00466173148165858,
      0.1372827120837838,
      0.08392367618200289,
      -0.02936785558423996,
      0.4846825236854904,
      -0.11633093237311043,
      0.3818929663576631,
      -0.12776600281791275,
      0.10708551941243195,
      0.47917251529114663,
      0.007922396185349078,
      -0.26988604898022517,
      -0.16855701823610797,
      0.35360525344132276,
      0.029103681876149673,
      -0.16239273854595737,
      0.16720381787362115,
      0.2590617695276402,
      0.2900934530235396,
      0.23361181636879777,
      -0.18703429298479263,
      -0.18464576589091924,
      0.1615877625892142,
      -0.1388610471034842,
      0.08338005173565843,
      0.033927916823760534,
      0.023658727961925793,
      -0.22347413501273922,
      0.01056129781857472,
      -0.1425146361875618,
      -0.06224809663230511,
      0.4662329503988666,
      -0.33454728826541946,
      0.2918036624659235,
      0.22090634066086579,
      0.16252115074353843,
      -0.107147958172537,
      -0.05749398294429862,
      -0.10151785388501255,
      -0.012720830172793941,
      0.06494021530034313,
      0.18425727518743404,
      -0.1576726734104071,
      -0.0019853082560308266,
      0.020283141543037453,
      -0.2453579439060691,
      0.17132919495700186,
      0.32935526804915966,
      0.28958118637187963,
      -0.20542948319757418,
      0.35373542728503443,
      -0.17093484163466327,
      0.16370431929405804,
      0.0957336291054045,
      -0.19116116241394635,
      -0.02927491698582373,
      0.21683341615285567,
      -0.1151474209363393,
      -0.006725795341455379,
      -0.016608372479882075,
      0.27104830117185846,
      0.2654177953976909,
      0.052066120382776464,
      0.13886022065864334,
      0.03166021410234967,
      -0.08661585003619628,
      -0.19282881651603379,
      -0.14701090010536058,
      -0.2554596475605966,
      -0.15301782698874303,
      -0.12241416998101459,
      0.19299712451861048,
      0.2510966414761862,
      -0.30686481505145086,
      -0.5807479130412855,
      -0.04572509233070869,
      -0.25317292276866504,
      0.07465350253661238,
      -0.10289020234386059,
      0.1615548795391019,
      0.1917345026961496,
      0.06545032715822245,
      -0.18517446341161328,
      -0.0438830796677393,
      0.07439772728975427,
      0.34822411651606716,
      0.011590775225295155,
      -0.20380652943962124,
      -0.1149012505984386,
      -0.14242305482761622,
      -0.46346342994412465,
      0.08399340685438543,
      -0.20644270819945726,
      -0.10527332275766141,
      0.06911443838196958,
      0.14478588555999625,
      0.07861274416960773,
      0.21096902811822207,
      0.11906145573859392,
      0.08468194527426655,
      -0.3250712753635023,
      0.11759144969867963,
      -0.07543696581223856,
      0.2528295467225067,
      0.48458338470887924,
      0.06625478260860274,
      0.06028972326479958,
      -0.41432302269234184,
      0.11554488397080531,
      0.12787585378185368,
      -0.1271494410564756,
      0.23085881980187403,
      0.3322835587455771,
      -0.023508703785805534,
      0.36446290047238716,
      -0.012268922153807857,
      -0.08057093474217278,
      -0.16238096619603584,
      -0.1714382341571867,
      0.2510329278162581,
      -0.32972223644540677,
      -0.07068687707921094,
      -0.2102014643009497,
      0.04274086322693777,
      0.054832142165607625,
      0.11845431061303326,
      -0.13172837895880252,
      -0.1282860005498685,
      0.20320504067873799,
      -0.06652451654130137,
      -0.3508830574947921,
      -0.05448349849053401,
      0.22505029667500875,
      0.2773091186101413,
      0.15520291314371376,
      0.3237344470052489,
      -0.16555487696417642,
      -0.48445518731310866,
      0.018726752690323617,
      0.23151754045234302,
      0.1885381303202771,
      0.09626346814936584,
      -0.2362139693550211,
      -0.18838566847104649,
      -0.10741600361664162,
      -0.29791391974661285,
      0.737779163462396,
      -0.25093007383972354,
      -0.022788644381893625,
      0.2886602457491349,
      0.08504604616943084,
      -0.10524063714311102,
      0.1853371793194939,
      0.16293999752620714,
      0.053106027715660614,
      0.07370927393415681,
      0.07281616071341232,
      -0.035805136443842894,
      0.5361901815684984,
      0.4834992456862748,
      0.23161739015102858,
      0.21273735562348356,
      0.05770179261630402,
      -0.00147344263561755,
      -0.05447612254557142,
      -0.2331307078513628,
      0.3970892291016942,
      0.19224960644204714,
      -0.40386429029668647,
      0.41082317336962765,
      -0.16677536518363234,
      -0.05443975068740179,
      -0.20866501367525317,
      -0.06815903794366393,
      -0.12040657872736638,
      0.2333365153326181,
      0.10844068058618764,
      0.08590174228428916,
      -0.11297549689680492,
      -0.3131158433049497,
      0.09632069533303343,
      -0.31744573872155807,
      -0.005455774898110647,
      -0.026433249297541872,
      0.014851928328951283,
      0.34808261937494056,
      0.019182501185307767,
      0.1347641578606226,
      0.01321992842707393,
      -0.1277868368105203,
      -0.0809733609212666,
      0.123946948421675,
      0.05231921986309655,
      -0.05690137960075384,
      -0.09332165652577609,
      -0.1915582026914354,
      0.1158618769037763,
      -0.24510843246189695,
      -0.27096095046744717,
      -0.03950901774745316,
      0.1525374530173903,
      -0.3751111712127767,
      0.16193403982868523,
      -0.205452642948951,
      0.18683240292802422,
      -0.31496347436036676,
      0.050083862660880094,
      -0.3047512027397945,
      -0.022100151711701987,
      -0.18220884118133437,
      -0.1685653476767639,
      -0.21129467253084588,
      -0.197828563192809,
      -0.10213796490597388,
      -0.09569297159585374,
      0.14350881520386466,
      0.18296394705631494,
      0.18364672041741753,
      -0.0624415304805209,
      -0.21318934400399742,
      0.00036016727957535744,
      -0.2545408070146878,
      -0.38098176800638184,
      0.03233665971971347,
      0.26487119675623527,
      -0.1203107523312131,
      0.37744581726200366,
      -0.0338124272916092,
      0.2819588870769976,
      -0.2713994163125607,
      0.20739085113688482,
      0.35128237138885043,
      0.08141627639540017,
      -0.11340708234116728,
      0.17694875147460942,
      -0.08153142169517344,
      0.14059980199792457,
      -0.04629724346447309,
      -0.016792688931502,
      -0.10059070716919874,
      -0.3455958946112343,
      -0.09694836430999029,
      0.30578571682881495,
      -0.16774441280002794,
      0.019014159828721344,
      -0.16104925684687255,
      -0.0937941245363728,
      0.0036768943633751494,
      -0.20366215512860378,
      -0.07517002990238109,
      0.037086506223506344,
      -0.30998349577804274,
      -0.18607135103616637,
      0.2685301490245897,
      -0.12401042591463449,
      -0.11267180827787651,
      -0.004931376752993013,
      -0.2789129102738873,
      0.006884696953058905,
      -0.028008073849529826,
      -0.1496815705089083,
      -0.20292778484247903,
      -0.528035511198018,
      -0.034991947485119745,
      0.1506146170392049,
      0.10518486744007108,
      -0.02927592592314665,
      -0.05293413152064065,
      0.28834889351064164,
      -0.3582366802894302,
      0.12391678776585985,
      0.03692923380985666,
      -0.10963121829595897,
      -0.06892216050508264,
      -0.21175977887176356,
      -0.08497076065074816,
      -0.09521687201859265,
      -0.07672078405514268,
      0.02392734951381223,
      0.038168356583865096,
      0.3028796314805168,
      0.29582675193098373,
      0.019671272045779828,
      -0.19540250003756504,
      -0.33075203896789157,
      -0.34537048917108626,
      0.020843825940565584,
      0.43274621673759306,
      0.03105707061123221,
      0.4813241705312178,
      -0.03664241066332464,
      0.08126759968268876,
      -0.025812497719064798,
      0.08255393949855193,
      0.34469210699644653,
      0.17892616901052155,
      -0.012607353039015265,
      0.21908679929494196,
      -0.44167130320424414,
      0.37035941381325865,
      -0.27627095189274176,
      0.17990831850845285,
      0.09353709660921242,
      -0.027476041433161947,
      0.1967727775976435,
      -0.29952221564943954,
      -0.026116748343099516,
      -0.008519337990431142,
      0.47297152282727983,
      -0.42590059684740256,
      -0.169332280318218,
      -0.3153384482282525,
      0.2717042163625657,
      -0.07034089671442666,
      -0.08503416876902797,
      -0.3306815656179788,
      -0.27915807359732486,
      0.13197256892944487,
      -0.07492138451489927,
      0.14108028810363435,
      0.13761395703732454,
      0.36428081676743074,
      0.3464652626589913,
      0.14130316898828185,
      0.32864905178933684,
      -0.06015848352555313,
      -0.06483335423316763,
      0.09801614781743713,
      -0.003460491827983969,
      -0.22436900958026318,
      -0.018699344867783296,
      0.04857791423041486,
      -0.09094453166982037,
      -0.11012032854009071,
      0.04392391162369742,
      -0.131492812907554,
      -0.06502329386697496,
      -0.1383498790820279,
      -0.010018321446750938,
      0.17267108046282031,
      -0.4740292426316994,
      0.034627673393476055,
      0.17988856783120455,
      0.3125209837258828,
      -0.18863465868539547,
      -0.05657406596034818,
      0.0766619072075313,
      -0.11383635874287783,
      0.1571764149542137,
      -0.18208502809465932,
      -0.5927711981915642,
      0.22111678319214878,
      0.08020742529396072,
      -0.15222337759455104,
      -0.16301163502363247,
      -0.08350832008021987,
      -0.21787032161776193,
      0.2119283286500504,
      0.19685296109078668,
      -0.06290146418305037,
      -0.08252488876641555,
      0.32013343307419484,
      -0.4684952057414195,
      0.12192006476373454,
      -0.1856104274061077,
      -0.030237685298937417,
      -0.011666048615913784,
      0.09627594601796999,
      0.11158825188839133,
      0.007810743082757976,
      0.1604793300503961,
      -0.18066431174897146,
      0.3132028784925886,
      -0.20623408926078565,
      -0.14556671919950434,
      -0.06888558053344038,
      -0.3508464420681534,
      0.14036050703663278,
      -0.032075862676202806,
      0.020572954388142828,
      -0.19829266980657834,
      -0.23815879610721022,
      -0.2441037388466803,
      -0.2850182521591721,
      0.059183586286032715,
      -0.19847581634080166,
      0.18279272027688293,
      0.3043503253161593,
      -0.069579829813405,
      0.09083914804680275,
      0.2077712984862516,
      0.25957564162414826,
      -0.19299353762226407,
      0.16793156509275325,
      0.14417174560228302,
      -0.03251381669967039,
      0.0938212018371697,
      -0.15569298721579483,
      0.15916097765685452,
      0.2883265513003244,
      -0.2813964471202739,
      0.17568046973448448,
      0.25610934339856567,
      -0.16107240593513927,
      0.07401498845188287,
      -0.21435975400758422,
      0.0822559802768256,
      0.14100343358937617,
      0.11230945742987443,
      -0.061367177783363994,
      0.4504002666718657,
      -0.11239278216419775,
      -0.12459680559511953,
      0.08430634784582307,
      -0.17098935658484676,
      0.09953435049053114,
      -0.26870685573664693,
      0.12712808054832658,
      -0.10679753397408512,
      0.12269607272325245,
      0.44022071705659455,
      0.14542726119784521,
      -0.036050411094868465,
      0.22143257574436798,
      0.13589055021624535,
      -0.1487813218076463,
      -0.1279822439244871,
      0.006428575983099233,
      -0.4702680201039051,
      0.17735934987117635,
      -0.13593903223274262,
      0.05944397008329539,
      0.1447058059730738,
      0.4628426301282575,
      -0.07379568308840673,
      -0.3354923798754662,
      -0.0303965942649487,
      -0.10613822659418183,
      -0.11562857381080603,
      0.16615310352351437,
      -0.17247276623489305,
      -0.11649135728841706,
      0.2474729569588276,
      -0.1897790401582144,
      0.01068000080007131,
      -0.04032759920281221,
      -0.2258518796035893,
      0.19332063789917014,
      0.1418930390023143,
      -0.10884058631003678,
      -0.3098805321553698,
      -0.06521896576764168,
      0.17737560254936602,
      -0.05736879839430015,
      -0.07888065026003233,
      0.06622301700933093,
      -0.12831515855511927,
      -0.1442028583369495,
      0.049612937302174906,
      -0.12999588931975925,
      0.10313821864255118,
      0.17243619991391534,
      -0.16529770743697197,
      0.023727067078695423,
      0.07283940399230529,
      -0.07105799503672174,
      -0.08718962086969653,
      -0.10929135379114348,
      0.1359272047562763,
      0.1865985209399093,
      0.40545262968368256,
      -0.35067241504094665,
      0.08739449299042946,
      -0.3085345635162746,
      -0.14633391875723384,
      0.23049816048026567,
      0.08351997019353094,
      -0.08469333312141147,
      -0.06832803270741303,
      0.00774693357663412,
      0.22065560742930748,
      -0.1829340525919501,
      -0.9248536315614857,
      0.3295070052764004,
      0.3427689525415953,
      0.25131683987619674,
      0.1864832846846461,
      0.06027214241205314,
      0.04466342582741169,
      -0.1558818975136129,
      0.040361309635970316,
      0.3239205548539148,
      -0.4351741788155258,
      -0.17277573963901244,
      -0.13017479136388227,
      0.03326820947417798,
      -0.12895093651668657,
      -0.12509772962228427,
      0.21625531552436084,
      0.0556155148087569,
      -0.06566729756763684,
      0.23187685372151662,
      0.16602070667634503,
      0.024417287718540542,
      0.20375416070598226,
      -0.3699134283771568,
      0.20229787028488183,
      -0.14828217433632496,
      0.227293184728688,
      -0.01596587126146576,
      0.20911274191917636,
      0.013088245284628236,
      -0.2682893878193411,
      0.27420635292226897,
      0.1744154614580914,
      0.034213634660813806,
      -0.06669778552646609,
      0.09346407320250216,
      -0.3227168023612771,
      -0.043356118860849266,
      -0.10505657061757273,
      0.2036773486501745,
      0.15903347715574465,
      0.13805859238243998,
      -0.06690191333510986,
      -0.19729701732713315,
      0.06150673604196741,
      -0.019065452334531732,
      0.35582391673704133,
      -0.2784730036777663,
      -0.018517087979382556,
      -0.028395376815080975,
      -0.33361119436060227,
      0.08777643245734779,
      -0.3317190660768107,
      0.11580481102821019,
      0.20311761606184628,
      -0.029460731054071966,
      -0.06078953139269594,
      -0.1623775710821894,
      -0.35174289103539075,
      0.06093015246588372,
      -0.10027038980475704,
      -0.02597653421973331,
      -0.057351429467183995,
      0.04201514406156433,
      -0.03066754010402531,
      -0.3425005720614095,
      0.19221080807170177,
      0.2329804826985513,
      -0.22741897174025438,
      -0.2894619654381326,
      0.2593547227869573,
      0.18699148121908443,
      -0.09379626400562725,
      0.25409261764185714,
      0.01014808296784098,
      -0.25312204735257826,
      0.2425283514421526,
      0.0567788515048368,
      -0.1412663867235101,
      0.21794090011046585,
      -0.04564518198406333,
      -0.12325049709554199,
      0.06290849900148432,
      0.1306248790728476,
      -0.030435900263398347,
      0.1908943235098832,
      -0.08162561976601175,
      0.2926412755562604,
      -0.481376143526816,
      0.2344929635824562,
      -0.26879361850503486,
      -0.5039555033417196,
      -0.03653869466373251,
      0.26663742121293865,
      0.23041719167792363,
      0.00572104895952507,
      -0.2719297575405131,
      0.2538825922187193,
      -0.22613667747814492,
      -0.1654467434286866,
      0.05809840925999027,
      -0.1106389097821947,
      0.060010212930237304,
      -0.09108885651940424,
      0.12643004138138705,
      0.052190227824791255,
      0.1220496506871277,
      0.37706772685515627,
      0.2501421151996868,
      0.25822013685174217,
      -0.005929733871923866,
      -0.008424468580543826,
      0.18366395458063348,
      -0.023182144932801824,
      0.13992033113591096,
      -0.21374072777088649,
      -0.18090324951021441,
      -0.10039999365232347,
      0.06849121885854009,
      0.10479720493248629,
      -0.19638211650599244,
      -0.058631487107489624,
      0.17737769677360846,
      -0.15159218262287386,
      -0.11854784893428968,
      -0.15449708328387138,
      -0.292073700968112,
      -0.35499450111188463,
      0.0012824659361031334,
      0.1457355460286404,
      -0.01597474306673649,
      -0.02211241449052897,
      0.3334046116049765,
      0.06998380262678862,
      0.1518959111066158,
      -0.20145392823839403,
      0.013654161786132685,
      0.04878181604615779,
      -0.020568045953889155,
      0.17241635744578754,
      0.14625168190452006,
      -0.05314885979107127,
      -0.016505327864536033,
      0.1358289147032305,
      0.0532843929947347,
      -0.024509946360870005,
      -0.036582182510858235,
      -0.19727269402300532,
      0.13266852258865147,
      0.3612600114499303,
      0.11429470682767287,
      -0.08364799840718648,
      -0.03570476447075871,
      0.06580403841192595,
      -0.0027365398367391533,
      0.02857177840306721,
      0.0852684888840249,
      -0.03452167316125751,
      0.13391465499394606,
      -0.0008210253468362433,
      -0.13998745250096745,
      -0.19619247195831307,
      -0.42047893747432286,
      -0.29434074197743987,
      0.02587706026893484,
      -0.4313274817756918,
      -0.3511836890190535,
      -0.022016778272823778,
      -0.5295257395246874,
      0.3143637808308898,
      -0.052628222315775824,
      -0.2722026988406381,
      -0.3580455093418461,
      -0.04601433136648636,
      0.1413364399590181,
      -0.411621965139685,
      0.26516148849662724,
      -0.18639151523456665,
      0.030674138404482975,
      0.09585871330725586,
      0.20166154420117155,
      -0.02805377656199534,
      -0.07131828785817006,
      0.14535251232120755,
      0.022326435439339667,
      -0.18280042473728686,
      -0.14638716923946435,
      -0.1892341685640175,
      -0.2253171935975784,
      0.2612872822853326,
      0.12394413731442686,
      0.035257711552452886,
      0.43092779331090514,
      -0.21832626334072242,
      0.5854441211658729,
      0.016360289892140403,
      -0.041571793320724026,
      -0.09685576953982278,
      0.004451409922792249,
      -0.07572596507547369,
      -0.27696842134442945,
      0.09189004077749484,
      -0.02640853930975828,
      0.004398514251103075,
      0.08597643763468728,
      -0.10923496020602608,
      0.22038147720442486,
      0.2117397708588622,
      0.04473186088906257,
      0.08310311654215316,
      -0.1298356588701633,
      -0.012129927377684244,
      -0.015532559547475289,
      0.16549359863829605,
      -0.09721263828362867,
      0.19709001640356064,
      -0.1196489103492563,
      -0.0416513872084377,
      -0.15546253430389093,
      0.03271858069502903,
      -0.045554742969786996,
      0.469369720890868,
      -0.17864733863103974,
      0.05308655712417707,
      0.13132065524839473,
      -0.09169421180263912,
      -0.09392848610658183,
      0.03765859698248494,
      0.06503155075351026,
      0.3688143443953741,
      -0.05287852628734993,
      -0.11416740136589065,
      0.06620510730287543,
      0.10554669337351301,
      -0.09981768390894066,
      -0.3447281623391622,
      -0.010413080055360735,
      -0.31200698913354646,
      0.028600943326170192,
      0.035685849133450534,
      0.10395823199461934,
      -0.2865195803002154,
      0.19008406859615282,
      0.02928046225962074,
      0.4412181554551218,
      0.13219978370604132,
      -0.03561659148732112,
      -0.11843551706354292,
      0.3890861936187325,
      -0.07859537430348462,
      -0.5967213149229808,
      -0.19878347979107236,
      0.5833450014850748,
      0.08429135667891455,
      0.5978829745748571,
      -0.11884251420848739,
      -0.2099065819806252,
      -0.13142878705442157,
      -0.19012962224765187,
      -0.09943379924091153,
      -0.3789228608447236,
      0.056873934574407564,
      0.04451733035712761,
      0.3886154190797124,
      0.06242860446823338,
      -0.44581890534288804,
      -0.0012489782076617884,
      -0.24118379349951294,
      -0.032665016004651826,
      0.12678994836929505,
      0.20202354889734464,
      -0.1055068269093017,
      0.5209844468595155,
      -0.2710838075748685,
      -0.11778616345115187,
      0.3720235456451288,
      0.3772138202677002,
      -0.28910558313152485,
      -0.35365840589625297,
      -0.11450515562951186,
      -0.07230759381316869,
      0.25177846471036525,
      0.08660135143152059,
      -0.2963300410080305,
      -0.09447141463742215,
      -0.09456495391703622,
      -0.05734657654271398,
      -0.0699049362573688,
      -0.04742474372033045,
      0.13533564855856725,
      0.16559280091108952,
      0.06699383452517502,
      -0.005300747397511185,
      -0.1483070200915088,
      -0.02551471243839015,
      0.050611134932864024,
      -0.23849571523537155,
      -0.2050922992581646,
      0.019272587508855993,
      0.1871782482269732,
      -0.06306488754480508,
      0.010598904193426005,
      0.2014526649120714,
      -0.4790476166303269,
      0.3405444425071513,
      0.08568406468736003,
      0.374153345124579,
      -0.13685720467985832,
      0.2173872398140343,
      0.0322632906075083,
      -0.257474712194384,
      -0.18966615868541775,
      0.24812438791826003,
      -0.038072167997367755,
      0.05937108772504887,
      -0.3467044704441978,
      0.02762004940066988,
      0.23916895003312913,
      -0.012751625423454975,
      -0.018231013277529823,
      0.12452548714831985,
      0.1482166192068427,
      0.35126635470459583,
      0.12506886553521362,
      0.16391795060460637,
      -0.16864593013964857,
      0.1879841425322424,
      0.19426557677071937,
      -0.2519409906153214,
      -0.06889990731682187,
      0.05544650923001539,
      0.07434998023553666,
      0.12523054375094197,
      0.2066775810553502,
      -0.1670540493032966,
      0.05694654999505169,
      -0.11330228271753903,
      0.41423125718998544,
      -0.267679113798742,
      -0.1059198750139533,
      -0.18899273347776774,
      0.11674178835670525,
      0.05044625140844856,
      -0.3414605492855604,
      0.37285859878044647,
      0.34570129492391904,
      0.055062125810854776,
      0.1206181729596508,
      0.06726761261336822,
      -0.16053124336651764,
      0.09452362179110288,
      0.10484180666861868,
      -0.009589437946442306,
      0.07629514512898204,
      -0.11499935004424533,
      0.2111737843209136,
      0.0014755671181874985,
      -0.2156207753369448,
      0.3493286911279858,
      0.24733458039672898,
      -0.3862798616653483,
      -0.10233664504986306,
      0.32977683193992846,
      -0.0011549808939739642,
      0.012192175160670268,
      0.009919126517849736,
      -0.05486571368885103,
      -0.17095062975409106,
      0.042389435803359826,
      0.4760761282912177,
      -0.16731010938492194,
      -0.17672349234712978,
      -0.22140129644265474,
      0.002238078173313056,
      0.00867801787869809,
      -0.01111565482050969,
      0.0775253871199516,
      0.28765419971480055,
      0.056035615129745295,
      -0.1626721831650097,
      0.2269988792222411,
      -0.5128138520482205,
      0.07669215026353707,
      -0.2361124516791781,
      0.044434734219046146,
      0.08280253840246682,
      -0.03933650877661199,
      0.21997768951459012,
      -0.05232072077327829,
      0.23963080409611062,
      -0.23428496698539206,
      -0.23535340805286525,
      -0.04079929422766841,
      0.12385054058883549,
      0.02012726969286588,
      -0.24134310817360313,
      0.07442248904836445,
      0.050584985817836825,
      -0.37341436620373,
      0.21588744371917934,
      -0.2922705678291999,
      -0.2302847948937815,
      -0.040974405957019365,
      0.16194576872991287,
      0.16917047140059924,
      0.26539167219239046,
      -0.08121640472834693,
      -0.1924033679469584,
      0.21510543016621794,
      -0.20216916120861245,
      -0.39121598340503816,
      -0.175031165440789,
      -0.3827420473371608,
      0.056030003267285675,
      -0.026540317783210296,
      -0.27834272675760996,
      -0.0785422135447367,
      0.24871829693525108,
      -0.15414880852058876,
      -0.1539514833314165,
      -0.09483260220686111,
      0.3155522335777937,
      0.3135561468440359,
      -0.1371817875477944,
      -0.011786359353244305,
      0.05174959610152778,
      -0.3150553379460005,
      -0.13278151469881466,
      0.039279889090739796,
      -0.5421385962801688,
      -0.04402842892757536,
      0.05848039685108394,
      0.24022512647844999,
      -0.18033245835294062,
      -0.41738521278509394,
      0.35862224204844884,
      -0.09194779958856028,
      -0.09264292503404145,
      -0.03718894220490243,
      -0.09018717071524614,
      -0.2008361084426678,
      -0.090283848985137,
      -0.16232368470958164,
      0.2378468638304702,
      -0.19741847397980444,
      -0.07583400358197118,
      -0.41975607842064294,
      -0.16355324010557903,
      -0.24093162632897433,
      0.06957005831448529,
      -0.3012891765954591,
      0.1483312182421817,
      -0.41165260404688364,
      0.15765408356638572,
      0.1735208284720493,
      -0.10216350022491841,
      0.2303794893709712,
      0.0503468717709749,
      -0.06915159589546424,
      -0.009466206378468255,
      -0.13958045670983327,
      -0.3665210466044971,
      -0.22536711964775535,
      0.1271693245195667,
      0.10150779505787866,
      0.6037413817904301,
      -0.23416912874393328,
      -0.045988204111543474,
      -0.06733638113217424,
      0.09280230637607988,
      -0.2717268925358777,
      -0.03968627843704693,
      0.1053050489594599,
      0.3881755091225691,
      -0.03422127790334892,
      -0.26124760718069917,
      0.007092208956721913,
      -0.08364863442883967,
      0.18106497977815916,
      0.05219854414796776,
      -0.3086559403608431,
      0.12357593272582028,
      -0.05310346945389294,
      0.1393062229618804,
      -0.42740306093244124,
      0.2851067233561275,
      -0.22906424769779116,
      0.09471666415965915,
      -0.015707859518255624,
      -0.47563037646272066,
      0.5271457881409659,
      -0.14840711131181167,
      -0.1631759517707122,
      0.2272886611571039,
      -0.050317814916277626,
      -0.29148588484205307,
      0.26861251913412004,
      -0.0908542623629014,
      0.00159794353136955,
      -0.03161467848762463,
      -0.1412241152916689,
      0.26705517552278296,
      0.33456195246005077,
      -0.16671843625572697,
      0.04126202713514118,
      -0.04502289514230519,
      0.2646521004289898,
      -0.048148376285447846,
      0.41968966229739124,
      -0.14152412331673273,
      0.3008519469096342,
      -0.13620652091843946,
      -0.2984593464886823,
      0.12523490968778975,
      0.07945062459588217,
      -0.27264721924300256,
      -0.16632480166676164,
      -0.015467762198433405,
      0.2469027856978644,
      0.047620202563820574,
      -0.06807277857969005,
      0.0879045303354509,
      0.18934840900155547,
      0.004163345498475829,
      0.05051684508508228,
      -0.07491391909414215,
      -0.07256957069015894,
      -0.10596708313485324,
      -0.09096840574666944,
      -0.07811344920749098,
      -0.20344729470092437,
      -0.3743028455944146,
      -0.013758440977406807,
      0.1805998950710078,
      0.0583893711570348,
      -0.29327756532387456,
      0.016785291595203117,
      0.08890980825542596,
      -0.031206258920612698,
      0.2661271502350559,
      -0.009828345472312287,
      -0.09942525575944941,
      -0.2699734563914348,
      -0.6082646551525811,
      0.019091174445547962,
      -0.15806389573132185,
      -0.0041391641229177045,
      -0.20786562857926133,
      0.03288970645873818,
      -0.1262610818237472,
      -0.3180895547575493,
      -0.05276087155248964,
      0.1305857779192166,
      0.07472181037589674,
      -0.30625136055652635,
      0.37931711287394854,
      -0.0565150548675626,
      -0.13337549649263175,
      -0.3379920451280084,
      0.319768992281958,
      0.1468118771270619,
      -0.35704872987402114,
      -0.28518885313414455,
      0.119807163632544,
      0.00014098565299568155,
      0.022042622772535728,
      0.10115615247743813,
      -0.025012099095745213,
      -0.07393031132812447,
      0.03537684346268864,
      -0.14639601530654345,
      0.5106664437931338,
      -0.2785562298369688,
      0.05309969332304745,
      -0.21005105078300595,
      0.07489723901329205,
      -0.193096006229383,
      0.32605105837125364,
      -0.09189536422790077,
      0.04153865933111282,
      -0.110231040829787,
      0.4845475043881925,
      0.3332191250394516,
      -0.012134787598400712,
      0.12732617970712504,
      -0.16615757327327452,
      -0.12459272256354852,
      -0.12167751026215352,
      -0.019479684889881492,
      0.08879026431953577,
      -0.2357197121703226,
      0.12182720997216674,
      -0.28617548797247216,
      -0.30500161781769736,
      0.21421334560426442,
      0.020514594713429302,
      0.20127883363641572,
      -0.23414087917888554,
      -0.14112046336960593,
      0.06479876646725205,
      -0.10849911034337983,
      0.2757227838240018,
      -0.29452200844342963,
      0.042588366525784044,
      0.20484845815521285,
      -0.07447984552404865,
      -0.004100602134150536,
      -0.08651282281829502,
      0.01717572860001542,
      -0.42526319423548664,
      0.10548526465886406,
      -0.345746498290606,
      -0.038177182991258676,
      -0.11393107914020745,
      0.029730658845739867,
      0.07296308317398895,
      0.18936477605695468,
      -0.07053320526253251,
      -0.07464603296483534,
      -0.23069789597415286,
      0.0063494817156938,
      -0.3129253651646159,
      0.21360467847782072,
      0.24013621004082275,
      -0.0776070498003552,
      -0.12057367457414112,
      -0.04559481255457935,
      0.2756317481985589,
      -0.24120962718775965,
      -0.08660308385328268,
      -0.002099400086232564,
      0.2591353591830708,
      -0.07382486086183761,
      0.04492571310352361,
      0.07509918806630822,
      0.05289439203336414,
      -0.21647853472399486,
      0.3072125151940165,
      -0.06087936480839125,
      -0.05262173277319365,
      0.24498188212763067,
      -0.008432018233337751,
      -0.15847287359030235,
      0.5188896347896784,
      0.37117916860412536,
      0.09366864691637822,
      0.21754949585785652,
      0.5147651718295142,
      0.060087872297699206,
      -0.04712937089022005,
      -0.42796671941122133,
      0.3361252324329181,
      0.01770832058424837,
      0.19633652119234324,
      0.16785765804973035,
      0.03902798587891171,
      0.18610490911446081,
      -0.0004090129100484431,
      -0.154041882417914,
      -0.06629726472181008,
      -0.09292786871374756,
      0.2781176171740965,
      0.21936570339132277,
      0.4059446521989838,
      -0.42017587618114205,
      -0.18264058893108787,
      -0.11699825731227662,
      0.26566131481352806,
      0.024082561785360362,
      -0.10210673859090755,
      -0.15174264350276256,
      0.28548459008821747,
      -0.15684730073942857,
      -0.012235269842611807,
      0.36590637651748065,
      -0.20419093273369848,
      -0.2512908855132213,
      0.1366715270100529,
      0.15999094764820432,
      0.281351942287137,
      0.24010456236427408,
      0.2746220013826257,
      0.3523584153097218,
      -0.07306747948357303,
      -0.3243284527756423,
      0.07494813702869835,
      0.0017615661640937585,
      0.2067741876832424,
      0.08300703679349011,
      -0.24746055804651673,
      0.023943774068927906,
      0.07424969140691173,
      0.025083116023451427,
      0.401050319439552,
      -0.048558173019292564,
      0.034010011539295934,
      0.03727485914132274,
      -0.28070583186367787,
      0.32277267214186195,
      0.050938303325353776,
      0.1852735084515416,
      -0.13617940130123227,
      0.11587651646818461,
      -0.146278674087381,
      -0.36303291963192985,
      -0.07382347295834793,
      0.17256969243530346,
      -0.16462035762644375,
      -0.10982564092378619,
      -0.1407822582606254,
      -0.20446419402075403,
      0.14613180163178077,
      0.23844972255791613,
      -0.2113077805316421,
      -0.22358281501272398,
      -0.34708592228074564,
      -0.08815594883436567,
      0.08950998576940543,
      -0.451232233453446,
      0.342541443456102,
      0.0669008687009868,
      -0.003223019002975301,
      0.2460480349291642,
      -0.17746966257161167,
      -0.22807085524321333,
      0.07467074560528154,
      0.10011294974685364,
      -0.02954707681291273,
      0.014425900579142684,
      -0.0963694751398618,
      -0.052637225806245275,
      -0.04045536765533113,
      0.09370318461137594,
      -0.07897091619053732,
      0.13293673359702665,
      0.04847532453893296,
      0.17007006107340578,
      -0.24001361136403926,
      0.06974472295575421,
      -0.27435698183309354,
      0.04587771580246665,
      -0.19102278320597565,
      0.24740019213604103,
      0.1776814046410046,
      -0.022151465259196063,
      0.028454277868318223,
      -0.21253672723793027,
      0.1412242025635364,
      0.02389646823204683,
      0.025766589395387313,
      0.16605164566840114,
      0.03564132656685942,
      -0.15738394630020247,
      0.26250704070882963,
      -0.08291888053714641,
      0.04883474672311497,
      -0.4269341901971251,
      0.07940280671154173,
      -0.0705090477850292,
      -0.40278067488201963,
      -0.2038128208657134,
      0.024402295557043006,
      0.068048309153206,
      -0.20827856534198746,
      -0.15550897821615897,
      -0.18371963267604327,
      0.0251028621926926,
      -0.4065227166478139,
      -0.20894492991135236,
      0.07567630578920852,
      0.06036398162703353,
      -0.08748747925311415,
      -0.11157775759207139,
      -0.12510240260818128,
      0.0929758717357192,
      0.08747724009526094,
      0.12972767586656836,
      0.0881101858402256,
      0.30824024329776656,
      0.2852609737845158,
      0.09164189467970005,
      -0.18391568485106824,
      -0.039421969789279955,
      0.23588375855728855,
      0.2058865335229409,
      0.3619296185956621,
      0.033286607283122105,
      0.4554301218794375,
      0.003051999147067011,
      0.048437312156676876,
      0.46735299550744225,
      0.2016698453938464,
      0.34721123099707096,
      0.04242447299211413,
      -0.0934552096123674,
      0.054386516556329284,
      -0.020906129293768796,
      -0.004021408663177177,
      0.21322827732106592,
      -0.06207728855785516,
      0.4994102403118954,
      -0.06002425125441824,
      0.06713209487515316,
      -0.29009021564799237,
      -0.18399384407517658,
      0.008132315129119314,
      -0.2575383767998313,
      -0.24798827928299805,
      0.23454766848695088,
      0.012748327002809777,
      -0.3004643348044439,
      0.1306870681463489,
      0.14085763236178572,
      -0.1746132665072172,
      -0.10204847946051783,
      0.0916582633180482,
      0.05738691269464531,
      -0.2569796714715831,
      -0.011016426125264295,
      0.019322954675174753,
      -0.16455926111517993,
      0.0013180405622332178,
      0.022183857882711627,
      0.13747736147141287,
      0.1878377327349931,
      -0.20981553517052814,
      -0.16174595941096448,
      -0.29407739052490556,
      -0.061902365322558994,
      0.1183657140729992,
      -0.06679850617814333,
      -0.12830101470018276,
      0.27107156468696403,
      -0.009565020717720807,
      0.05589993950936667,
      -0.2085182877213667,
      0.02309087897882628,
      0.004926096463951625,
      0.15719809754522093,
      0.062418106193469436,
      0.28318944010611635,
      -0.07964650897394401,
      -0.15565598884101306,
      -0.1237325263619182,
      0.1487242438822153,
      -0.1649951083768933,
      0.09950362853012934,
      0.06301829809937635,
      0.15707151062098343,
      -0.614559047477679,
      -0.0730317125213549,
      0.005702030213556825,
      -0.06349463408206014,
      0.004435506074578599,
      0.27007465152698806,
      0.10315839242689614,
      0.18858462887511646,
      0.101992542500173,
      -0.011426552594617277,
      -0.2856248632564482,
      0.22125864680036939,
      0.07661807874887522,
      0.16625019153949003,
      -0.23228265892227168,
      0.18491221172890188,
      -0.11362283287362611,
      -0.2637899833360198,
      -0.20924583534214297,
      0.07880478073734805,
      -0.04450230840540162,
      0.15369393808604628,
      -0.38680397306891773,
      0.07344021958398093,
      0.14620568068800144,
      -0.19994041321459638,
      0.010919344508411567,
      -0.1577478082398222,
      0.37491628301431135,
      0.09499457134006391,
      0.16402503757689355,
      0.07338235320107578,
      0.2572397362714451,
      -0.10420272169374403,
      0.19396321295354338,
      0.1819310638617401,
      -0.04158139704418645,
      0.030163469142104382,
      -0.07718099797771205,
      0.05245670927613237,
      -0.28994888145699105,
      0.22727897561746943,
      -0.19073371000541947,
      0.050990158821983225,
      0.25410067565317557,
      -0.05805698010727728,
      0.0501206101768379,
      -0.12170341025122972,
      0.2770430408133332,
      -0.4182493700085952,
      -0.10827361671206626,
      -0.273549324036689,
      -0.236801822110601,
      -0.039583459146218164,
      0.18025156870636144,
      -0.19305217080658638,
      0.0743745586186369,
      0.1065927519576093,
      0.08424157588834853,
      0.05134897430952403,
      0.2181443383828392,
      -0.23901926110099123,
      -0.052564691562901555,
      0.041796149390939036,
      0.2084189123151759,
      0.07437402325561154,
      0.10301836358810323,
      0.6713836121672152,
      -0.02182889417442824,
      0.08515275283033329,
      0.047058033381240025,
      0.06854492678541743,
      0.08324626059510652,
      -0.1906251175487197,
      -0.13745450077989652,
      0.13881828854106443,
      -0.15330353073370992,
      -0.12051234153628325,
      0.3034993393637604,
      -0.29410822672702674,
      0.03598002625257496,
      -0.016023976993958536,
      0.06498899592089462,
      -0.008174032743756401,
      0.10278044486030338,
      0.23539647450966422,
      -0.17010297701223942,
      -0.4387706357265705,
      0.10606947503271172,
      -0.23108576625451716,
      0.06672492387168691,
      -0.03219357563168724,
      -0.3296647550508692,
      -0.1422507367750124,
      -0.16356291862300687,
      -0.029150968154351677,
      0.05357354121404383,
      0.1188051285640948,
      -0.7145420801105095,
      0.012555902882598245,
      -0.09080356766764258,
      0.1994866656963607,
      -0.08451547635707787,
      -0.37548293851291964,
      -0.34202585934127105,
      0.04823677385876793,
      0.06061659022837249,
      -0.07052863759011008,
      -0.22225151573268873,
      -0.029579623623900042,
      -0.024691781326518565,
      0.13542181190435462,
      0.0672387694524125,
      -0.20364521472062122,
      -0.2397143887995,
      0.08378521009012121,
      0.14431610424035793,
      0.26560495828341235,
      0.1828311109480747,
      0.1469380336686983,
      -0.07203754579463184,
      -0.036850401923428505,
      0.28674891167374367,
      0.04045690211345741,
      -0.13871813160778415,
      0.2768112159336451,
      -0.08159338060479222,
      0.03628712544700635,
      0.05972799389820163,
      -0.13783815758521595,
      -0.0408108319473646,
      -0.16061611055643446,
      0.22846529748937977,
      0.11103508438997789,
      0.012347947548218316,
      -0.08772683668007789,
      0.23238818294835373,
      0.5692342071980107,
      0.30003798470889453,
      0.18719147543177406,
      0.23368547857352037,
      -0.32245745142800153,
      0.10522669154004999,
      -0.2912968323177708,
      0.226110891059489,
      -0.04210806096180261,
      -0.15619449723507173,
      0.07814245591461377,
      0.09749693055133085,
      -0.23703013830323308,
