{
  "layerSizes": [
    94,
    64,
    48,
    32,
    10
  ],
  "weights": [
    [
      -0.01099404407908429,
      0.28984227613007685,
      -0.030477948706750524,
      0.15070431344997776,
      0.1241659803432024,
      -0.13109808085270688,
      -0.16627181396882426,
      0.029605680854187064,
      0.0813375854460006,
      -0.3180629152232808,
      -0.02905359562409307,
      0.1244161036157629,
      -0.015411839995969664,
      0.11297074757586405,
      -0.20119349023058714,
      0.09892632967911982,
      -0.022418350740531178,
      0.03881931585269125,
      -0.24047954236977845,
      0.08777377407212807,
      0.10016039949923641,
      0.011738557346779172,
      -0.16064009744513838,
      0.3484009336993327,
      0.01615414854390807,
      0.24831212746496023,
      0.15531191839987474,
      0.4687000329779343,
      0.28765711514554804,
      -0.15536859591897156,
      -0.09233933667077507,
      -0.05486766533487636,
      -0.07763380324403862,
      -0.13230710925981076,
      -0.025108956565730298,
      0.28212003375685935,
      0.44632824370158575,
      0.3377623906471986,
      -0.208756186632008,
      0.08778524086266909,
      -0.16905786789971913,
      0.3140614939659113,
      -0.20519998455401775,
      0.0038260605000465797,
      0.03637453494259085,
      0.18329576448435797,
      0.0822899015441446,
      0.24759585423033104,
      0.15161212820559766,
      0.10994983367384364,
      -0.13780130726880535,
      -0.06446020685859308,
      0.21676266121409016,
      -0.14089896974914407,
      -0.08444763165265862,
      0.14434396580469488,
      -0.014754807015241123,
      0.15122926878090698,
      0.10689860820495586,
      -0.3958388582505859,
      0.013511162831261525,
      0.2205776634515878,
      -0.036780479598067364,
      -0.31793935501526766,
      -0.29936844111645694,
      0.1729884309529937,
      -0.15040273426933382,
      0.08428486888569321,
      0.0852598945485151,
      -0.0027475912662367763,
      -0.10382955294665225,
      0.14729147891511377,
      0.10829268553970706,
      0.05736237323787735,
      0.05249144483436963,
      0.12648483835856983,
      0.07537399484120508,
      -0.21928549270297032,
      -0.15886872700079593,
      -0.11990679227235167,
      0.07551690806845868,
      0.23939332592251053,
      -0.057291640924439224,
      -0.2393812420411593,
      -0.009831367297168459,
      -0.01407877123890143,
      0.04242001877467413,
      -0.048788626752626935,
      0.32434069179283864,
      -0.042625978901083744,
      -0.26799570426082286,
      -0.0866819953156343,
      -0.15589690754491206,
      0.04015002719552906,
      0.03746085291604288,
      0.00011564057396717953,
      0.17207628624611018,
      0.22590250186535227,
      -0.09072138941862026,
      0.30196235576349784,
      -0.012276764251781282,
      0.040975245866509635,
      -0.2633162838989401,
      0.24619854959797988,
      -0.08893755611853124,
      0.2674844739795246,
      0.11563283172998126,
      -0.2428804109178069,
      0.060727764016179034,
      0.151941126264156,
      0.0251234097105019,
      -0.2179204903511921,
      -0.1898855984754834,
      0.1685376262882913,
      -0.4073591452927597,
      0.06755074135684827,
      -0.185416813351429,
      -0.4696725336157487,
      0.06194755251504256,
      0.1274349190108838,
      -0.4251433928327403,
      -0.04678000636521304,
      0.033540163097166224,
      -0.2520822830020081,
      0.0014187100175529887,
      -0.016587459173661803,
      0.0761783300656461,
      0.14476546248253344,
      0.19499743723839683,
      -0.07760108062630156,
      0.07327075876260061,
      0.07321410059637101,
      0.16342072168482308,
      -0.08631191761963655,
      0.05929254800404808,
      -0.10262794797541824,
      0.13088669444027923,
      0.10818427830015223,
      0.08327142082479712,
      0.16814104050421103,
      -0.024224434881793017,
      -0.2936306610436459,
      0.0397079693515749,
      -0.07930245985658974,
      0.06295560337000512,
      -0.11605664853197513,
      -0.09257615635575756,
      -0.09612300567426266,
      0.05144171711357884,
      0.32719127606753745,
      0.13268563567462507,
      -0.34938031407685766,
      0.1247298417122029,
      -0.10833085928677942,
      -0.022111604855713687,
      0.05312222926607644,
      0.006357195923996417,
      0.19051828035007357,
      -0.2217524323650235,
      -0.2117612159082352,
      -0.16293253345714356,
      -0.04274034433867379,
      0.06941644014616441,
      -0.2871497741040702,
      -0.503698019904581,
      -0.0777273216025889,
      -0.1313932424091926,
      -0.024095704720067855,
      -0.19932903191792556,
      -0.01054453362716206,
      -0.005964688891341885,
      0.19046916589155863,
      -0.12066570759188533,
      -0.18619277735870784,
      -0.27404383485758693,
      -0.20624437043710986,
      -0.1858233212400473,
      -0.33415289621816147,
      -0.32832271437755645,
      -0.09305317774763314,
      -0.11214954380432371,
      0.35940827844829165,
      -0.3341135451619086,
      -0.26762407575104963,
      -0.2707516919166296,
      -0.044495468458884774,
      0.03973807237888313,
      -0.14537345336369759,
      -0.2185236225477266,
      0.08010891772619469,
      0.0032883771524143263,
      0.12808586761903706,
      -0.2023821941825885,
      0.16539306156177558,
      0.19736850597257793,
      -0.18232853612698866,
      -0.1002364472710979,
      -0.017526101862651647,
      -0.01961307124769765,
      -0.15279803042310286,
      -0.3680812271043289,
      -0.16257178785761836,
      -0.29849186612312284,
      0.0366838146713514,
      0.09941850341082197,
      0.002922893978833427,
      0.02607427348278049,
      -0.18175255413244099,
      0.07519649495336653,
      -0.3574937012085093,
      -0.016994625727814863,
      -0.012815141119939097,
      -0.007340120321930793,
      -0.11936893354363337,
      -0.04587577122205705,
      -0.016982563653977337,
      -0.10148381220361546,
      -0.09425857571181856,
      -0.11068531070900774,
      -0.025638417783723548,
      0.033352333885698374,
      0.05620832777124348,
      0.09412101120143998,
      -0.11801963830418347,
      0.23945431166909287,
      0.2081783404653988,
      0.11912241761934217,
      -0.03420405059140318,
      0.08651967767753019,
      -0.19848230062007613,
      -0.17291733186541328,
      -0.07834184900254909,
      -0.35084417701205206,
      0.032612915488446026,
      0.34714130406454785,
      0.17024810359632508,
      0.22001896658056946,
      -0.13351696103784894,
      0.02460606306323228,
      -0.12738553282087509,
      0.2751086761763863,
      -0.15072268830986874,
      0.09649561746154528,
      -0.006799517046320957,
      -0.11137488968577816,
      -0.047013814123635284,
      0.3053949386973376,
      -0.09989308971387893,
      -0.10142803759511197,
      -0.20341049604900285,
      -0.3320288385292833,
      0.10679853406595746,
      0.04409894139073617,
      0.31635103773339884,
      0.1412986538495217,
      0.5504014541064144,
      0.03911136915190305,
      -0.6961701435032643,
      -0.2621004928522004,
      -0.2574494703544576,
      0.016149035051319732,
      0.063535377115976,
      -0.07845718495098755,
      0.029480203542705245,
      -0.01572649147446937,
      0.1531860585929069,
      -0.14631520844358298,
      -0.2712927867443156,
      -0.1897159442544728,
      -0.40273650315814014,
      0.017529648470845954,
      0.3349918640556223,
      0.04202277718904174,
      0.14505770656755293,
      -0.08864084687146757,
      0.1820116294408337,
      0.07523362629474634,
      0.1256354142024249,
      -0.1673117097552866,
      -0.015096569878828875,
      0.09110527947520589,
      0.32065174012276204,
      0.0073722500870698204,
      0.13960979404657856,
      0.0944880593530341,
      -0.08176726298584484,
      0.13409547071796774,
      0.18390330864010207,
      -0.10012201690951862,
      -0.08383885216803011,
      0.15767690901757203,
      -0.07337228755693181,
      0.14023847372783244,
      -0.06591787515239714,
      0.16504973141702672,
      0.24984010591861583,
      -0.44743796900239585,
      0.1257304811375948,
      0.1293202691510148,
      -0.06551944503845616,
      -0.35537660186210795,
      -0.06629730647017497,
      -0.26456264551355635,
      -0.22071792800310872,
      0.14447896172082533,
      -0.24049182154931154,
      -0.10998203299457805,
      -0.03481775946858438,
      -0.031473270076860654,
      0.045018533373227906,
      0.06889637770586646,
      -0.03950648443965142,
      0.0641655836925698,
      0.20795670940785213,
      -0.06994576366350301,
      0.004121178259263933,
      0.048892420253632454,
      -0.13467798394005048,
      0.22850079713123278,
      -0.14110884705912113,
      -0.01762624470021347,
      -0.15082566935367356,
      -0.028922410696992293,
      0.02247910301814078,
      -0.07332350302023108,
      -0.15723891415474722,
      0.1463561738751658,
      0.1101481208479965,
      0.3776899248429918,
      0.18931434576901765,
      0.34055660300265894,
      0.218892136292486,
      0.02113284704355465,
      -0.34047465016798395,
      0.36624104027025206,
      0.43820081051562104,
      0.16978597567133996,
      -0.014721913496271014,
      0.2098233261097624,
      0.3409850977467739,
      -0.10797453714160508,
      0.00966196258459727,
      0.08923458822863252,
      0.33208010778956054,
      0.033105249516552734,
      -0.03535625378844748,
      0.19426480797010356,
      0.022708445981802744,
      -0.20228545686170532,
      -0.573606951338981,
      0.01275568490063772,
      0.0725715681265733,
      -0.06829426044776417,
      0.11329496527614666,
      -0.2958923032690202,
      -0.16311582640525085,
      0.04916116508315921,
      0.08104734070769201,
      0.13804404537395815,
      0.0990080781549221,
      -0.047937610820030285,
      0.015650967403387277,
      -0.1437866812102145,
      0.018197801722885446,
      0.1150146191917798,
      0.292087515683155,
      0.3213407167590945,
      0.09032091929157611,
      -0.10323456032431766,
      0.129421807169426,
      0.16729812031311497,
      -0.12199919112499916,
      -0.03459497122477391,
      -0.0003996704923623501,
      0.09012266409399533,
      0.10009138930272685,
      -0.006800942895934251,
      -0.1678324580003091,
      0.10476591027500849,
      -0.022815491760822808,
      -0.4710406392024218,
      0.02722436559329179,
      0.1617518611425613,
      0.09638283213105368,
      0.3851635898182604,
      0.3058056810916551,
      0.011425233519143027,
      0.25869779142043176,
      -0.16134155330786012,
      0.5054860206302193,
      -0.3311844315437641,
      -0.07330695145004482,
      -0.13830059160310712,
      0.06386872157630234,
      -0.40984777617978546,
      -0.27081093982599985,
      -0.07781102496091354,
      -0.007411277991957399,
      0.08967901678806008,
      -0.18159728224336327,
      -0.001819677325056425,
      0.21351120151368302,
      -0.17056138011497923,
      -0.037622495584380494,
      0.22301821482339002,
      -0.036922146012540014,
      -0.0633312787921341,
      -0.07147739473124282,
      0.08297304964020724,
      0.08858406810254507,
      0.10807424250618648,
      -0.2829993399895136,
      -0.19414728213940521,
      -0.05319688762547432,
      -0.1349005159778679,
      -0.23384616994610463,
      -0.25465192366043904,
      -0.16890127494975582,
      0.17321669931294711,
      -0.11191833370913348,
      0.10254730649627736,
      0.008133152558094305,
      -0.15233248456634196,
      -0.08454330513756562,
      -0.10111768510492941,
      0.3099169078884164,
      0.0609890085630703,
      -0.12715889836145497,
      -0.02603184135251291,
      0.06911806875668099,
      -0.18758694461425487,
      -0.17822498209777923,
      0.15195731591368544,
      0.0786223966285777,
      0.16842351589975235,
      0.6168576014807466,
      -0.18663911541816586,
      -0.15761326465460573,
      0.05142227502090921,
      -0.06338856922210358,
      -0.14781534139195682,
      0.21019100363176202,
      0.030453045178514215,
      -0.04127871665102277,
      -0.1821522015856909,
      0.6523763916341773,
      0.08832064087562269,
      -0.2331417649879588,
      -0.23448585969864294,
      0.4478634102052141,
      -0.10205924670859942,
      0.37192396041748893,
      -0.12555503170303986,
      -0.020415532378655843,
      0.014266400030896215,
      0.12290470168237506,
      0.05046958314186438,
      0.24384848071005047,
      -0.2736527644493928,
      0.0686295893117103,
      0.37260013624090954,
      -0.03967966554205429,
      0.17467983018427308,
      0.1179663401555462,
      -0.06645972613276796,
      0.014314866354354682,
      0.036697106823879985,
      -0.11360431308248989,
      -0.0618900518273752,
      0.09708893014173738,
      -0.1291030877834416,
      0.1226342463582639,
      -0.38053060303684594,
      0.08578796441517729,
      0.18776429207285805,
      0.1793583537183488,
      0.09962390267477537,
      0.33088724386949864,
      -0.28615266763319647,
      -0.04187788105812904,
      -0.03403488205191318,
      0.025013337139773946,
      -0.07765891288945018,
      -0.33269604240535866,
      -0.10055837099884256,
      0.15561616738081877,
      -0.09507350150606962,
      -0.02603433904109549,
      0.017072766281036544,
      -0.6390394278281297,
      -0.2633428394486391,
      -0.08005028343993875,
      -0.12375255107461694,
      0.38097531085604697,
      -0.16145283495933918,
      0.212043301179362,
      0.2456681354198416,
      -0.0858795456985318,
      -0.08995872861761887,
      0.3311173433149026,
      0.25490773892321983,
      0.08407237349403755,
      0.021392367301323382,
      0.1432228442307958,
      0.09157411207126702,
      0.1633124891110272,
      -0.36703240354874545,
      -0.15653802420190124,
      0.20202277285448678,
      -0.11872836799191638,
      -0.34369094953017815,
      -0.1438072268340465,
      -0.3303631780420942,
      -0.2999102157193318,
      -0.0843785176993931,
      0.42257011756095086,
      0.07898000097196271,
      -0.4112060210692776,
      0.1305449034996654,
      -0.3243317981936841,
      0.16644582171634587,
      -0.02870692207625719,
      0.21715777958838306,
      -0.0808552979160556,
      -0.2969496758451967,
      0.12101935722401191,
      -0.11072278706755116,
      0.1401728434649645,
      -0.022979418516823447,
      0.22675493943877198,
      -0.017267449484510276,
      -0.10683391411605218,
      0.1079351344703236,
      -0.43681841914699704,
      0.16487370689300113,
      -0.24608401837679109,
      -0.31038391370925256,
      -0.27542307660851567,
      0.012149980780790593,
      -0.39301388391367703,
      -0.3804090445645353,
      0.10240902085183784,
      0.23369622615040817,
      0.20782367648886332,
      0.06997820052500343,
      0.17900057511827494,
      -0.18455187143451265,
      -0.17690916664323109,
      0.3090011959919537,
      -0.019823017249360458,
      -0.013780731638703816,
      0.23349402579058232,
      -0.06377387420206276,
      0.1599318501461635,
      0.12385426052579557,
      0.021850717100298844,
      -0.21584432534237075,
      0.05063714970292066,
      -0.26480477645032596,
      0.1425123582426806,
      0.2891019338162569,
      0.05536191826980459,
      -0.012757256050205848,
      0.04352744260352367,
      -0.3669738137465933,
      0.06705232777723201,
      -0.1734994381160699,
      -0.10164126318829587,
      -0.09731595723877123,
      -0.004565333451887699,
      0.06255801779241017,
      0.20813437768080967,
      -0.08822097116137582,
      0.04324162053116815,
      0.011899157225022966,
      -0.02994881725599821,
      -0.19612496663479706,
      0.10740402933308581,
      -0.19303370103488926,
      0.06705618635545268,
      0.13672445771896696,
      0.08710130753766951,
      -0.0023847080582549834,
      0.15963717086799617,
      -0.1354888041109877,
      -0.09885803057051651,
      -0.2068483949151481,
      -0.13688765373109466,
      -0.07442498117790994,
      0.23471771625249896,
      -0.16555520195015785,
      0.13409488854406557,
      -0.444583591173709,
      0.07609397602366777,
      0.053142405807313636,
      0.042706582242452794,
      -0.13064644000343734,
      0.05134581776781152,
      0.24364557486929744,
      -0.32826255010169914,
      -0.06922597080667331,
      -0.052065269118782766,
      0.33159020754640844,
      -0.05430253953768657,
      -0.052027310711626376,
      -0.07503548736822752,
      -0.15545073651379004,
      0.12053142292377356,
      0.0783323497323874,
      -0.2243055261805858,
      0.06859409447801122,
      0.02107430171090214,
      -0.07498907612013118,
      0.08814309536362708,
      -0.1470244555756541,
      -0.06674599813030435,
      0.25251282141878545,
      -0.25195476673274914,
      -0.0905893314802581,
      -0.25657340221138714,
      -0.02013551208716402,
      0.1034123543772118,
      -0.004367458177657775,
      -0.14641526999368795,
      0.0717614290783149,
      0.07898154850105502,
      0.08291407303205935,
      0.03214770147613159,
      -0.11840358651283832,
      -0.0768499609295088,
      0.14667795549006316,
      -0.11602511170894747,
      -0.2791380104025925,
      -0.4137862354409667,
      -0.016479973467771483,
      -0.20918537409349242,
      0.2414657599987452,
      -0.12823675019446085,
      -0.08028983577512216,
      -0.07485824411791728,
      -0.03732461733068573,
      -0.3118253666965879,
      -0.2553624840571661,
      -0.23093497182343212,
      -0.000012206185626001398,
      -0.03247989811379938,
      -0.3309765528140714,
      0.1674257217704717,
      -0.06182205741754651,
      0.29030134141500324,
      0.050941131551249894,
      0.1793107895092239,
      0.1210541564691418,
      -0.1725672086548802,
      -0.21244350204323798,
      -0.062268372863228685,
      0.01878049197842223,
      -0.10289236262615852,
      0.021123836397431435,
      -0.0014304056004186168,
      0.15062320505313478,
      -0.24072326276291284,
      -0.06988352061712785,
      0.12247027811706142,
      -0.28726159469600754,
      0.18310983753706442,
      0.3399284127325384,
      -0.21389096474310404,
      -0.33563612316865754,
      0.14162172023272027,
      -0.08601283243474579,
      -0.15953048491989208,
      -0.06793816174738429,
      -0.039689370456411285,
      0.003889622684542085,
      0.5126450009029386,
      -0.1524041848566506,
      0.3442316574657202,
      0.27114906412509976,
      -0.171138572271471,
      0.1441427785145522,
      -0.20493927523898792,
      0.06097264880006895,
      0.022556214108733992,
      0.07237846155917084,
      0.04675786906753168,
      -0.17262485500467373,
      -0.17677964664900905,
      -0.008756198341753745,
      -0.25712884664269936,
      -0.06957144286827162,
      -0.269536969307256,
      -0.06916792848245228,
      -0.015857190007965344,
      0.3589771545018381,
      -0.40321588983319157,
      -0.2370926789901816,
      0.002630596255000926,
      -0.2835481178988839,
      0.05997429522122098,
      -0.049641854101740296,
      -0.29855171021081706,
      -0.2046878910738429,
      -0.22622409353219283,
      0.14294894019090743,
      -0.37767918752842655,
      0.2811290344160149,
      -0.004075108946990126,
      -0.24274582370072145,
      0.2621940060031819,
      0.043936166761791545,
      -0.1323235686041669,
      0.17205252411996716,
      -0.07744745844369191,
      -0.29859989652474217,
      0.43275279268303013,
      0.21663052722853227,
      0.15892010679779853,
      -0.17849790703888113,
      -0.3624044797116737,
      -0.48668322816197446,
      -0.06994301299248361,
      -0.02849957255242358,
      -0.06044891351142541,
      -0.01976795071971655,
      -0.3026530966409387,
      0.11875756252417867,
      -0.13706697319588496,
      0.021431072273589563,
      0.038511271101151115,
      -0.22047981068739142,
      -0.1442168854120246,
      -0.08618029556008751,
      -0.13201349252525657,
      0.10249224115002192,
      0.006707334951493648,
      -0.07336570712528216,
      -0.04270732677477511,
      -0.10652744577610998,
      -0.027981531647011032,
      -0.08041708839763387,
      -0.15515021340851387,
      -0.04048871732786839,
      -0.21999720183793245,
      -0.27311325012546694,
      -0.3275282131769581,
      0.18460941736078185,
      -0.09442131192874358,
      -0.24035664739226298,
      0.05914121528268668,
      0.025336386019303617,
      -0.4453227087821715,
      0.09789395945294087,
      -0.11149271242059772,
      0.1171939395290661,
      0.03501110297846535,
      -0.2758016119238761,
      0.239840041796982,
      -0.2509052351171549,
      -0.1460178594003106,
      0.09985126620728338,
      0.44008020035723594,
      0.06576431347689292,
      -0.040363372838600496,
      -0.10400153991269667,
      -0.01573854416944863,
      -0.1512034811887363,
      -0.05236772470353221,
      0.23863108805799277,
      -0.0663970290985125,
      -0.18618877272830434,
      0.0000722573189941983,
      -0.07797001516727375,
      0.13039888447702064,
      -0.0031416463892122715,
      0.207997530496009,
      -0.3139822358662726,
      0.049915580147425226,
      0.08113466147702003,
      0.07312132195414187,
      -0.0272108138170506,
      -0.03528011197978058,
      0.2648605698164761,
      0.13344796783986232,
      -0.051838108851675446,
      0.011183789181284945,
      -0.08859725340347903,
      -0.14195756040498958,
      -0.17174104142669414,
      -0.1720139501718706,
      0.033089475209573616,
      0.3701620093275796,
      0.0033621221057957857,
      0.11709636450741434,
      -0.06717524675130974,
      -0.08672994724708508,
      -0.010187872436627582,
      -0.09795009014993535,
      -0.37073776477557063,
      -0.23460268027325432,
      -0.16885486975408498,
      0.4469105848598348,
      0.08148583132160653,
      -0.022749304916919715,
      -0.11553682321614164,
      0.08869787613663505,
      0.020947959944444643,
      0.033823942242310855,
      0.000950014496790625,
      0.1392088673803739,
      0.15306898269214184,
      -0.1859510766826184,
      0.0010638734250720205,
      -0.16103625299042706,
      0.3944095067820838,
      -0.03572136927477368,
      0.00697393892988879,
      -0.2584655660429185,
      -0.14132841618470357,
      0.0487785887034432,
      -0.3333850405838217,
      -0.3893284289209848,
      0.17558442003915675,
      0.0783614850382538,
      -0.08230967572175009,
      -0.04623218510086037,
      -0.1346088688934825,
      -0.02166109793303648,
      0.07106193908067376,
      -0.03335624726648016,
      0.028052178341157395,
      -0.013029331090216551,
      0.00452793479023636,
      0.21218602260032016,
      0.058174465942623724,
      0.11902724726328921,
      -0.2751706804572903,
      -0.09671933813631617,
      -0.12945178502559435,
      -0.3378290296064652,
      -0.1652955151039335,
      -0.21321884525312065,
      0.4501872431709729,
      -0.004034750074044719,
      -0.11706430973065046,
      0.11656628583904914,
      0.001124650679566748,
      -0.17634037741316166,
      -0.05193972805993987,
      -0.10209491269159778,
      -0.10932505182402522,
      -0.03424483325579265,
      -0.2512006019928264,
      0.28407235703014144,
      -0.0032118102708865726,
      0.28220217022950744,
      -0.18002133756368843,
      -0.07077203838936781,
      -0.20688426271933794,
      0.12381615073749624,
      -0.34755737748171467,
      0.4461774177605854,
      0.172497350715962,
      0.011654257496383642,
      -0.11429253669251363,
      0.23972843581726036,
      0.3252783839059878,
      0.26705439452906476,
      -0.06768332079387405,
      -0.252165204432193,
      0.16419168444591398,
      -0.08309636380487526,
      -0.02025182284965038,
      -0.2688721553863981,
      -0.08041966051142538,
      -0.11528119746520327,
      0.11249588366356832,
      -0.29969070277471155,
      -0.2080792143725966,
      0.15699137675199004,
      0.1819388474978752,
      0.07745273129164804,
      -0.22402365417858794,
      0.08485162259496393,
      -0.1692308828649314,
      0.0657271169021043,
      0.15094660972129711,
      0.27450452472956527,
      0.004154885123275744,
      0.039805387405660336,
      -0.1375273804128925,
      -0.12649636756908622,
      -0.019524304839972986,
      -0.09990953918701521,
      0.09607369443848093,
      -0.1261104737608038,
      0.21196643023732478,
      -0.2957357538364191,
      0.12092829817642561,
      0.15908009644382182,
      -0.13117644158969125,
      0.054328057778063724,
      -0.005091905434027717,
      -0.5014379100127383,
      -0.1145227940009795,
      -0.019123513539154202,
      -0.02455531824076726,
      0.05355244169405633,
      0.040077262810787245,
      0.00966570793404442,
      0.4211629661760746,
      0.010836420817892836,
      -0.44403196259190103,
      0.28366391703072563,
      0.08268917294436293,
      0.23144138011763996,
      0.24611918243341524,
      0.3276674276335326,
      0.33509997839115446,
      -0.07599063706756956,
      -0.3395455741361783,
      -0.05772077195731918,
      0.11332180886855521,
      0.0496464687483684,
      0.05934874836804427,
      0.15446010841122135,
      0.7598045311102032,
      0.031230884238531376,
      0.017991803144461485,
      -0.327972626499034,
      0.1494800489929508,
      0.08952098293984084,
      0.19691635754699086,
      -0.34477094952204124,
      -0.44088677976817015,
      0.027554211378773768,
      -0.42665524321341675,
      -0.1909497379462774,
      -0.07769944830523517,
      0.22361717264999456,
      0.31769806940545553,
      0.010569050282745046,
      -0.38334293177214074,
      0.25454977005840973,
      0.12114184700056074,
      0.026966180709194418,
      0.0893308313733864,
      0.46696991456727394,
      0.12150187883146203,
      0.06648753592233561,
      -0.07304540578604202,
      0.10946011234775006,
      -0.01035617534880652,
      -0.18325725181742125,
      -0.0658760952778642,
      0.007977286235116954,
      0.19013508237021287,
      -0.37870757517698256,
      0.1137170591013829,
      0.06231981103111056,
      0.12576491883118862,
      -0.02439778161536889,
      0.0560719201007093,
      0.023159204285804813,
      0.19862407236539664,
      0.5234751141069065,
      -0.0814498264222647,
      0.2077548861191073,
      0.09539555119968034,
      -0.09617232756699437,
      -0.07962717768014498,
      0.09038617640892535,
      0.1751137034464575,
      -0.08342782482448642,
      0.13796676361392465,
      0.2066761866055133,
      -0.13933148083987676,
      -0.06253210076019716,
      0.1301114900661941,
      0.2340886914031671,
      -0.36989841740742424,
      -0.10386900312974436,
      0.20679760431030794,
      0.0461959523666785,
      0.14157742640671794,
      -0.03977400412545834,
      0.011323550736547826,
      0.03980113574671498,
      -0.10130870854307371,
      -0.26528136443589645,
      -0.1650959600905339,
      -0.18142097266156593,
      0.23106140270281617,
      0.0031176146595253904,
      0.06743293791264982,
      0.14800530020603156,
      0.032755199010060576,
      -0.04433410333408809,
      -0.2317136248730613,
      0.2935537943008335,
      -0.39258049668021977,
      0.019178147821052573,
      0.09782167695056679,
      -0.2387336037670705,
      -0.30723908767986635,
      0.208745956809344,
      -0.17824263933438994,
      -0.011469219748782934,
      0.2576972737576344,
      0.05201713611030721,
      -0.04777638752759342,
      0.022448495117457404,
      0.2076568210099294,
      0.07795205300606335,
      0.06142314429835077,
      0.17727493359087834,
      0.15118067916571398,
      0.05028892361767956,
      0.06022839410030992,
      0.0766056673558957,
      0.554358430836463,
      -0.06732391250414663,
      0.039859821863784145,
      -0.12475093619032737,
      -0.5840177577998685,
      -0.14544430416983176,
      0.4816239359284653,
      -0.19049304228275796,
      -0.008615727935478816,
      -0.05337766807152804,
      -0.008451671282456528,
      -0.15763275591654716,
      -0.15049866606335616,
      -0.21366100649938663,
      0.2040802198184371,
      0.10865579036252176,
      -0.0224749179928478,
      -0.23848062179921153,
      -0.03409019454192897,
      -0.18875569453968388,
      0.14191102933884098,
      0.1558409498287264,
      -0.03258413955240043,
      0.05943581888414799,
      0.20429239004217004,
      -0.09932553866561242,
      0.059962664321793736,
      0.15307541199599398,
      0.3812578939853866,
      -0.02182261547105236,
      -0.03318840518960108,
      -0.09189238049316731,
      0.34597287295227686,
      -0.1852603399281111,
      0.016777670564699143,
      0.19683983306793312,
      0.11402875628624368,
      -0.22292917656965222,
      -0.05669514167351691,
      -0.28757737679263495,
      -0.22963532419777197,
      -0.2908631165935128,
      0.035822044829097704,
      -0.3782199081960723,
      -0.1931144344567008,
      -0.10514111367472385,
      -0.1439511444588616,
      0.02365048595201192,
      -0.17283149160795142,
      -0.24958870342243863,
      0.11574934624087221,
      -0.06387748563560228,
      -0.38572996215204874,
      -0.0025534807649622016,
      -0.19577934899753022,
      0.20995056949498947,
      0.005024641624657544,
      -0.04842484846198482,
      -0.1932225740473063,
      0.09563128139459995,
      -0.033779781992139594,
      -0.1471654616046082,
      0.06442348527135984,
      0.3440577638720128,
      0.13036379320198035,
      -0.022610429744592868,
      -0.21058709344067766,
      0.26908221566010704,
      0.062394333581927065,
      0.0769342427290158,
      0.03529578307707417,
      -0.30672865292838825,
      0.17058577359177177,
      0.06859225627671461,
      -0.17330917587661931,
      -0.01169081052626074,
      0.26624684296292467,
      -0.07529036692786265,
      0.030319580194398288,
      0.03997435895040745,
      0.19167665054172053,
      -0.13316878081047784,
      0.08068834246030242,
      0.4740902329945566,
      0.15917400390835207,
      0.26751801937695874,
      -0.128644325214935,
      0.21254600799449735,
      -0.07491545414164394,
      0.14918859078495253,
      -0.27098598533409934,
      -0.23044595937460705,
      -0.1421331469771596,
      -0.24076770366767977,
      0.4563890263510585,
      -0.13519691627852792,
      -0.028529139951484688,
      -0.35209341488978635,
      -0.29748174767982405,
      0.2448440543420886,
      -0.31958853598481285,
      -0.5007270693858982,
      0.16810187409872646,
      -0.055763230432863714,
      -0.021583554480522404,
      -0.5227384946727357,
      -0.07283725708436742,
      -0.08442954705240273,
      0.3888843129788534,
      -0.23642055835499837,
      0.17662537887648772,
      -0.031860950558309106,
      0.017922267490082057,
      0.003030996924920114,
      -0.0005335493806066897,
      0.3333631154179892,
      -0.17482774513801694,
      -0.06530749478923718,
      0.17003778127310343,
      0.16404950854512768,
      -0.052892582069694265,
      -0.03918237843967454,
      0.3678991669829495,
      -0.15816685525986182,
      -0.027092571185493526,
      -0.05430410251727043,
      0.06679889868277006,
      -0.1742649684355557,
      -0.563550844390781,
      -0.1733446133475401,
      -0.1324235340086248,
      0.014086704150594674,
      0.22634920838619138,
      -0.019226467663334357,
      -0.025675580470205656,
      -0.01736215460365964,
      -0.08078168953982563,
      0.05051074129736795,
      0.19192841125024995,
      -0.21734394685128755,
      -0.4273002397805778,
      -0.35653966953684313,
      -0.05873562671537794,
      -0.20762251847074387,
      0.247726840254879,
      0.21174058342240826,
      -0.12895283740384833,
      0.07579034402290086,
      -0.15373120889277814,
      -0.056139554139075384,
      -0.07899159287297851,
      -0.01118575410005488,
      0.21765577142449954,
      0.02671730127117572,
      0.06205787695626197,
      0.19914110377893063,
      0.15156914813947292,
      0.26795461258451275,
      0.2001242661854995,
      0.09346116743489782,
      -0.062329234517696785,
      0.013305573303693738,
      -0.08990786261866532,
      0.3776271326211844,
      -0.019766565267695477,
      0.2552148405035195,
      0.22448174854507882,
      0.07868608678131689,
      0.018620650893074846,
      0.37871670919281963,
      0.0296267043029666,
      -0.10472069798713626,
      0.2279602498804369,
      0.07851979311775698,
      0.2905647450728566,
      0.23756711089648863,
      0.007416695061966072,
      0.182909858228818,
      0.03577893014531705,
      -0.02767808490962625,
      0.02887735874430332,
      0.0028497180625165694,
      -0.07715708724820487,
      -0.2581834825954636,
      -0.1692088018775567,
      0.18661383469545367,
      0.24685704405716358,
      0.06468607285542159,
      0.1480178897308989,
      0.3612113798926325,
      -0.1495888010561422,
      -0.27470822253932203,
      -0.136490237881218,
      0.2964442798575855,
      0.04825002379464365,
      -0.22537842891933035,
      0.6309331076088509,
      -0.15251624658982676,
      -0.004805743786833738,
      -0.15210022268568943,
      0.01893233402464248,
      0.02388608963735669,
      -0.005302847838760685,
      0.241940049000899,
      0.15540346079654468,
      0.11085180008804373,
      0.3366489452193407,
      0.13839256968962382,
      -0.05682991448977162,
      0.07513044253733475,
      0.07743092702642587,
      0.2642670200739389,
      0.23242862414901885,
      -0.16079274205111455,
      0.029840256130983955,
      0.2752247713120123,
      0.18763041743758468,
      -0.03151992448755373,
      0.1395839631634564,
      0.08777906267281488,
      0.05047715189315112,
      -0.13723832158972193,
      -0.21507130328431012,
      0.12176874117856783,
      -0.2999214236783042,
      -0.16102928924265125,
      -0.09398921062232807,
      -0.13226950912906799,
      -0.1541424290884307,
      -0.03656245901148768,
      -0.36822740816025445,
      0.13687265272503008,
      0.4984864881673503,
      0.10274192505316444,
      -0.08204031071350773,
      -0.19086886762831287,
      -0.11714621644403816,
      0.04117205583488838,
      -0.08935041034692966,
      -0.1190705624317387,
      0.2792929803529901,
      -0.1631772154609571,
      0.007301027820742156,
      0.1743428566261,
      0.1814485096276587,
      -0.07581599170412855,
      0.001974196821488222,
      0.15454432578624186,
      -0.09015184283233779,
      -0.10702826011829254,
      -0.0447232789640628,
      -0.11165772152818622,
      0.09545774632156015,
      -0.27815528210897544,
      0.24312683405231952,
      0.2209746214474957,
      0.07511083613024895,
      -0.26262837098247366,
      -0.035395554836346294,
      0.12837970097962914,
      0.43484732136395143,
      -0.3252476742865341,
      0.21434891768974212,
      -0.5040823971700934,
      0.06760472074017958,
      0.14832677674258554,
      0.08799695380429773,
      0.0575078598393235,
      -0.03355396543837663,
      0.4560839649026817,
      -0.07574349409917755,
      -0.11856279183767798,
      -0.05942606604729676,
      0.1486027572820012,
      0.1358297579847536,
      0.149308616187018,
      -0.0735552200400341,
      0.21754212725619312,
      0.17005619098856098,
      -0.23845218845884475,
      0.2620829063675259,
      -0.10107254887267869,
      -0.44557590181139994,
      -0.04986161576885652,
      -0.04891340957824451,
      0.06557172337562325,
      -0.0572012193388347,
      -0.16241574590950578,
      -0.4992735013935763,
      0.08505468887169107,
      0.023361150771976598,
      0.1549206563398146,
      -0.3370501795643589,
      -0.003236888906371152,
      0.036977187658381414,
      0.11898908907430847,
      -0.12715571702224102,
      -0.029688118391357265,
      0.09861286314335696,
      0.06953157362298873,
      -0.21375751178035599,
      -0.1078193449541014,
      0.18556486072815062,
      -0.1236058819001325,
      -0.008765349437519165,
      -0.3178611998232012,
      -0.017344812021443383,
      0.10705590638329066,
      0.16609404348125845,
      -0.080806915556884,
      0.2935269625840269,
      0.04357403692349688,
      0.054495652904384476,
      -0.354371202876649,
      -0.015432876931653386,
      -0.007932258712433152,
      -0.027006542253810203,
      -0.50521496007798,
      0.06926887479627442,
      0.15809849970830558,
      0.0014011340047507658,
      -0.13461606032260487,
      0.0487755298343157,
      -0.012155494136635567,
      0.09634846420668781,
      0.18709164507381576,
      0.2599603140094361,
      -0.07722078579662382,
      0.059922378318147486,
      0.01728904584622188,
      0.047535858851817867,
      -0.1580300930748622,
      -0.013947411675187038,
      0.03510887889394218,
      -0.11511774817823217,
      -0.02924253759803197,
      0.16740259561872628,
      -0.03393298306885184,
      0.16799454473982772,
      0.08256658832170072,
      -0.004336222155931352,
      -0.05510169268545199,
      -0.11319600160245741,
      0.12162552837125765,
      0.3565400074431334,
      -0.026740180630256204,
      -0.23853599768666323,
      -0.10503540226454418,
      -0.10699107168661065,
      0.31349739235498214,
      0.26946172964938053,
      -0.19750424895036892,
      0.3657780036221903,
      0.3647322902137961,
      -0.004642006317913283,
      0.08057717746775504,
      0.23003748139735078,
      0.054432480345332504,
      -0.12656870507655876,
      -0.3351936190618656,
      -0.09750632522275879,
      -0.07904597044306233,
      -0.15663370420228936,
      -0.32567709874806966,
      -0.11828314715179,
      0.019436161299045497,
      0.018492569789733185,
      0.24008555919066946,
      0.14263129565715385,
      -0.1520037836636698,
      -0.2136839549889347,
      -0.008849164030086547,
      -0.14163783731629226,
      0.1325825104649765,
      0.05738563444328138,
      -0.12513178986897855,
      0.006297128660837058,
      0.08059467959514975,
      0.10187190153825426,
      0.12691038941001334,
      0.2037457450252944,
      0.021075140469601558,
      -0.3833775530470944,
      0.3334077499468723,
      -0.2358134033146732,
      -0.43515980798776227,
      0.24976009262947613,
      -0.04619628770710258,
      -0.010402730237399543,
      -0.08441847582820838,
      0.06223815413027629,
      -0.06377314288600493,
      0.09886432919661073,
      0.5463836105850253,
      0.2189153858933112,
      -0.3630370683106994,
      -0.17372134864238975,
      0.28604798383658403,
      0.07163972728510952,
      -0.09720101421781216,
      0.03501865388849426,
      -0.33131692926213024,
      0.056034750289858895,
      0.2168353059861502,
      0.10407756970154566,
      0.20161221119862238,
      -0.24738355358973158,
      -0.010574709111148252,
      -0.15730575503685063,
      -0.19588075604298,
      0.0518354359678201,
      -0.22207855740339313,
      -0.15714500600869238,
      0.04833520824945635,
      0.06678515781103445,
      0.11335952394339473,
      -0.03098136154816894,
      -0.20120381782510366,
      -0.1899817556602028,
      -0.06825802573192287,
      -0.04819384965705692,
      0.20187912883103307,
      -0.008847159472778619,
      0.09826302173680712,
      0.12140868660912825,
      -0.2605809097810492,
      -0.4558778000184915,
      -0.035330074751844937,
      0.3783315236066293,
      0.3298777713433532,
      0.09681870694424981,
      0.05318807645142295,
      0.08425452813974749,
      0.2918096810573353,
      -0.08929970674179345,
      -0.06171157185084045,
      0.11574725003473396,
      -0.043345125599884515,
      -0.24786939159337518,
      0.3231590286124536,
      0.0019819879635910517,
      -0.011930164655712186,
      -0.11507412755048065,
      0.022068774180629913,
      0.05052645080072114,
      0.01819350876158843,
      -0.3079958071289077,
      0.04152139109832395,
      -0.12069671663575146,
      0.011525741235084153,
      0.18663959398427798,
      -0.017409001421864106,
      0.06153520223524378,
      -0.2334166642403394,
      -0.2576646656776561,
      -0.02278337581099324,
      -0.1531624740390346,
      -0.1094515052713746,
      -0.04584084199231091,
      0.09323861623637837,
      -0.13994165206487397,
      -0.05768596145850613,
      0.19220052918385322,
      -0.07263789527068722,
      -0.17106744170538074,
      -0.04356267558728979,
      0.22681484999937004,
      -0.05616712590485212,
      -0.2668315878208185,
      -0.0072703828975850815,
      -0.2536505257589996,
      0.1743972963595494,
      0.03996387283358373,
      -0.002655216927423515,
      -0.3492876486775437,
      0.5273479930045433,
      -0.01191740147539829,
      -0.005965808253607374,
      0.20523887219392795,
      -0.08047601934629403,
      0.31116262221181346,
      -0.1648762519472899,
      0.07108520596191122,
      -0.35641028177641554,
      -0.19692163793329515,
      0.07469264457078464,
      0.0452249954342822,
      0.01684716266667552,
      0.05482732498203782,
      0.06330088318283195,
      -0.2354105511980123,
      0.17228483390676497,
      0.028242167185810803,
      0.14483916901338328,
      -0.4438311438222978,
      0.10476102496752822,
      0.13172873102319793,
      0.3619775941972002,
      0.16295972180162194,
      -0.08788927207835029,
      0.02316155023560343,
      -0.0329804820337158,
      -0.05208864358375891,
      -0.13743575083626847,
      -0.2793142860649911,
      -0.13653491786060873,
      0.010060500853043247,
      -0.20304372431189027,
      0.1346194607048909,
      0.0629743101753931,
      0.0005397277423302982,
      0.15462605901705176,
      0.6814545626663036,
      -0.04340427926233317,
      -0.029871844484872512,
      -0.015137127067724507,
      0.28240082842000697,
      -0.49979410617008946,
      -0.11426487023790033,
      -0.17239142170616184,
      -0.23807794475236746,
      0.20301193719904376,
      0.5658692652546479,
      -0.2921807421537024,
      0.1872311924962866,
      0.4973050983285603,
      0.11850961245914003,
      0.25791863206963733,
      0.08045354869484915,
      -0.36146594698046897,
      0.1466400910963947,
      -0.14436168625836016,
      -0.005600290838729954,
      0.2912816519704353,
      -0.04032298160126266,
      -0.1909908750801758,
      -0.041460969692513325,
      0.016745643599444388,
      -0.283618982612139,
      0.4029746187087089,
      0.15392720069816218,
      -0.23199429907666497,
      -0.03144070753871789,
      0.12259561922834841,
      -0.2712090410927229,
      -0.24092461855776495,
      -0.06340516208089067,
      -0.13805050676353592,
      0.22222777979399364,
      0.055368098467055135,
      0.1254043951842064,
      0.26384057034324776,
      0.07489758836857678,
      -0.08740073669160507,
      0.2118226386277407,
      -0.138392315564826,
      0.12942955832698633,
      -0.3924482739800291,
      0.14158725790475346,
      -0.0848669816664888,
      -0.009912796517023342,
      -0.018928925069207347,
      0.2373621282343717,
      0.05828676299675023,
      -0.10599180920122767,
      0.20698286723893575,
      0.11686740763086623,
      -0.13326460271756024,
      0.2924274381521712,
      -0.3811524746332147,
      0.13825192915120657,
      0.0415794372855236,
      0.2774114190756176,
      -0.12717692126434477,
      0.22989319538363287,
      -0.06826797570395415,
      0.14238462610093838,
      -0.11816838111177867,
      0.0366023896757108,
      -0.2604014240858073,
      -0.1953742615619823,
      0.29256575412758423,
      -0.0759687380522593,
      -0.028918288930038304,
      -0.1299229325008439,
      -0.3320568438007684,
      -0.3431699183269603,
      -0.05397380364017433,
      0.14509983331028262,
      0.02932264018052671,
      -0.015439027625941175,
      -0.2288702182796455,
      0.01318477645844704,
      0.30757276005543877,
      0.12501267078211845,
      -0.11510115646837975,
      0.030963065177465082,
      -0.01165631683121778,
      0.058067537949494374,
      0.05344276961120255,
      -0.07788310012596496,
      -0.18006332096008,
      0.06214864297128197,
      0.002661577504783621,
      0.0686573464332576,
      0.2639112135291964,
      0.17335577433956822,
      0.2896532763675946,
      -0.042903469086810656,
      0.06612795062822259,
      0.19920282717817567,
      -0.07988856032207438,
      0.037764160478856945,
      0.09219615876761728,
      -0.010296648395259414,
      -0.42759378253735947,
      0.24589109209219356,
      -0.32168575951276573,
      -0.16689660242076038,
      0.0764871810317259,
      -0.30192597625810613,
      -0.008936484824505358,
      -0.12113966995995315,
      0.00808586773191157,
      -0.08295490050105085,
      -0.30560342090666975,
      -0.13921653706443482,
      -0.1550493623441316,
      -0.04656442010140862,
      0.13842495273529767,
      0.09890763215825064,
      -0.057175475950875736,
      -0.0762351066530074,
      -0.2050050610650278,
      -0.07018541136328428,
      0.04263271520977191,
      0.10755322646581736,
      0.0054159950514629344,
      0.04385752711236374,
      0.048333792987698854,
      -0.0020879249173638703,
      0.19622283832003934,
      -0.2069202668023001,
      -0.03779142020750445,
      -0.005673204102796359,
      -0.16957602979748138,
      0.07117645523516056,
      -0.191062970391278,
      0.16716562219412334,
      -0.05386023507936612,
      0.05149513444711072,
      -0.03208284339291284,
      0.09387262283781919,
      0.012271063536293548,
      0.3202461256618472,
      -0.50071729376232,
      -0.22320352552492007,
      0.049154247561890504,
      -0.3179853929070968,
      0.13871987582702838,
      -0.03261349715084799,
      0.06710936418679496,
      0.22487845037213128,
      -0.09640110834300852,
      0.6385952033132639,
      0.2065567318394786,
      0.26220777623229635,
      0.18626999485891826,
      -0.2966286398352508,
      0.18573372577897812,
      -0.13015111389642867,
      -0.025440145287508,
      0.4104985560119605,
      -0.04033949917413099,
      -0.11521729273075118,
      0.29150260677321516,
      0.08309651914082339,
      0.01872264964433252,
      -0.08333052213035722,
      0.198777507099689,
      -0.008644382987380982,
      -0.07438686687152367,
      -0.08731781085729413,
      0.10450060185789178,
      -0.2348713348035128,
      0.0168991327818242,
      0.04799768639690832,
      0.29421481988386133,
      0.25488878433634515,
      0.18323452779233146,
      0.2936083508998871,
      -0.01034185368497599,
      -0.03319444533949542,
      -0.04644169071623507,
      -0.027283753311299286,
      0.13643243305695624,
      0.07599983256123881,
      0.06476497636156196,
      -0.26195062615610765,
      -0.037674023987736144,
      0.0100854527487367,
      0.07224356381313832,
      0.7107031555933215,
      0.44762361378118976,
      0.060177594506257745,
      -0.11804896231479647,
      0.16272771740186603,
      -0.22236776655646745,
      0.1218520337230462,
      -0.055697378165822084,
      -0.03939854791463687,
      -0.41712168212721196,
      0.27360306516347827,
      -0.06096547960673154,
      -0.20217055782399682,
      0.04856764108737219,
      0.09195741544833445,
      -0.015040223231721432,
      0.053963701260079155,
      -0.22862416535376662,
      -0.12416171893544424,
      -0.4143028147981094,
      -0.21072995665377875,
      -0.29153846082920043,
      0.29422698858295104,
      0.11325827661716559,
      0.11141269207337236,
      -0.24753520017072042,
      0.03352375957444493,
      0.16566619427472185,
      0.11651572816767977,
      0.21507506586473962,
      0.06403016479709628,
      -0.0013683803757117002,
      0.0006012009748884162,
      0.08134597065197649,
      0.185159593335619,
      -0.3141700394983414,
      0.07146806551975171,
      0.0271574057541867,
      0.4934116252013188,
      0.058016006542686675,
      -0.34522263117096524,
      0.36194401016818833,
      -0.10334248945874673,
      -0.09410052661267305,
      -0.2658310845419077,
      -0.04048929291821633,
      -0.07655428969956371,
      -0.11666689348589834,
      0.15430957953255514,
      0.17031839595272594,
      0.16029381520470515,
      0.030907317042104535,
      0.13021470114029216,
      -0.04462767873276903,
      0.14890334882504005,
      -0.17585194993723177,
      -0.1947831052829931,
      0.1041413906912881,
      -0.1949100375120575,
      0.049934115576798194,
      -0.0966698457492541,
      0.2839160590673689,
      0.021243768907716676,
      -0.07291175676975767,
      -0.02649134549391839,
      -0.17600371562811087,
      -0.14588001218767177,
      -0.01596601212919585,
      -0.5840447823771054,
      0.08662725616424932,
      0.16746295213701998,
      -0.10238397391484355,
      0.1647993903072707,
      0.20549921909675023,
      -0.028225845781820268,
      -0.15807744764125553,
      0.023662317185545192,
      -0.0150138402689598,
      -0.14486621500603641,
      -0.2247919738076578,
      0.13817617668978693,
      0.05184673330030893,
      0.11402214959095716,
      0.25923226539556515,
      0.11580635795118115,
      -0.07463499319642913,
      -0.20239516178737688,
      -0.04068369093901254,
      0.428000194304729,
      0.24003595321550641,
      0.25791733864702526,
      -0.22919642125287382,
      0.12415160638724493,
      0.47432345621072763,
      0.2735345748823443,
      0.08844781406946431,
      -0.12136119360024873,
      -0.13018882856580402,
      0.27042739402725424,
      -0.19617604792348536,
      0.06292157469754195,
      0.062839227379211,
      -0.18052058641748608,
      0.24277783655962237,
      0.08277272829181416,
      0.16626160417533586,
      0.375941953788993,
      -0.3907387845417426,
      0.018044121576224842,
      0.03542818226134728,
      0.14072954462730386,
      -0.19172342858949049,
      -0.14153196152385655,
      -0.11218596173358893,
      -0.29757942962534756,
      -0.15799993917443889,
      -0.07727344243158546,
      0.27092422664773885,
      0.1677805082830246,
      -0.32817094812555286,
      0.12510575375956298,
      0.15566422935036428,
      -0.04256033301342002,
      -0.0673543113419432,
      0.19581301657035238,
      -0.38907433059945096,
      -0.2634389188943301,
      0.3865842648281225,
      -0.011783835516474467,
      -0.08569239192716904,
      0.05325580541137892,
      -0.7088129561004868,
      -0.09805004417127806,
      -0.002307304375230697,
      -0.14862726184642985,
      -0.024551827886228825,
      0.13884831686429225,
      -0.016091285151135285,
      -0.0189857515698795,
      0.1092051653378669,
      -0.009511949464315283,
      0.15643854122621575,
      0.05111629607886323,
      -0.12332170612611025,
      -0.15973877976939793,
      0.17318736660233106,
      -0.0861968596292158,
      -0.219595276094967,
      0.14947934360042708,
      -0.046905084271878145,
      -0.13355555133056957,
      -0.07020817983195074,
      0.2151662483129973,
      -0.3037723408979942,
      -0.2919342977335932,
      0.0776954092917402,
      0.30104044034424504,
      -0.25250737908964627,
      0.14487507611547076,
      0.09124177669240535,
      -0.09276805895047341,
      -0.08163924704367018,
      -0.1405911573057121,
      0.08086598887752872,
      -0.1766296801286956,
      -0.21650864349934565,
      0.02796710660615824,
      -0.35928579478440914,
      0.3849367466192635,
      -0.01725769906085428,
      -0.09162997390800626,
      -0.023776631130470488,
      0.009176088474933359,
      -0.23541170030062805,
      0.12612057197731957,
      -0.10803391499916429,
      0.23160773996419215,
      0.291264564278227,
      0.18923783911806333,
      0.12544369361564586,
      -0.1510688552169028,
      -0.11748539753758074,
      -0.24468310199448048,
      0.18788304718417406,
      0.022614451006695714,
      0.06981896800169922,
      -0.0809321298459519,
      -0.10438435622422786,
      0.14724435027211855,
      0.22867438852843583,
      -0.17892588494294948,
      -0.0793008739065013,
      0.1693634751113771,
      -0.05467851226908366,
      -0.235453474068056,
      -0.12169338747011514,
      -0.4077208562563507,
      -0.12471469976117423,
      0.17226833575249273,
      -0.23218628440637365,
      0.4433898627532914,
      0.003448544575681556,
      -0.048859887387540865,
      -0.1419664479682623,
      -0.3568083150163005,
      0.13489365929294783,
      0.3037246514735385,
      0.3610907643469531,
      0.031536458654290445,
      0.4277976605741889,
      0.0313470018551641,
      0.3619653464508491,
      -0.05087009395902278,
      0.018753431915970745,
      0.11114622067671455,
      0.1275368095960237,
      -0.3239466417052022,
      0.008715331736946774,
      -0.1431312133517047,
      0.18023613121754684,
      -0.14788571163831593,
      0.202573803941749,
      0.44673472957804733,
      -0.03661139378611256,
      0.49713238930333636,
      0.0019077709693958722,
      -0.1958964082194533,
      -0.5581519757892437,
      -0.04758582132972285,
      0.2426700059617618,
      -0.3132472963200098,
      -0.005563310225058293,
      -0.10589351279733508,
      -0.05752783201056018,
      -0.14378917594382837,
      0.010510345174407156,
      -0.006114368671256615,
      0.1361390137074682,
      0.06744941942686336,
      0.1866761991645733,
      0.3437646971684516,
      0.21926895810830088,
      0.17438562529791352,
      0.011843573998663828,
      -0.07771268977583606,
      -0.08382154638019482,
      0.2119464361799055,
      -0.04049799797270031,
      0.009451259284307977,
      0.3871489233588499,
      -0.04258224031348319,
      0.030392796205620923,
      -0.43569149313320643,
      0.049731397064165885,
      -0.03671983571973868,
      -0.007179211544871028,
      0.058864355007507266,
      -0.41349724081965844,
      0.5790840124237218,
      0.23295991536737642,
      -0.22439987372324743,
      0.26085418169650415,
      -0.2565578996635422,
      -0.06536317420379109,
      -0.06289899482911461,
      -0.2950036490628532,
      -0.20246090382745807,
      -0.026837491894835364,
      -0.4515944582432507,
      -0.23781480541095776,
      -0.11169070983681069,
      -0.30239962139368975,
      -0.030061335734007877,
      -0.12128192936695942,
      0.09004749998048649,
      -0.127935992804489,
      -0.1277424566068404,
      -0.07877449920891401,
      -0.3473568799089616,
      -0.10657776547551497,
      -0.04685401117102299,
      0.11126814783762409,
      -0.009279872109515995,
      0.03675477688363025,
      -0.33847070224269943,
      -0.25530957634622925,
      0.16021982503665838,
      -0.013909047583990586,
      -0.021363537977975383,
      0.2619771419912813,
      0.22295513742299142,
      -0.09993415129958556,
      -0.027734484874419985,
      -0.029506794946968645,
      -0.19997140375910416,
      0.2872478342433183,
      0.11388735149879259,
      -0.10610520519996097,
      -0.010705623539832995,
      0.16023659658263997,
      -0.15455506992896578,
      -0.1904489909545545,
      0.14906275079610898,
      -0.09502340436447795,
      0.10554382084185535,
      -0.0941511154932279,
      -0.0931669401487619,
      -0.2610797336690521,
      -0.2449900556730149,
      -0.04349764986715779,
      0.196057942084351,
      0.19494160267336122,
      0.36915899611479663,
      -0.2052153146999596,
      0.1296777565751195,
      -0.28578687578132805,
      -0.22649826575197798,
      0.020031364260371783,
      0.20817440930242703,
      0.04588928783581317,
      -0.0028871372092280634,
      0.09376063589544294,
      0.1902863252734914,
      -0.11492617453660507,
      0.03883033723516069,
      0.1272523020204247,
      -0.04854736980447566,
      0.010074200311673193,
      0.13013807997762883,
      0.10138627736561884,
      0.2269556451367127,
      0.10921845779333501,
      -0.18457566366002398,
      0.12317750932873774,
      -0.12302480684855488,
      0.02522927446429349,
      0.2948753370028334,
      0.10214172883171445,
      -0.10492844644387989,
      -0.038358925927598264,
      -0.04686792063014215,
      -0.35653785307307845,
      0.3211420687692541,
      -0.31874885894217336,
      0.011539544009762898,
      0.10515090158717186,
      0.14038916929939504,
      0.018862247646848428,
      -0.05999182119220498,
      0.21448028875700015,
      -0.018000788406291535,
      -0.11069231766815851,
      -0.195527107057785,
      0.11291065007731474,
      0.14010505962113426,
      -0.1215540120540229,
      -0.2606301544464823,
      0.07779904648698048,
      0.21260163013663633,
      -0.045275502444269894,
      0.04430373506427346,
      -0.12568729526854752,
      -0.2883452778645349,
      0.06977525885032157,
      -0.061301782952850034,
      -0.1458038833146659,
      0.23163993938103433,
      0.028063266851294476,
      0.015054623662633798,
      -0.1294288732196196,
      -0.058332172421805384,
      0.07843810497737713,
      -0.20997840704453655,
      0.020503988920815605,
      0.02568482766784716,
      0.2605818117112608,
      0.30672451228600406,
      0.19389509632267174,
      0.2424724625489338,
      0.06858151207873592,
      -0.10425182226227318,
      0.02728209332118965,
      0.07227100935012415,
      -0.012104447293987124,
      -0.0675661815156404,
      -0.032159152206233596,
      -0.08637735824206061,
      -0.2500649505661356,
      -0.0618266529684788,
      0.005230076091613585,
      0.04982109661215998,
      0.04038038264213129,
      -0.36870327549083276,
      0.19707952719463584,
      -0.26453822498423174,
      0.09867007375028733,
      0.46763434958392397,
      -0.3582604637536617,
      -0.05768086484805962,
      0.3171559474187678,
      0.08845512287071171,
      0.13191162840140608,
      -0.2812153617721141,
      -0.2138887537358798,
      0.013424202373626709,
      -0.3241745892972627,
      0.09807653554423669,
      0.04483735334864759,
      0.02277028829971507,
      -0.1749212508317472,
      -0.05778960259630492,
      -0.12381580141601291,
      -0.16042950596086067,
      0.029191620033775637,
      -0.037530815082973054,
      0.08856939892040888,
      -0.01440991993832233,
      -0.23664772015543395,
      0.08238101057539805,
      -0.0022736607963263766,
      0.08565954828270653,
      0.3037424359882362,
      -0.03213543897066587,
      -0.21915865029208503,
      0.2690943519465604,
      0.2570894479680976,
      0.02046784695015441,
      0.3164953681703198,
      0.03178912007749282,
      -0.1076365785138653,
      -0.49349491773830234,
      -0.05896016285599365,
      -0.009192805295552817,
      -0.30699124261546623,
      -0.13414441470979976,
      -0.07248113030514812,
      -0.029758335174648015,
      -0.02145248237920533,
      -0.08829499184382386,
      -0.0749082512944892,
      0.05240615160429757,
      -0.1857529743927242,
      -0.2598149351599038,
      -0.09448463119302045,
      -0.08195396313476917,
      0.12524800490194704,
      -0.24849434201151677,
      -0.05367948113550232,
      -0.2345002916573368,
      0.16367159416779534,
      -0.17735208703588323,
      0.11174198493113638,
      -0.0434304121286993,
      0.076902390539554,
      0.08949590929899573,
      -0.08212458682719675,
      -0.24544813293877576,
      -0.1500503935046212,
      0.1044639668762986,
      -0.2109614964394833,
      0.11811994201301237,
      0.07019835761503429,
      -0.08566011338407488,
      -0.18592536584775057,
      -0.22512890985535,
      0.11246083807400879,
      -0.30131771755942816,
      0.14260753271774956,
      -0.023657870356792437,
      0.3695231572670193,
      0.40803394907125645,
      -0.032405651111796246,
      0.0575928101262068,
      -0.16224819278640623,
      -0.17656092916300276,
      0.057237803517464075,
      0.01363925352397579,
      -0.21514445603776788,
      -0.22054607712234825,
      -0.17878889436249099,
      0.09045915519024428,
      -0.17011865961768238,
      -0.5475199031619725,
      -0.3801132041090491,
      -0.4283098100678781,
      0.12184924281964903,
      -0.24947015871469885,
      -0.184769222659805,
      0.05490534733040758,
      -0.29295320815239756,
      -0.34216286753989633,
      -0.1988435728062704,
      -0.3181523072290162,
      -0.06206315189366031,
      -0.15231078122366548,
      -0.22321891634061095,
      -0.09877962178091791,
      -0.026122254351389297,
      0.17051974999303582,
      -0.0768442698415117,
      0.011846508124591454,
      -0.17586507594443057,
      -0.3106107736378724,
      0.24587766505750183,
      -0.003764803778436021,
      -0.12496670317890349,
      0.025787764829880024,
      0.041457187756783635,
      0.07571468655224191,
      0.3821573685186195,
      0.20211524321265634,
      -0.03572960984866407,
      0.07891546934020885,
      -0.26809886506826297,
      -0.10385370332611789,
      0.3101991439796645,
      0.05097438840245347,
      0.25612980717762057,
      0.09533221886513747,
      -0.14412205053880708,
      0.005696999245109885,
      0.08228380981621772,
      0.20213702801673428,
      0.28197361350652833,
      -0.16836426243049013,
      -0.05895213888273877,
      0.25973834854148736,
      0.1024147615186185,
      0.22384448798134898,
      -0.3747179626249049,
      -0.032498993556515574,
      0.17300965655651757,
      0.18504791823931172,
      0.04837541718667175,
      0.1539448714663176,
      0.05340049997085984,
      0.14129151845557927,
      0.12150754997201837,
      0.08562946215487456,
      -0.11075133175367464,
      0.0499170805320809,
      0.009759677273903797,
      0.28354445910053416,
      -0.05195650430161214,
      0.12257257903695884,
      -0.1557007443352342,
      -0.11298747615451768,
      -0.38261201882012386,
      0.04127017423677094,
      0.292492344046801,
      -0.03647294456305737,
      0.16213550796569304,
      -0.0236834851520766,
      -0.20044672582128747,
      -0.026605689592682183,
      0.03057885223620041,
      0.05373064142834509,
      -0.22449460431349116,
      -0.08497881702800926,
      -0.1030324593440455,
      -0.08895416498347389,
      0.497591069016396,
      -0.04090550669922744,
      0.12484128200365299,
      0.01052173151583169,
      -0.07285631613349809,
      -0.24070697557258638,
      0.2805876730191069,
      -0.26771838838675804,
      -0.022781273918768413,
      0.05115785966684214,
      0.004322935449796325,
      -0.06154349672359967,
      0.24210746171139488,
      -0.21277535736730993,
      -0.04967908146370957,
      -0.18885831114588014,
      0.12273157881545292,
      0.2836443508157477,
      -0.5794650188869808,
      -0.0350355906525423,
      -0.09750979018901083,
      0.06057423921942265,
      0.19777637828029143,
      0.009425564296173673,
      0.03666281513062332,
      -0.12240112705652938,
      0.31231938136758713,
      0.07919900022701212,
      0.1235290900148136,
      -0.16935096905381083,
      0.06231258558019021,
      0.19502240704501095,
      -0.1845445419609683,
      0.24307448345581667,
      0.018618876741360688,
      -0.07644677850759143,
      -0.04336967685977149,
      -0.1363694744809832,
      -0.12952649542347047,
      0.06270038725265585,
      -0.005937165589345116,
      0.2384013481025482,
      -0.07647154555035245,
      0.1616463655955395,
      0.023129207717114547,
      0.05249849998834562,
      0.15402910842638196,
      -0.009138418189952355,
      -0.05519602431478737,
      0.20240012965793747,
      0.07527356839501066,
      -0.12091979289713481,
      -0.04939840999652187,
      -0.3275952550840028,
      0.058052925044226156,
      -0.39620317982120656,
      -0.4300231984992745,
      0.1602933745454285,
      -0.42217736358528735,
      -0.06298024061675717,
      -0.08678135945018879,
      0.3214938701552999,
      -0.2083662580619056,
      0.0677367291689934,
      0.1700233844013787,
      -0.030880774983128162,
      0.06788992692182859,
      0.14042962721961894,
      0.12496864206239515,
      0.06155815733937365,
      0.04772183436002581,
      -0.029799850794327704,
      0.13886842571206903,
      0.002739648093449447,
      -0.2027442894210994,
      0.03080114762630013,
      0.3269775939164857,
      -0.07964915412734262,
      0.22507305054580318,
      -0.23210065612783704,
      0.23717231635181799,
      0.012901076299539183,
      -0.11617756954046654,
      -0.1630498852297046,
      0.1240211401996782,
      -0.3841768342722413,
      -0.15430398006382048,
      -0.07967330924135058,
      0.23181106078699315,
      0.04941697956177028,
      -0.5884921639356816,
      0.2995821658791573,
      0.2430833736816551,
      0.09865157828280281,
      0.0728694785584659,
      0.2579401237058675,
      -0.03414032939404613,
      -0.1046155759800557,
      0.07623538693750144,
      -0.0835732634227361,
      0.2275610199818947,
      0.22456815215310874,
      0.010176497666365872,
      -0.10951493807631306,
      -0.053783309960171895,
      -0.04582109808657883,
      0.09736949557308755,
      0.06947841423776774,
      0.1841068354882579,
      0.1657733620124982,
      0.3637491162281489,
      -0.05515424635865848,
      0.09412609195751842,
      0.042832108924229846,
      0.005818409731290178,
      -0.04504414860548821,
      -0.09041284108833211,
      0.26699365399025454,
      0.16472292741497785,
      -0.061133096260143835,
      -0.057997824718604804,
      0.012649004891981883,
      0.004706678832702843,
      0.3315472863733434,
      -0.15989952497347504,
      -0.15522202297263488,
      0.3131941785269954,
      0.09163500997255682,
      -0.10747034229033753,
      0.19002994090341035,
      0.13972184320612285,
      0.06036810928873762,
      -0.03234915830196197,
      -0.07480805892811104,
      0.0008633705089216848,
      -0.0609262279910935,
      0.33109497496426515,
      -0.2660572491348697,
      -0.019253418100357356,
      -0.04918726964226974,
      0.05154720182909893,
      0.10204011372206388,
      0.22828862792280788,
      -0.013221319892400149,
      0.018505020169410195,
      -0.1381918257351833,
      -0.1620809589024558,
      0.0866936649929271,
      0.05177879838568798,
      0.13032780089684093,
      0.36376694878652005,
      0.00021348763586415131,
      -0.27747723244402445,
      -0.03869048674518539,
      -0.027269673196848837,
      0.1410809313541923,
      0.2201122826125227,
      -0.04746924556096151,
      -0.20080270533692463,
      -0.19771192398313653,
      0.05121609322663599,
      -0.2799127207608602,
      -0.17051090410815567,
      0.20270512286252318,
      -0.09491781705400298,
      0.22515457517750678,
      -0.13816304730541118,
      0.05111642926188445,
      -0.07989941712996473,
      -0.19830633157635424,
      -0.2018611657364896,
      -0.05366117907485626,
      0.16375342146341085,
      -0.1411515160382286,
      -0.02832708197443067,
      -0.043539001003133196,
      -0.3573380647200745,
      0.1445674222303706,
      0.18908315876875523,
      0.2828155944748509,
      0.15373999967965418,
      0.07786049470954928,
      -0.02752329061244612,
      0.05211118069311757,
      -0.3289870572006244,
      0.10627995052239789,
      -0.1141317928293868,
      -0.19658005291297528,
      -0.2083610461371112,
      0.1439310985224501,
      0.13626530545993987,
      0.08544730355211924,
      -0.09241866303395656,
      0.01814486605647874,
      -0.26680589328825655,
      0.01408446606864968,
      -0.028639572992533197,
      0.12201270423012255,
      -0.033112229549012565,
      0.24984455563815142,
      -0.019222482257663424,
      0.18808139738341298,
      0.020222497706760656,
      -0.02394854769813864,
      0.024123257152311034,
      -0.007856867897461692,
      0.2537823216038387,
      -0.1506393344305725,
      0.45690662541930005,
      0.23811346583863868,
      0.2486901566185551,
      -0.20056787620696354,
      0.26832340089816537,
      0.3067002133743615,
      0.05481321439484519,
      0.20151327870962887,
      0.21619887791335748,
      -0.27042063953654677,
      -0.031368648240368835,
      -0.12322594322216532,
      0.23480782488122326,
      0.29560712862812255,
      -0.04368897619508835,
      0.044562448169632715,
      -0.28408882820585435,
      0.4677693344165256,
      0.3237704650741865,
      0.19349569653673507,
      0.23202971927786195,
      0.27076295126894534,
      0.22570497529458597,
      -0.2479136603009719,
      0.054227875250881956,
      -0.08237369737592337,
      0.06113359153181115,
      0.25195158755421054,
      0.16021130997059746,
      0.0675677410818192,
      0.021756155205627667,
      -0.16893472987535604,
      0.128509301449996,
      -0.21238757222663932,
      -0.08441918689669543,
      0.02728099795402858,
      0.31830408571070273,
      -0.1753956270890001,
      0.332731582174975,
      -0.2067937363079673,
      0.2386085444788243,
      0.644049165397168,
      0.25853825319678325,
      -0.06734674775787579,
      -0.30193867288932474,
      0.08412010756324813,
      0.049485174114359626,
      -0.315669674918547,
      -0.28813462752142727,
      0.02575833569772322,
      -0.10347515185830494,
      0.009244857965544653,
      0.0749218213814387,
      0.01993678779236864,
      -0.2524658010065486,
      0.19794804986980588,
      0.041061078129143974,
      0.0415384801652923,
      0.3088921446775991,
      0.09474357698761575,
      0.13996768515941552,
      0.08391228385557717,
      0.15451463713208108,
      0.09035945735916434,
      0.33605524732883124,
      0.021426379282640046,
      0.08857790085394991,
      0.2652976576057198,
      0.09938427845776732,
      0.29257852921276345,
      0.3165764789676283,
      -0.34846953759180177,
      -0.0897065890532483,
      0.05201041645895356,
      0.18530644557887557,
      -0.29163480479185544,
      -0.16870703875546172,
      0.19838601200799955,
      0.012108405532579192,
      -0.03342623221449084,
      -0.13657642263834985,
      0.008104816383174614,
      -0.0356334167115955,
      0.2337504476647647,
      -0.14030634150494897,
      0.08063700161707948,
      -0.16919950747736157,
      0.2008656173505997,
      0.19387065366353906,
      -0.17621575956134505,
      0.04764808804160463,
      -0.13414758982549374,
      -0.08388562264183076,
      0.40967769355228795,
      0.06536071396597809,
      0.00945314074766511,
      0.054921587076336466,
      0.06035615568161971,
      -0.0035872540912938733,
      -0.3000629878483653,
      0.3653360715219677,
      -0.0037881807441205034,
      0.18203093688740898,
      0.06301674342183161,
      -0.14091009492390338,
      -0.40224747157782703,
      0.18524497117197997,
      0.25206113851395584,
      -0.1519721713777345,
      -0.26879614466791163,
      -0.2987259078789509,
      -0.057103751248885844,
      -0.0549329209644094,
      0.0005824113905352479,
      -0.08028484847180468,
      -0.16652341785804772,
      0.15272025092347666,
      -0.2053096022865656,
      0.2150222964126225,
      0.033683891511218436,
      -0.12483229412649621,
      -0.02672071684176025,
      -0.03543513732362967,
      0.1881553121639247,
      0.06751783348260923,
      0.06705214013384747,
      -0.2676424469383362,
      -0.07768151982242798,
      -0.10841916828471881,
      0.11852565909730986,
      0.1813139292515372,
      0.14878239009267086,
      -0.16067183433175003,
      0.21522696615525805,
      0.131797958469146,
      -0.11202908782754062,
      0.3813817820146286,
      -0.15680683453834252,
      -0.44318826001520656,
      -0.03842955929961976,
      -0.08363316641832658,
      -0.03850188489733081,
      0.048558931441723616,
      0.32824238056775334,
      0.13264264738273226,
      0.09468261331367026,
      -0.18429487401945033,
      0.1957511789391858,
      -0.045379887671367636,
      0.046954285528251094,
      -0.29006312957242764,
      0.22671561015193975,
      0.017017244410700974,
      0.22585585245968415,
      -0.24570447428869716,
      0.29280258674948373,
      -0.3195807652810811,
      0.022042991510794654,
      0.17818170682486706,
      -0.12839864282543426,
      0.01136177197896511,
      -0.3478613092169972,
      0.2614649738942775,
      -0.3225708847987691,
      0.10583754615364438,
      0.27925965221353843,
      0.0517676890032019,
      0.010707006752222876,
      0.19356076185110002,
      -0.131133320598137,
      0.27342809401907087,
      -0.08697224347161786,
      -0.13716307815450338,
      -0.07060131679074477,
      -0.06418661601367387,
      0.056497069028936225,
      -0.23819322085075761,
      -0.004283901716997496,
      -0.12264427943100406,
      0.13142833033441442,
      0.2532049981961421,
      -0.14664051728107175,
      -0.48397408747025605,
      0.12081600881186207,
      0.17715288974579058,
      -0.23660881886576882,
      0.07640125739334477,
      0.09183705540642847,
      -0.24474223334050102,
      0.16032349145094119,
      -0.17239692920342364,
      0.09059827014791594,
      -0.03392541488729703,
      0.037366743415340097,
      0.18427934442018598,
      -0.10264447925146371,
      0.15458110903444416,
      0.44470973452942747,
      -0.03336509951700102,
      0.17622701913689065,
      -0.03475280284834101,
      0.07685411513406075,
      -0.02007632175003976,
      -0.011187770458551825,
      -0.125099219268399,
      0.5570682288229188,
      0.23161094614832373,
      0.22647826617976644,
      -0.0074070585206399715,
      -0.1526165185720241,
      0.1988799318403719,
      0.18037187364920296,
      -0.23696405852165484,
      -0.2295663218340981,
      -0.03491034311209084,
      -0.1508313850865258,
      0.03510451598664765,
      -0.22503277520466602,
      0.09660081068032876,
      0.18887408815099957,
      -0.010855637744923785,
      0.23174033132591781,
      -0.10582364347477975,
      0.04444804489669109,
      -0.03417596257791333,
      0.180377402712097,
      -0.15840728857616704,
      -0.43835193989207083,
      -0.1467263496632269,
      -0.5672658779908375,
      -0.24927429280568064,
      0.27553499614512195,
      0.08116614772415945,
      0.2445695511676587,
      0.04524548648161993,
      0.03624271018007627,
      -0.1693290448018766,
      -0.158953328346448,
      -0.03071098337251353,
      -0.18422126852363596,
      0.2167361879756567,
      0.031194614111160243,
      0.3675219708304768,
      -0.08614505630883797,
      0.09186572156545983,
      0.15397402346746528,
      0.12870551988178283,
      -0.4497914479288118,
      0.11826183660747444,
      -0.3865977893600179,
      0.05547289006415408,
      -0.0725983862870624,
      0.117756187468326,
      -0.0024591584595638066,
      -0.3527564834842079,
      -0.22477319857648123,
      0.12994923185685264,
      -0.02382616072347175,
      -0.1466566271936029,
      -0.05598488038217611,
      0.028149505418136204,
      -0.12313880415607159,
      0.04250825376526468,
      -0.35857339982816255,
      -0.08390914142170665,
      -0.16660976007930867,
      0.075369456891911,
      -0.24471872523616117,
      -0.10548147559257617,
      -0.12979618110039537,
      0.09461009174523252,
      -0.3277342176158986,
      0.023375564143596372,
      -0.0014564676432722995,
      0.10995060556925872,
      -0.08549959206800226,
      -0.2352439330476208,
      0.0519289409754943,
      0.06986677614201017,
      0.224102701500614,
      0.056290156558884856,
      0.4106140564088655,
      0.2491450305028912,
      0.04971616081829863,
      0.022156196115326265,
      0.21138331734235258,
      0.1682623031496282,
      0.0062228074855775264,
      0.21860415209343154,
      -0.0329508025157615,
      -0.17145023400539164,
      0.037037736299480886,
      0.06477060346452189,
      0.17176577392999295,
      0.07253329060648415,
      0.16180327467896477,
      0.33801087877618685,
      -0.19222479420824745,
      -0.3020985000749483,
      0.0765749724830327,
      0.3762015579363117,
      -0.051897721381853626,
      -0.2850145338737704,
      -0.07783967887610507,
      -0.23664940574458523,
      0.06416300484699075,
      0.20781835168798707,
      0.2216683814376908,
      -0.07524606478231112,
      -0.18451601620827893,
      -0.21005060533953318,
      -0.08959670157484642,
      -0.053666225734121054,
      -0.14731637961133756,
      -0.012335562149679444,
      0.04989816299789614,
      0.09601558899867771,
      0.14547464353618136,
      0.39930402788435676,
      -0.1979366398811569,
      -0.054763854431184915,
      -0.34106750824328086,
      0.031028205646072574,
      0.34797211576600473,
      -0.049495671725391856,
      0.023883432630737556,
      -0.05616301028567641,
      0.12389296753772368,
      0.2643043753748835,
      0.21701727185027625,
      -0.040060375100205575,
      0.3540812449680945,
      0.1481209718229268,
      -0.2133185522850286,
      -0.36434051811135737,
      0.04945500355999712,
      0.0007130993099987139,
      0.09165070272952566,
      -0.0306384429909319,
      0.290622180854575,
      -0.12407307959807454,
      0.03400154800013311,
      -0.19930260252975773,
      0.3947872114487777,
      -0.09535775647733363,
      0.16295590947141864,
      -0.0268719268892903,
      0.03876865879520884,
      -0.09743113508955153,
      -0.13643302978129762,
      0.1959256604828552,
      0.0034770679784115075,
      0.12673759252129943,
      0.015737036721155104,
      0.2273826057901912,
      -0.16408573886876238,
      0.28883633530382685,
      0.025190748813778766,
      -0.19741646850653355,
      0.0044628195357137995,
      0.0961761112848207,
      0.07943801246115823,
      -0.09107808402115827,
      -0.07459098785329685,
      -0.035145131899977075,
      -0.02681868998413471,
      -0.05164281300362487,
      -0.31689075020838486,
      -0.024446920359892654,
      0.2570136940223522,
      -0.10100021810407525,
      0.10154865859178681,
      0.0137795253537841,
      0.26654013641657287,
      0.0744979075680807,
      -0.3241816716262923,
      0.001207042023576542,
      0.016284597454072625,
      -0.11283440116705047,
      0.0019276273501842855,
      -0.09968561752131178,
      -0.09173489457097143,
      -0.09772542564482001,
      0.22949826743556428,
      0.41348631592416013,
      -0.3370593027376975,
      -0.18185471475495313,
      -0.14704594023046114,
      -0.16738220080892027,
      -0.263877730384415,
      0.03473356685999491,
      0.011196737583542102,
      0.1754065491737984,
      -0.13162368466550015,
      -0.0748685745708315,
      0.05716279915526787,
      -0.04122801577558158,
      -0.7575955833403957,
      -0.13444687085379692,
      -0.21240608656514529,
      0.4418080759246354,
      -0.07722862444224873,
      -0.010962133163588211,
      0.037147559768761496,
      0.06858027159007382,
      0.06382639831065255,
      -0.1382622578492087,
      0.10056405618254871,
      0.33011312421944783,
      0.10372711349563456,
      0.07781873376125023,
      0.004777212769699262,
      -0.04706493250808741,
      0.3065288682187398,
      0.20397308196195524,
      0.12364602087990274,
      0.030181206061728246,
      -0.03667404142597608,
      -0.0016482089957801094,
      0.21339502444820974,
      0.05519648671475507,
      0.1328250070853851,
      0.21570578486970976,
      -0.01629301723374828,
      0.36225963049490434,
      -0.39469195458862094,
      0.39673616858540695,
      -0.1207230277042171,
      -0.05434886992055433,
      -0.09153708495660608,
      0.24410855681297317,
      -0.06022579822188076,
      -0.005434546563607531,
      0.143987584096283,
      0.24830338477923944,
      0.4455951151110297,
      0.06353606794218317,
      -0.01618810502548683,
      0.08858741906469399,
      0.23681929716979855,
      0.013107744782286983,
      -0.5198979922703142,
      -0.08273043910920294,
      -0.24036725614217683,
      -0.013109548832474602,
      -0.17940049176575223,
      0.19016420640106368,
      0.2129277050211681,
      -0.17449350500299138,
      0.029001770166524082,
      0.48666865207362897,
      0.23171560439814362,
      -0.05043344439089614,
      -0.2705824521934862,
      -0.08838374668424766,
      -0.0745264599093787,
      0.12714354833508382,
      -0.2280896182731817,
      -0.1408243255038786,
      -0.06275359862348795,
      -0.17617110924264623,
      0.06409967399634975,
      -0.2744258258187131,
      0.17644879259467378,
      -0.003526016326405493,
      -0.004204973776528006,
      -0.22440655123435996,
      -0.2853274686005755,
      0.05879081082209331,
      -0.14347047298511317,
      0.11417223106445312,
      0.12053040175266452,
      -0.010202285695969081,
      0.006502360278600697,
      0.08135402214042171,
      -0.02790470018549135,
      -0.016192542051252257,
      -0.18859506415570776,
      0.27272760321363304,
      0.07364790390560577,
      0.012631908613192617,
      -0.15392741168716612,
      0.07345798915654103,
      0.002999691971804247,
      -0.35742936336479625,
      0.0149578924414413,
      -0.23764135017618332,
      -0.13547873568116708,
      0.06399800902540667,
      0.09661225063767556,
      -0.027725479584365248,
      0.22947871010982138,
      -0.12442981025757605,
      0.2113710075430183,
      -0.02841606351885788,
      -0.15104290393128222,
      -0.24977118761176823,
      0.2773145871208098,
      -0.06106325320628368,
      0.19304597337498325,
      0.016439026834894455,
      -0.08479150081885792,
      -0.20474989003573138,
      0.2210598050023277,
      0.19933778635970134,
      0.22855254403180028,
      0.11467113465721464,
      0.23120238406671817,
      -0.13334690109431524,
      0.25418691496919854,
      0.2542065250535707,
      -0.07755524960003761,
      0.0009044603169997417,
      -0.2701110044640027,
      0.16743372132665654,
      -0.43051049856077184,
      -0.09560222859023917,
      -0.05106733149840684,
      0.26139424141124673,
      0.019825753315308867,
      -0.16784219234742315,
      -0.16028272557191603,
      0.069890285751521,
      0.2515717971987619,
      -0.09591071143279681,
      -0.24368728419454788,
      0.0918935529263101,
      0.48875191164571496,
      0.04956151074675039,
      0.03585504105899222,
      -0.13190300396826196,
      -0.04276959122522918,
      -0.2634576111562837,
      0.022728245892285642,
      -0.01914778696977565,
      -0.017740104031467724,
      -0.2207621273048499,
      -0.3123123275665649,
      0.2287370213458143,
      0.0005420038946766237,
      0.3236011793062834,
      0.035351890409932724,
      0.2699909912140549,
      0.06518665467409884,
      -0.012406817344219001,
      0.09550490433216541,
      0.300533503179819,
      -0.2601699807035633,
      -0.0940402442619896,
      -0.09786486333019406,
      0.0565424640885783,
      -0.2613682620525435,
      0.04175524967336276,
      -0.420383737534548,
      -0.08916703552703077,
      0.24130876137607707,
      -0.0045649605385903805,
      -0.1247183637362295,
      -0.2287697183478461,
      0.1641348020790488,
      -0.15576580677572333,
      -0.4994669759181727,
      0.1921357477329454,
      -0.12640085739734724,
      0.1236263463377591,
      0.06845714689456564,
      -0.3866822249412626,
      0.17522384921040113,
      -0.030644464730929813,
      -0.022584539555834907,
      0.004651545131543602,
      -0.08072669712504607,
      0.20467619863105507,
      -0.028551238537180168,
      0.1418103759232221,
      -0.29619029860997204,
      -0.055115079141711,
      -0.16560429645094527,
      -0.31155384670659936,
      0.13570664352664905,
      -0.11032142287322834,
      -0.03970966046388878,
      -0.2958865075539827,
      -0.2903662816945743,
      0.07274166925794648,
      0.01403011391179012,
      0.02879639802499835,
      -0.111827963726875,
      0.11046203922544326,
      -0.34335433312770425,
      0.04127698743723386,
      0.06713424665738849,
      0.17687895202336898,
      0.13101469950235808,
      0.01402006336661497,
      -0.01877620959886936,
      0.06719890302992672,
      -0.04721365524571254,
      -0.006422296850984471,
      0.17393001970924632,
      -0.12093190003488166,
      0.14276577194492662,
      -0.5356829068599934,
      0.03435686636668757,
      -0.04864254970004424,
      0.17164319642180786,
      0.42682972851328693,
      -0.008870067396758871,
      0.2103797359582882,
      0.2087462495767925,
      -0.05841018545110397,
      -0.003101219630671356,
      0.21964912159679814,
      -0.03247354170703701,
      0.0687424915836721,
      -0.04087706253827812,
      -0.0751165351778458,
      -0.10300571455167692,
      0.05946353706157022,
      0.011182025427479605,
      -0.004098745848204063,
      -0.051284299243118336,
      0.007815758995765532,
      -0.0069398505546477,
      0.01792465827003391,
      -0.06901860916089,
      -0.4043977669548827,
      0.08294445280476209,
      -0.11764666040775035,
      -0.12340236530830692,
      -0.0627470721569275,
      -0.13434150173625725,
      0.006316536413658175,
      0.01605837000992728,
      0.13368176020547845,
      0.4992139714677357,
      -0.004559240989943619,
      0.26286345326959837,
      -0.2395987123002558,
      0.28147658367425277,
      0.16268102622619413,
      -0.019938800848189688,
      -0.14539674351574328,
      0.1658988285217214,
      -0.1544995698251134,
      0.040095211545986,
      -0.2597678126466442,
      -0.03085050054012303,
      -0.20187757891020144,
      0.08094420851500361,
      0.14882576379572252,
      -0.17661828184332726,
      -0.15157689000884456,
      -0.16061184415518193,
      0.20942289287539032,
      0.1313709949858725,
      -0.15247382787183134,
      0.05729249049385446,
      -0.03280450232947647,
      0.021027494591494035,
      -0.04341725808637153,
      0.29293361055917233,
      -0.14430808122521271,
      0.4164176168107672,
      0.14224053304673306,
      0.07729768559106934,
      -0.3249782193620327,
      -0.4081775657625647,
      -0.018545024447342285,
      0.043298758754220276,
      -0.0545974486609235,
      0.12272353748534923,
      -0.1584923839777202,
      -0.10702071077276248,
      -0.10728324035868073,
      0.36598369117994245,
      0.07685351318443148,
      0.14772238366206325,
      0.053587998158207056,
      0.14644363131405638,
      0.07022423891110469,
      -0.026899068455459377,
      -0.3405662004746567,
      -0.10866058054157435,
      -0.5294812022717446,
      -0.054925715180790015,
      0.030981976906690217,
      0.19184576705119327,
      0.18251562530951962,
      0.0026831843831011948,
      -0.18632497901881862,
      -0.11475849541810335,
      0.0976293499453105,
      0.13802599230043988,
      -0.22612453580923936,
      0.11583688662693604,
      0.151932505683803,
      -0.20172464187981673,
      0.3591279159621601,
      0.143444833370756,
      -0.258175080646925,
      0.11832200242129803,
      -0.19125610937847798,
      -0.06486041687572108,
      0.21165610266341214,
      0.077409225827561,
      0.06708357675906126,
      -0.025261898195431412,
      0.20567075865014228,
      0.558386172254459,
      0.014102859584845898,
      0.33061585870723753,
      0.08919500605109983,
      0.024070323533928063,
      0.07915057271065881,
      0.3482328360503574,
      -0.48769342796164084,
      -0.14389278631991909,
      -0.034792908212708556,
      0.1284572828470086,
      -0.019486547986537164,
      0.3136940044400205,
      -0.1590580302561634,
      -0.24505871702328452,
      -0.06335937874290942,
      -0.0036059343766783603,
      0.32235276340616625,
      0.503193456505661,
      0.06765552860463035,
      0.1941333617042369,
      0.3918807319290244,
      0.08092026088952659,
      -0.11044488263341455,
      -0.22328147719426492,
      -0.01833915302846416,
      0.008625959163683139,
      -0.09889012369670436,
      -0.07128131393941438,
      0.5414409665677442,
      -0.11200867613873239,
      0.10985313550523265,
      0.1412705748225359,
      0.09504296845686634,
      -0.2726935810247005,
      0.32240214735048156,
      -0.033799148886677996,
      0.33813758532604316,
      -0.021529346292332607,
      0.08307540346086362,
      0.005258348105259186,
      -0.10023117634175648,
      -0.37302927068761815,
      -0.25192618929287125,
      -0.026953028137153848,
      0.02264016306206834,
      -0.2708787566631406,
      0.10048284418674748,
      -0.03455945653104331,
      -0.2321969160994506,
      -0.25691315614855936,
      -0.28166205421999563,
      -0.1386098865201889,
      0.1885080754955531,
      -0.07320212336040914,
      -0.24065897227280433,
      0.3808570337514058,
      0.05141175594791691,
      -0.27801350406120795,
      -0.3101730375208713,
      0.029951697687382064,
      0.11709259669938196,
      0.07784975150895516,
      0.34805181358780307,
      -0.00334867458967758,
      -0.1591316846362826,
      0.06441874168510824,
      -0.540528475185088,
      0.10136579930335872,
      0.024174464525131764,
      0.2654233973335968,
      0.1735157385507301,
      0.09565355347599314,
      0.04088225481455551,
      0.4113390809884365,
      -0.13204209231036518,
      0.15714956769918048,
      0.06032088503078367,
      0.21816444175061678,
      0.04065909520638153,
      -0.09352130045744113,
      0.06338003088601328,
      0.1532912061383025,
      0.2666074208443169,
      -0.09494929017210481,
      0.013661908983541096,
      -0.17213624719296022,
      -0.01586765610317209,
      -0.45015464678441797,
      -0.20474908413180776,
      -0.10158337476928696,
      -0.26189142452517955,
      -0.4580339092135324,
      0.050400776534876957,
      0.14352578932531254,
      0.1909580024307952,
      0.003136277104166113,
      0.04197923506507045,
      -0.013684234919432103,
      0.190525656805639,
      0.021747019482603037,
      -0.10615210387415494,
      -0.2115695108432769,
      -0.09497896038360693,
      -0.009856610326054213,
      -0.005416749254946174,
      0.042610003996913365,
      -0.22478354278325446,
      -0.06335894804148531,
      -0.0432469730267486,
      0.05167938655981036,
      -0.15448236239696955,
      0.2709294938321796,
      0.031621179360337245,
      -0.30372662102477216,
      0.19793159948748756,
      0.293469882896504,
      -0.037847921665767115,
      0.13180787692813667,
      0.08252538990530846,
      -0.14805141686354795,
      -0.03257682853961093,
      0.20538158562211167,
      -0.038177199984177505,
      0.1732761732099784,
      0.009891398133277655,
      -0.054859478172578316,
      0.31239387454209633,
      -0.0926619620936184,
      -0.02679867453659006,
      0.06625250424528184,
      0.016929158900170403,
      0.048064934129893974,
      0.08392824026322097,
      0.06997902816853051,
      -0.06972681201239833,
      0.27910591481253005,
      -0.19249351632117898,
      -0.06363110779522119,
      0.005907964263334037,
      -0.252779086039763,
      0.06442325108370078,
      0.09603878533659538,
      -0.05241149385227282,
      0.02650690416149651,
      -0.023900284030254938,
      0.10712890833383082,
      0.09429778820860932,
      0.011632526725225745,
      -0.06139068042595042,
      -0.4628300328104883,
      -0.43766203088999134,
      0.32140858245829773,
      0.02385280149036267,
      -0.0971429296334006,
      -0.09376931780256165,
      0.06284143714007395,
      0.0745442146877856,
      -0.017847501318838756,
      0.11018427948614104,
      -0.04352305776071283,
      -0.1907556243503702,
      -0.35304935674076104,
      0.21681080427058683,
      0.01608786759295537,
      0.019016348931284097,
      0.06946623497974028,
      -0.2693362453898266,
      -0.08136951532487857,
      0.3215053518704585,
      -0.11696974253097418,
      -0.22294917375831713,
      0.13243742768787986,
      0.020123393178556742,
      0.1424316363094354,
      0.1667826690209518,
      0.034204107927662285,
      -0.023596711365566993,
      0.16585183855547975,
      0.1721820597055319,
      0.013437369588398265,
      -0.016489041899461626,
      -0.24875866288744491,
      0.18010102185361085,
      -0.05498784624308521,
      -0.11576690045165118,
      -0.268083196014974,
      -0.1522002709806179,
      0.016344067480786942,
      -0.014232342409207455,
      -0.06759248420487508,
      0.29257106647079506,
      -0.13634481108460364,
      -0.11891426075599279,
      0.4181253872936597,
      -0.04534976162462684,
      0.03175351967835652,
      -0.2640637670658354,
      -0.28886733994410435,
      -0.13868231648514995,
      -0.033452739589543916,
      -0.009282039332319986,
      -0.09876638707387389,
      0.12153953765846406,
      -0.03800340014166795,
      -0.042361508803702624,
      -0.4363924228904903,
      -0.2097582474252441,
      -0.3394671142033703,
      -0.08944461718889579,
      -0.0760742895717556,
      -0.01189888765775099,
      0.14775830066021317,
      0.3512294020748512,
      -0.24616517290766018,
      -0.27350844387781137,
      -0.02236614001629792,
      -0.038219113683985007,
      0.03884906164187177,
      0.07015183250350189,
      0.05956063875950529,
      0.10033433320978846,
      -0.1045229737759436,
      -0.1333562537653671,
      -0.07938383104061227,
      -0.10954316421260438,
      0.04730413440856828,
      0.34444390070093767,
      0.3431066585221458,
      0.17187223737894614,
      0.34076156691726633,
      -0.19094809176958502,
      -0.7042185015189658,
      0.3236317018770917,
      -0.15495149007862224,
      0.14585982983004267,
      0.09999078379160536,
      -0.10286845356347313,
      -0.09345869779700959,
      -0.26910834899524516,
      0.2767506756351879,
      0.11161243229092764,
      0.10599949914867716,
      -0.2657313144016977,
      -0.33262668802931056,
      -0.035971749862369805,
      -0.06957472203677696,
      0.07748254356389711,
      0.06120483589585435,
      -0.06859214296982596,
      0.20299378644197835,
      -0.005726971129932808,
      -0.1059813768284057,
      -0.07290506614016026,
      0.3210190512383155,
      0.2637922455074784,
      -0.09683066443639624,
      0.07523077796096923,
      -0.11187798255116298,
      0.1484386702747605,
      -0.0746415598910348,
      -0.0008265526868231831,
      -0.0018850014826543443,
      -0.1954811550546317,
      0.10544015994128761,
      0.10854616961110736,
      -0.22655961760265672,
      0.10652012066744092,
      0.23161310335510757,
      0.15401767542932665,
      0.1408764173299064,
      -0.1877128110586533,
      0.002506907179416623,
      -0.07714446789438242,
      0.05567368529395532,
      -0.09410647965100387,
      0.17191799468769092,
      0.2691035575250851,
      -0.42894907882016775,
      -0.1239414268889715,
      0.45307868824468356,
      -0.05376484717817247,
      -0.09015795998307766,
      -0.17848603750571093,
      -0.05154239559353348,
      0.02382260045995717,
      0.02851671021459895,
      0.3483251562731652,
      0.4336639087125262,
      -0.13061959705032883,
      -0.4297333058163235,
      -0.08583335947268285,
      -0.10386452647199249,
      0.029111604612473668,
      0.109814876877155,
      -0.0014438936309819211,
      -0.168618563897386,
      -0.151987538287561,
      0.07933635061181918,
      -0.15327474200885086,
      -0.018446115490134113,
      -0.3057110357247831,
      0.08408820837810402,
      0.0155333513472845,
      0.1942870891105365,
      -0.07023345547811466,
      0.048876428073640135,
      0.11328554106480135,
      -0.10951206335131367,
      0.200872147721236,
      0.13597557623061302,
      0.07535727813791188,
      -0.35013605955097327,
      -0.28877885786334856,
      -0.14612046716985744,
      -0.10650029618643814,
      0.06949096486090524,
      0.07238849969363925,
      -0.20684261407648044,
      0.06402086154235237,
      -0.24171373328339607,
      -0.12059950552495827,
      -0.15912130347597414,
      -0.024870109263829807,
      -0.059972102547672546,
      0.3359253120106268,
      0.2728963867437261,
      0.20545471956184183,
      -0.15629109113188713,
      -0.028649700115269128,
      -0.17781144446386338,
      -0.09104316476283153,
      -0.013567286850709629,
      0.06126996048792488,
      -0.13920465275726113,
      0.19063821863182484,
      0.17766585625888234,
      -0.4648402315608187,
      0.031088654291616613,
      -0.3474135687630291,
      0.04410120871552961,
      0.05641625317239696,
      -0.1273422984722024,
      -0.26523991127119034,
      -0.02197110553817635,
      -0.26674945732043454,
      -0.24640333773646753,
      0.17853773487676627,
      0.1995523861705159,
      0.1625187589116666,
      -0.22092382569638416,
      0.1365218648238028,
      -0.28666516141978554,
      -0.35530544163015826,
      -0.11940249208125824,
      0.0028698645577351634,
      0.21214531808422354,
      -0.09373984859164754,
      0.021924868130590535,
      0.018032409137667987,
      0.019081259102749763,
      -0.2577660143877964,
      -0.4535581195764597,
      0.5179383997105964,
      0.16176814761316471,
      0.0797295420495526,
      -0.42442189292357496,
      -0.12922203178398917,
      0.3435496544408039,
      0.0364652201593252,
      0.11931192085190567,
      0.1149696250317955,
      -0.162604025940908,
      -0.22993384707906042,
      -0.17236246124275317,
      0.14902050351987173,
      -0.11565320378932897,
      -0.14570077768763653,
      -0.08948189180247086,
      0.2481220799446039,
      -0.0039835879219644555,
      -0.10002851225563827,
      0.05561384318038402,
      0.04188359738400365,
      0.18319939750238745,
      0.0482068670498014,
      0.030905263460781273,
      0.18688306280414813,
      -0.16884749685993494,
      -0.21795786996867206,
      0.25267989855591916,
      -0.06191012953772253,
      0.2435678478394027,
      -0.1937883534489963,
      -0.02767162328982642,
      0.29867258861669577,
      -0.17141456494101387,
      -0.42090425000580367,
      -0.2258202698252524,
      -0.03854941604024827,
      -0.23484567132533174,
      -0.28872505862247405,
      -0.2582151425769356,
      -0.1875950134652904,
      0.20116457378882832,
      0.08337547975345108,
      0.08521785830897188,
      -0.21960871392395104,
      -0.0767004584205308,
      0.23971918296349598,
      -0.3238714890419428,
      0.26241456602068003,
      -0.11030328922745362,
      0.17407724021035872,
      -0.1165019686110619,
      -0.05931497043188969,
      0.22299314744843035,
      -0.33533159357212344,
      0.04289605722931112,
      -0.2862625684071523,
      0.3552186338928376,
      -0.14539430881768262,
      -0.12174598496358185,
      0.2861394014358271,
      -0.11379308456700851,
      0.15297472971878628,
      0.13707949158682944,
      -0.10141367084242611,
      -0.24901778892802395,
      0.14526184711031745,
      0.24169582099582054,
      -0.24437785905763015,
      0.135880357555168,
      -0.09445574198973257,
      -0.09441894723307911,
      0.06964749277955636,
      -0.06655268303147585,
      0.006343191439932436,
      0.07940251995468578,
      0.12855477987178127,
      0.2254280669527472,
      -0.38481022712603935,
      0.05629616928657033,
      -0.3267266852257408,
      0.05722583876302653,
      0.28542744261611563,
      0.06014490886410172,
      -0.22328599588169284,
